-0.235780228738359
0.406601548736455
-9.63637506092917E-02
-0.334454675479084
0.52710870121435
-0.390218131450187
-0.735640687229938
0.286303049742906
0.985156680181363
-0.882130701695659
0.828116000678693
0.151712659630579
-0.915969202291777
0.572019882270449
0.490478181752413
-0.805864796913074
0.247407779637851
-0.682298062406741
-0.958387979029339
0.185811520682028
0.518647928783088
-0.159459169274216
0.567455259515153
0.751173707632511
-0.754644432510691
0.995309748683769
-0.414660129349005
0.676605321597051
-0.534176906522541
0.75395785102676
0.413877483106222
-0.470325081198322
-0.958879632097473
9.89573376951149E-02
0.81793953022504
-0.593492961343704
0.273857502283322
-9.88580927150572E-02
-0.676919349084191
0.745095955616683
0.264414412339378
-0.8534005012796
-0.240230990159821
-0.42599191719459
0.577696430739926
-0.28492701424642
-0.423697143454516
0.310059306766563
0.928240312310809
6.27131514495423E-02
0.250308374195009
-0.724805721766453
-0.46123871497358
-0.375081384917467
0.732229588793032
0.471935630925041
0.586996999048229
-0.469611704152219
0.270236402101095
0.838411057058313
0.727969883682271
-0.694597357983675
-0.805507191712939
-0.801892704849851
6.35552552931631E-02
-0.35225994818575
-0.720257195958413
-0.573859241463134
0.12850787228053
6.25263323224703E-02
-0.841313133626311
-2.70252183112699E-02
0.471865549276615
-0.822295384570325
0.924638298947565
0.818154224593599
0.234913640261316
0.894704734729926
-0.459536788289061
-0.829230859684472
-0.238339472942988
-0.819718643820088
0.961824795533577
0.78999931931381
-0.27496099144991
0.268380325510756
-1.37330784634928E-02
0.668232355759693
-0.488185178865876
-0.683715956773435
0.755688776625344
-0.999111100530073
0.681448720269751
-0.852823046558771
-0.431722736165163
-0.138771572631189
-0.801075505745093
-0.388337163484448
-0.803020292861986
0.805050707267486
-0.161179451314291
-0.686343845070486
0.265114917587246
-0.250652351038522
-0.332331275825392
0.97146063429186
0.395736556687351
0.900601630421046
0.833909181352845
-0.477261446427607
-0.170121905416062
0.252566550742389
2.95163239605687E-02
0.23246516694222
0.999824443756761
-0.769991117296368
0.934635895769185
0.525852779006593
-0.85292935553295
0.424025983780383
0.716339308721278
4.36203765798728E-02
-0.509355649158498
4.62006320362633E-02
0.224866805525586
0.504874522459615
-0.320016261716917
-0.277010138922509
-8.45036060792269E-02
0.363258688359984
0.307578059054022
-0.441611467596371
-0.278558002269937
0.954917947798826
-0.889905288597259
-0.987952912116517
-0.887051535202425
0.862217347861446
0.15273090143448
7.16646792118723E-02
-0.599981711457999
-0.444957633943669
-0.229955391067534
0.442619143129894
-2.90309116872323E-02
0.021900855206701
0.327534967738126
-0.965564577977196
-0.393712209064998
-0.934063764233791
0.971757440781006
-0.107164177713715
-0.732988079118093
-0.783647665020784
-0.547224826320916
-9.22453637630937E-02
-0.170864971025807
-0.206358669963615
0.831263605926693
0.121841685469118
-0.879701879431745
0.567396088677067
-0.57639947807158
0.270618939813499
-0.687704886898286
-0.341620517130973
-0.308210080645923
-0.695404435356212
0.232685833058876
-0.138086062205734
-4.89165925697169E-02
-0.924712759466403
0.481075271131951
0.407544181957033
-0.253321410553113
0.111225874915879
0.370384390714511
0.320318043852548
-0.458110817424718
-0.533312698940497
0.660702301604302
-0.988080095241775
-3.63020109121224E-02
0.995003971993482
0.813075897511782
-0.494717804922938
-0.732381500481213
7.99716253402853E-02
6.28587731862655E-02
-0.215808616881565
-8.76926180119595E-02
-0.147001781139757
-2.99370472372673E-03
0.159794670721778
0.175385189075682
0.230285286561954
0.516969918376445
-0.741194582426378
0.595438380440505
0.723471264511311
7.86089193011676E-02
0.26359468018862
-0.308808201401514
0.908808216258323
-0.07719588774452
0.37224780658181
0.887355348175665
0.684082862515721
0.645222586595914
9.70553165828096E-02
0.867665645127929
-8.65671087784903E-04
-9.90505864742663E-02
0.982797736143505
0.679157561765765
0.614961022830026
0.299466949188123
0.601575103804794
0.827717573278111
0.628050143224018
0.61772835078258
0.268822142907314
0.333485336804907
-9.29634673663926E-03
-0.656162345087933
-0.174459154146747
-0.744313763107566
6.47752520255216E-02
-0.738886009948337
-0.955327179097478
0.549992924862128
0.365373536172818
-0.707916302070298
0.744924446035434
0.287529952371413
-0.917272779940344
-0.855790794235337
0.533248405015743
-0.756849709424057
0.71454875953641
-0.566070580538812
0.247575801262259
-0.348370707114171
0.197873418066235
0.912852079449218
0.634283889594685
0.533936641943261
0.298491559741211
-0.8202961386542
-0.429725404413326
-0.588237819196311
-0.30226770956204
-0.166090197209036
-0.772569685514957
-0.543011886256301
-0.789502386722434
-0.58856035766244
0.977603403636464
-0.836185464214241
0.875086438226908
-0.359176668659497
0.549186882002804
0.484761873655149
-0.72551134727943
0.567004454637247
-2.82955561877194E-02
-0.962211339438783
0.380470230832595
-8.70341564739054E-02
-0.817251929907272
0.470279416080113
0.455910570849578
-0.316173267833051
0.821982831486355
0.356672116364391
0.107494261096627
0.465376930869913
0.699828474561887
-0.889988455793359
0.449999910638696
-0.871220912722321
-0.296181573796517
0.303729262593551
-0.474930709920222
0.725435372903003
0.493527431548963
0.52846732103563
-0.388519147185062
0.24078108974799
0.235349145471502
-0.550221690469738
-0.129408026105213
0.573032787755207
0.84129650329546
8.60496761628671E-02
-0.110244617349832
-0.387315529325958
0.70138778698877
-0.507983799758692
0.118155145530588
-0.379189084942341
0.737071617609231
-0.988259879589094
0.933649187267769
0.239002958408392
0.753535582073174
-0.944046298884895
-0.864155123013987
0.411024769980058
-0.468366929253678
-3.78249311653475E-02
-0.970224280739001
0.256049449168373
-0.124445962147576
-8.79764836564788E-02
0.94618716170393
-0.494405761224215
-7.97445849304484E-02
-0.891323768353669
-0.961419193459388
0.501042741823057
0.403058477244669
0.458423723844631
0.503806211655858
0.945906809142514
0.316709912218604
0.853797625737763
-7.86939071283366E-03
0.616746681040711
0.386595139763024
-0.178241061844607
-9.56425450628385E-02
-0.941066448714047
-0.847317972364542
-0.221048281500298
-0.482294956844726
-7.17961436506559E-02
8.71646188736643E-02
0.427041922472868
-0.561202719623048
8.62212739623525E-02
0.141666460915422
0.924677100153965
0.751259521759268
-0.181873335960642
0.393254147141594
-0.611381832868325
0.407052264845499
0.612323127849638
4.64022399816657E-02
5.11033785912618E-03
-9.51826910490922E-02
0.827508006120771
-5.15588899870079E-02
-0.426424491504196
-0.894849749861755
-0.73076999317192
0.98891030649829
-0.341775629447381
-0.848145001357535
0.208014306604149
0.278630306918803
-0.310798061148194
-0.10012410663948
0.693365637918538
-0.157803812424953
0.333396045635945
-5.2562669392151E-03
0.152723096965983
0.707987675824606
-0.753946460279527
-0.194986875252722
-0.788292356596005
-0.257319811370659
0.917865223521061
0.778308476019971
-0.568231962667849
-0.647367409870499
0.748195353897898
-0.526762960015601
0.233596817681877
-0.737582409300096
0.703648028792898
0.513568123461662
-0.340546516320815
0.981151600501248
-3.78224019704115E-02
0.017717623712973
-0.175202240810332
-0.719828541558866
0.796466606950866
-0.324281433315137
-8.05985994682616E-02
-0.969004083185114
-0.38369028934642
-0.422502056958174
-0.559627354534118
9.04004601361073E-02
-0.431741848251189
-0.859578397726994
-0.025707114081821
-0.430174906999842
0.381794838681881
4.07092450026076E-02
-0.707068834970968
-0.210775835603781
-0.745174594365932
0.9224618860966
0.786767070809806
-0.509140305747294
-0.512713003514113
0.839685529717466
0.3328189976337
-0.523571554146543
-0.69980884756405
0.88083460933229
-0.421960362546145
-0.268694940762942
-0.181566253575749
-0.767960048742754
-0.683193044933915
-0.687426602541961
0.549219687115254
5.43263546470243E-02
-0.849196452537548
0.802908973989296
0.853966672231743
0.981765610509673
-5.81560138485832E-02
-2.97336406643111E-02
0.890066939809517
-0.208348539689143
-0.297025425755037
0.423715586214242
-0.710097796465034
-0.145576617391933
-0.479564102634704
0.518662379860878
-0.551977470441735
0.340206909180615
-0.141155925816295
-0.459921928788738
-0.296584780624381
0.840479067568599
-0.82578740215942
0.280254696548573
0.932305760219093
-0.942492592783691
0.144201375073635
-0.472007316402666
0.107948175271717
0.520852484334884
0.022246442868181
0.699017932400433
0.237378230461807
0.909363973946295
0.631988432292812
-0.137183405697259
-0.248882108875185
0.488740953340097
0.340683881186381
-0.241033874078598
-9.96643410526781E-02
0.418868134226179
0.985049332389927
4.64317819296292E-02
-0.993017173539994
0.241779750532536
-0.829746788874981
-7.8115530951407E-03
-0.484058872808022
0.7302441023849
-0.377463189732037
8.09181602597202E-02
-0.285766833428716
0.458601851314917
0.348210703053231
-0.384575157137884
0.710862557290802
-4.83680950802717E-02
-0.763461260370116
0.27779748829511
0.811866180980582
7.38598081136641E-02
-0.558712158956989
0.834244371336887
-0.221323201636279
-0.559136621651784
0.385486546798577
-0.308088539314705
0.623909647169647
-0.934228240346488
0.556201889043235
-0.146111663679342
0.577202699314025
-0.801705944565932
-0.609091291257372
0.968995949607425
-0.355244713096983
-0.629745338477166
0.504292527025828
-0.364158755220109
0.789725906841507
3.07531222641182E-02
-0.735908871042043
-0.103986090666142
0.176665432784334
0.835706609445162
0.296846978465539
0.939191545048804
-0.848322315656799
0.650674049611439
0.889207484981676
0.443309801173092
-0.328985224493275
-0.367498617904817
0.44767597973425
-0.314154903956576
-0.255669591312223
0.374468312029792
0.189481750970117
0.587647655137384
-0.875169940737791
-0.96874287297122
-0.940496562545626
-0.81134639527784
-4.29279222506173E-02
0.584205014181261
-0.49705468888543
0.705195469560932
0.38419013456437
0.963942204806669
0.170731848720779
0.281520556065478
-0.780177581368208
0.616658308851071
-0.10564849937398
0.823518340693421
0.706048841068514
-0.718119743557771
0.339146367488696
0.890547223177217
0.107153279645932
0.243785835933347
-0.370190270707898
-0.47835698395777
-0.569956743696578
0.124717278285099
-6.08802962042205E-02
-0.914718770373925
-8.43246628219008E-02
-0.591299895905255
0.540701867875395
-0.232743907875274
0.111849775448301
-0.685586910153917
0.148880642258191
0.149130169673404
-0.683745849310775
0.381195649518915
0.503443432335836
-0.519901412343126
-3.03493897768474E-02
-0.811680222490725
-0.89559156643587
0.708002721252947
-0.817382276357624
-3.1057265816522E-03
0.761651821463327
-0.889380775401718
0.995272985761621
-0.21459061212177
-0.803484281255188
-0.543760220299602
-0.802081970095857
0.144070991550894
-0.682715447314769
-0.977050844469514
-0.418436100793978
-0.200286315329913
-1.23176631961586E-02
0.518898188659442
0.340809520233864
-0.837776861011476
0.117309416358689
-2.87397313770669E-02
1.75625326291167E-02
-0.784961675139134
-0.274797242558604
-1.05505006953766E-02
-0.147393773509259
-0.683554803679583
0.262469575268873
0.458569980026809
-0.296966808527109
0.035013813510429
0.927209392596602
0.681956207647814
-0.212919112045281
0.011671624075718
-3.52941499819581E-02
-0.732945332697086
0.433920883460663
2.25460623568918E-02
1.81344018846503E-02
0.636788176740112
0.744467993062673
0.910850591923057
0.479798613529499
-0.05106554744194
0.610292550733799
0.862728635937507
-0.509827582984603
-0.581058611937843
0.891233408447125
-0.37888941604166
-0.258207905855127
0.566991824172316
-0.281674220403272
0.663279636985674
-0.432693087971304
0.748021900278025
0.867173136779564
-0.88801701729526
-7.42367651326817E-02
0.473786440713123
0.937908231589522
-0.793434662787174
0.848462353860566
0.498957256503243
-0.318596176848492
0.529742531180034
-0.334502069419185
0.418628777281971
0.227409627722327
0.867273333861512
-9.36550579681722E-02
-0.387501968002425
-0.801192992396989
-0.428071306301191
0.152636842952222
0.771375129252994
0.737189268820572
0.609797554205259
0.318534302941319
-4.54281993139737E-02
-0.68150959336658
-0.913890013871964
0.8438535626922
-0.847893761231573
-0.096598651501647
0.979397702117001
0.107388686784988
-0.336447795031874
0.445827960533763
-0.943045845297484
-0.997372569359633
-0.744247590872452
-0.92633936807302
0.501195580640389
-0.934673989768759
-0.975494495923518
0.359641668605265
-0.354333688628408
-0.197826369111397
-0.839272739324654
0.016130913378269
0.401070921938659
-5.79563867511891E-02
0.40947730779643
-0.923912566608903
-0.554142072864625
0.216092979166602
-8.93672078381182E-02
-0.83640106253171
-0.937481042610295
-2.97612471574501E-02
0.322881669642073
-0.189192399290272
-0.380091096899421
0.423303922846
-0.341901674138363
0.944096070421269
0.133532679576994
-0.293607290455999
9.10553878615685E-02
0.640912498573385
-0.920114729463062
0.953819302447079
-0.84018431995111
4.96304435322723E-02
0.697571708569999
0.663180834885949
0.235039621311744
-3.16464350775659E-02
0.377075119643911
0.301930309047982
0.911833020458525
0.994591802994291
0.422680751496707
-0.289928889765988
6.56518250370821E-02
-0.613749222958885
0.464205166747596
0.233360284337971
0.714170278220697
-0.184608144676409
-0.897180007515049
0.718673582457364
0.539910015735613
4.97363839895935E-02
0.994400492582353
0.512950462438562
0.953818042006389
-0.737097694703957
0.50546976867579
0.429403373471523
0.917872126077587
-0.84712196510265
-0.679050101370038
-0.720559185675894
-0.604817046566709
-0.660746602019968
0.939572294068774
1.60196812893738E-02
0.258952942347217
-0.386756732800015
-0.13806044426817
-0.206092196606975
-0.232958136353651
-0.469444741363789
-0.542127295054082
0.32460313433721
-0.703218950902774
0.56566824649878
-6.18288372439479E-03
0.788422056559069
0.935067146823053
-0.412895537909901
-0.892277908223298
-0.736465733150734
0.731658342341718
0.766793012697725
-0.862050819761451
0.141488184096894
-5.10140871944529E-02
0.202638758647121
-0.855595141593878
0.321035380239984
0.479684497724211
-0.488074047265983
0.204234323641916
0.106829327928252
0.753435596566027
-0.555798274945568
0.621053065977536
-0.313161657799376
0.917609052043884
0.165799762007309
-0.944165695972779
0.822078947254551
0.85157806321047
-0.715819263034315
0.269210184348724
-4.54589570950995E-02
-0.337526418565563
-9.12185267373221E-02
0.159085971883608
-0.67605763093198
0.710535324625355
-0.913920139950247
8.41066923860572E-02
0.881214650288316
-7.48937454009977E-02
-0.199900715580815
-0.917343713429638
-0.203609514212613
-0.802291179792091
-0.604409115163809
0.528710225566687
0.180824376335289
0.976531549869308
-0.240351735089912
-0.989996982182165
-0.721551760691023
0.837045037409568
-0.111475398372651
-0.22938751869436
-0.171973723681636
-0.233642548254563
-0.430062201313564
0.929203687813029
-0.441859674126769
-0.825690046475596
-0.17283504802592
-0.134184337605874
-0.151097527451376
-0.767797166272008
-0.500256940483026
-0.335785015224179
0.479156619476516
-0.959565201219268
-0.123391526580118
-0.69651930868231
7.51974512414804E-02
-0.660772947473624
0.651023160669219
0.411625583011671
0.386799770579951
-0.998004459788734
0.632651711263349
-0.174299927301959
0.838617622891271
-0.611175040356112
-0.369331673241282
0.946964458785779
-6.02223656926563E-02
-0.212111376387071
-0.287211142418427
-6.36426092419417E-02
8.17571300349691E-02
0.635549198961159
0.648638677697284
-0.835372623765792
1.44028582240632E-02
0.981265648743176
-0.238117656581581
1.31364606148208E-02
0.862211936336251
0.75132264614133
0.644057248198688
0.115484191450474
0.92776220193257
0.765789164886649
0.224068696534402
0.436742202256545
-0.273555079900105
0.176003387469732
-0.459180636613948
-0.79377093963273
0.706418089939783
1.52723885988824E-02
0.232462308665692
0.651396144249587
0.929964579842467
0.89336465436721
0.234281373939001
0.724536593452585
0.627204858273294
0.5157651425196
0.468219581151158
-0.429331441023857
-1.96205135665969E-02
0.671552431564807
-0.589409255335029
-0.645913994413018
0.75668236766496
-0.390851413905687
0.340525802302355
0.242710233306373
0.479891469412047
0.307082939112129
0.800220507383304
0.843515894359365
0.715809093601596
4.73012531636057E-02
-0.660932528755496
0.188946167078216
0.743789560236051
-8.85571373307166E-02
0.967270064555944
0.493372343348518
-0.6036022837614
0.345898855500104
-8.94474815390667E-02
-0.669706534318861
-0.828492491296659
0.779354450298342
0.236095287498146
0.625112558944641
-0.144084821084819
-0.573089565692264
-0.289159227309429
-0.085033587978906
-0.153192650211529
-0.122231910566116
-0.14316990323132
0.696226714926431
0.117190245717608
-0.161146778094257
-0.415752763830334
-0.638069276607407
0.343651278342029
0.494645294361867
-0.988637792197373
0.225540429414763
-0.900409495522571
0.343868817963782
0.12158098725392
-0.565930118322364
0.214324599466542
-0.913406287942007
-0.238674584349235
-0.807239459032051
-0.591768161799534
-0.839316786126067
0.148481534804705
-0.344874152128797
-0.863627801717911
0.864417590804882
0.539671079536894
-0.923673741737659
-0.792217591828896
-0.347486976243201
0.99561591276214
-0.615523390231212
0.194910902014273
-0.844354434691613
-0.712618871056961
0.193628864213299
-9.25758953275471E-02
0.74898053764389
0.902298287134646
-0.536186776007022
0.2768803196788
8.30985992353153E-02
-0.163114830022508
-0.49233827139465
0.883533501116303
0.891100096894516
0.405095222266703
0.849778734139331
5.37947483621597E-02
0.598560289070197
-0.35625575529637
-0.435836316573327
0.96664511106129
0.788398161520219
6.29785350766268E-02
0.146631559163318
0.529558455701158
0.410612496873232
-0.531836393882366
-0.276681985834361
0.919259498003221
0.777229800442969
0.370588653158103
0.452995681634538
-0.370093005383961
0.845698225264406
0.107897262618719
-0.649930348122031
-0.368941640586839
-0.930646137398562
0.211170830120371
0.436760386442148
0.810036971658649
0.181474679864166
-0.215893591209159
-0.872877113662551
-0.741910425508516
-0.320170507123638
0.700746619970749
-0.947808202378664
0.156986753667018
-0.508481112998932
0.281734637900534
-0.845317524348567
-0.967515610732451
-0.676703577887347
-0.224916745512975
-0.186681043565793
0.963330839561629
-0.459551657469786
0.445962105083882
-0.998999817918594
-0.030730785576858
-0.932298461252921
-0.628976607561359
-0.962343393581498
-0.751250102312997
-0.231480918075387
0.136301439769755
-0.632210323494927
-0.803165127428975
-0.96546574672444
-0.446262316561484
0.974327689307864
0.206039575513483
0.90476390825362
0.239897643367534
-0.465428076783358
-0.862374579810556
0.934633140717154
0.441462697240809
-0.769352573035589
4.81200299487845E-02
-0.752266764734176
0.845594644106571
-0.753986124256963
-0.734390805320595
-0.27137357553714
-0.720713271678287
0.411232090084888
0.232609218018962
-0.847099351108845
0.180330946221301
0.206322781637241
0.667094696033341
0.201068660006413
0.513545929701019
0.383694529986832
-0.459478111282212
0.765796456492891
-0.590573125994112
0.844758621452697
0.131453573602337
0.737336323506259
-0.781606796114835
0.084989164454087
-1.43428108756877E-02
0.539930887600082
0.902325944789878
0.516327255531448
0.998313349802295
-0.907655418280517
0.726102684869108
0.282468888828868
-0.968762690124648
0.578570073890025
6.53527596000241E-02
-0.198283307948775
0.487782516324653
-0.559852178402993
-0.187328155803032
-0.796283642539431
-0.909640565107846
-0.660573103165591
-0.656949883076883
7.05391021182455E-02
-0.259729804892222
0.49348674507206
-0.709715952431795
-0.550787707036987
-0.213176214473563
0.741329540206119
-0.510342388324893
-2.80591164077834E-02
-0.707536933310116
0.982343780316792
0.358193930265402
-0.898097022182301
0.952900135783766
-0.788070037479802
-0.287705567758054
-0.983356548415638
-0.783977921425447
-0.719429677195824
-0.436401887583391
0.447730025359011
0.840595253513324
0.715514970143749
0.787408714554965
0.914477273381809
-0.354438713947585
0.469647266877443
-0.275946057256721
0.221184130193508
0.522983919893544
0.299982262610466
-0.247944035099445
-0.16852865854858
-7.75284607242436E-02
0.628642169800844
0.663008218112069
-0.210053918646211
-3.78342935688436E-02
-0.797955906378302
-0.728430858605037
-0.769438898534696
-0.918848668223293
0.639425067787498
0.109999171038544
0.192677073515172
-0.279589428414943
-0.950279043477386
-0.714817161231271
-0.540023216868081
0.904207293257757
0.296205593074163
-0.382906484001142
-0.555979167834109
0.791055061351792
-0.79881224852914
-0.968826019872913
0.753375024115152
-0.726812903669297
8.45388092524813E-03
0.843121481619033
2.08802958641887E-02
-0.474287727218408
-0.240964911044549
5.30817509034818E-02
0.805776263816501
0.041406924756616
-0.113732196122813
5.72721485891048E-02
0.944031125603858
-0.865642359566752
-0.700992044084727
-0.711430918185025
0.589369940485962
0.15543623561005
0.497248925247956
-0.78638830000321
-0.63086523793012
-0.26514674974866
0.852284704588756
-0.15751190433826
0.573250840154703
-0.748197716704958
8.39497762780854E-02
0.448086926279706
-0.898786900359988
-0.571526879146286
0.180358269969118
-0.454287586624721
1.11482061720201E-02
-0.544523212341178
-0.469045009511038
-0.650423371256316
-5.33520028971082E-02
-0.62200799974945
0.88158264305197
-9.87016607232185E-02
0.461210726871644
-0.393292629406994
0.870658579249818
0.856553435209562
0.316767239463088
0.364900021125339
-0.63155317387535
0.519537738993888
-0.798090416155374
0.642756225324543
-0.383199857090467
0.130918306657559
-2.91962803066148E-03
0.802306023469449
-0.745361231707151
0.643465084482685
0.708122223858444
-0.638891439170175
-0.285177765570611
-0.739429356687621
0.496226087791634
0.680091626930277
-0.809038112526486
-0.133619064289194
0.851459372175673
0.290713099309712
0.398111722027005
-0.857724036435661
0.888694195602618
0.418878988324528
0.689166669598996
0.642954683625767
0.988897436221814
-0.102182480663842
0.739187121898415
0.396394161027231
-0.434615533112853
0.109374438435344
0.972759750095771
-0.304531243090826
-0.396220623850833
-0.147039018952821
0.184895067903468
-0.334969560211929
0.806064934750069
-0.886349476237131
0.39385299073444
-8.32328754084858E-02
-0.336753860907722
0.585686469538632
-0.135322207576005
0.145171761786096
-0.412207944195235
0.504929176338214
0.455115247486954
0.87147011076366
0.356161115263648
0.853535249291762
-3.90254307869394E-02
-0.291628981865135
0.543355329264267
-0.677571708598762
0.975889051915167
0.49701864403243
0.375590480095047
-0.448113901270258
0.930819372424369
0.458541616763803
-0.516191297138895
0.117834205084112
-0.558465210032076
-0.893890198505846
0.409901560198153
0.491201938117137
0.867697307759361
7.94248844575505E-02
0.399151680092646
-0.230037208514656
0.075065159504343
-0.707913312082808
-0.993458054211181
-0.631754158107307
-0.207277609703961
-0.176707136089244
-0.64877802586963
4.41714701105482E-02
0.670131812417665
-0.161155199520003
0.47256162890973
0.657829577640576
0.164199128079519
0.492448926228412
-0.827137131241018
0.873084597195474
-0.275572657343069
0.236817465270269
-0.024059013046707
0.651656714944557
-0.605369789633152
0.265088801841105
-0.612572637348196
-0.16480499872583
0.912564712285396
0.906603039784152
-0.488213235840342
-0.629176963451682
0.664233303498482
0.717084278901944
0.262681743258302
-0.192096094460217
0.437496613771238
0.731795983343299
0.897458937646934
0.578536630342502
0.820028798803543
-0.10874746278702
0.413171061490945
-0.728438159101314
-0.700462506051155
2.58472063675042E-03
0.460690404581663
-0.380379761860501
0.649561627269959
-0.234326938725935
-0.134890958271445
0.241072963628791
-0.977949403714799
-0.628321487935845
0.58476271232274
-0.686641693188192
-0.681680858151208
-2.73848920474405E-02
0.997854965378564
-0.698374506698573
-0.127137454276031
-7.58740493865135E-02
-0.225200328710702
0.626251235798582
-0.740092019041807
0.119637888433671
0.276039816646168
-0.274889426881035
-0.879532115104131
-3.74123806752645E-02
-0.590758218186898
-0.648760517376967
0.308052085419639
-0.435573850622822
0.186404504424304
-0.856208066948579
-0.635913712866386
0.60962516399429
-0.159436230788619
0.519959729852669
0.359474566325047
-5.07632198121377E-03
-0.70658761810281
-0.242210589567144
-0.523365271579862
0.828569739854578
-0.990702251441276
0.774595872002572
0.356725767430779
0.66632699145877
0.827698736210322
0.552937985694501
-0.80032285745729
0.964531781409878
-0.764575321527601
-0.574112773020621
-0.119979623960675
0.646502085053434
0.721419700767684
-0.494414261927294
0.929414296067062
0.407115136119258
0.351196334817095
-0.576143604709958
0.137145411874624
0.921386358591012
0.504563046442215
0.250892356616897
0.732775952918735
-0.523602436738387
-0.160549439499021
-3.21804484073591E-02
-0.35949758270163
-0.288061546393478
0.976283371315518
0.19119152937926
-0.867321644241606
0.133740482211576
-0.858517940478014
0.982241107525585
0.360345656021536
0.854198485595629
-0.934675713206116
-0.479020997426476
0.701508997080781
0.618990291836218
-0.201468501113197
0.184995984877891
0.643279248777696
-0.405978930794093
0.793589978155585
-0.854910702691566
1.90159546534474E-03
-0.384366204935947
-0.409044850691438
-2.53986141171765E-02
-0.314924507303395
0.648043761726597
-0.243071448887997
-3.33767741394223E-02
-8.61364893214736E-02
4.54701471937873E-02
-0.660862223848347
-0.137019184590174
0.846877136382462
-0.117546773902307
-0.962809928571246
0.521189142938092
0.887318311890086
-0.905637981543469
-0.469788846909319
0.680322934741035
-0.396154328829224
-0.538888104778356
0.959621224901652
0.434019947240042
0.159125680549362
-0.42937167765631
0.434640753489808
-0.721402542185078
0.415318686239744
0.814607446249097
-0.390340413309949
-0.323471372798035
0.473641622954185
0.19764102885089
-0.123256940975288
0.960291004899487
-0.694461584894699
0.281787546246991
-0.476810252322631
9.88648505201166E-02
0.345881017596135
0.942188496106551
-0.676803877490203
-0.641075031884656
-0.555986097222454
0.775342542998877
0.46432378767245
0.215034877254845
0.406345286050359
-1.98318698919017E-02
-0.546394287305816
-2.08176328410037E-03
-0.485420147569715
-0.677001534511761
0.704768752903483
0.717147690986403
0.866577547769755
-0.598829588846338
0.877189685439689
0.254357156919944
-0.837786171647247
0.835882896055964
-0.281156424535922
0.695349307448662
-0.35549213871277
-0.746482851153692
0.159642961198377
0.954235075014939
0.306675000695132
0.955626130936815
-0.291792258014066
-0.95999165862145
-0.811348916450809
3.13162948313099E-02
-0.175754298951152
-0.674275766592897
-0.387973347330702
-0.668239652371759
-0.129635411218061
2.71482825957658E-03
0.540219510299719
0.205095854768518
-0.508722827032453
-0.462957564608199
-0.098895086989884
-0.819021079875112
-0.174998700233842
0.392655225235081
-0.327786626869023
-0.102420525430485
-0.180202330373751
-0.454523206165082
0.803996329239463
-0.52018128776912
-0.887771478352563
0.38492562512247
-0.355448845046394
0.306166011433603
-0.58413871023301
-0.515872774592102
-0.57041327781343
0.642327720951199
0.176781724857155
0.417346264266264
0.614302508930044
0.97367580627335
-0.628778375929387
-0.687067569749796
0.349243721240041
-0.965719479805361
0.752247068245645
-0.847660783399802
0.240086286516885
-0.491074039386842
0.59659338853821
-3.94599275218519E-02
0.681695875270517
0.175504092856515
5.93741865804687E-02
-1.95676974978742E-02
-0.480304054430843
0.858697356903317
-0.386468065457081
0.683584847637604
0.56817015010351
0.981876523865316
-0.267461646592727
0.041951305977654
-0.399984820571229
-0.267344416228018
0.968993715824261
-0.130064346669377
-0.173148912539022
-0.10143902910186
0.888414505361607
0.243463178578963
-0.401714014204062
0.282788661619733
0.936639634131883
-0.987524562645241
7.57235331087038E-02
0.276037556712464
-0.749074143836063
-0.754467087809398
-2.62083189702996E-02
-0.361076247569112
-0.331055753066638
7.99755430821869E-02
0.112861695037993
0.840495651953139
0.746529221307786
0.898356051283579
0.489017711975714
0.401885518238229
-0.535826861127464
-0.988372685695912
0.843227042915785
-0.389851098190477
0.483899848728445
-0.898169929338103
0.299352316482008
-0.304141471817828
-0.68770923760982
0.561793546677212
0.541037444553244
0.109035621843837
0.532078271342967
0.566626403038343
0.210389623930539
0.881516296644615
0.383861682492857
0.221541944501075
-0.263229852515535
-0.770132807962864
0.41114131364722
0.452826126396858
-0.358101866435626
0.531479508860719
-0.373992670083926
-0.556476435156566
-0.482139065649862
0.597486590086242
0.709460267449594
0.362681549963706
-0.662483575669185
-0.230334348589596
-0.870519003498104
0.896758221478024
-0.467837723755352
-0.215500105836296
0.741608346575422
0.664066328765137
-0.640761033034918
-0.42390704582992
-0.569076577093685
0.97788985300392
0.483222477445329
0.230643142043308
-0.339019929456766
-0.378823497944001
0.405754644543528
0.158700764268875
-0.585638339697533
-0.694526001026145
0.406448911353811
-0.782552943571791
0.941185111730012
0.309045078146373
0.993700084821168
0.993749221376957
-2.39865555637344E-02
-0.576140036282209
0.515217378321116
-0.250238058572161
0.640278995256252
0.78843249385547
-0.459109358449483
0.636360243111522
-0.883540094738407
-0.556769704023216
0.905990200898672
0.695705774110732
0.36189326806436
-0.482344302220236
0.890591463372641
-0.097237094045141
0.624248783456395
-0.157640066934549
0.911505869497872
3.65972968904944E-02
0.327327518970641
0.477917954636552
-0.684109011711489
0.525805237920661
-0.98500907510726
0.160657674930993
-0.608897883607111
0.578437171924987
0.472665888516132
0.988702529651885
0.543239563071891
-0.114704782209645
-0.109987648977931
0.806052225068363
0.747235536523141
-2.35006167344477E-02
-1.50196017575349E-02
-0.310208104231362
-0.165784452016414
0.914733302629397
-0.62137539080652
0.705285575418241
0.957259938503954
-0.575404387339781
0.191683849976741
0.666475749303515
-0.335418505610421
0.785999107041987
0.828075633811019
2.31760392626295E-02
0.409525985508256
-0.139425173098213
0.217094408684749
0.194509871709548
-0.960307102796092
0.473554652731671
-0.59475605099227
-0.322586342909315
0.832864540395852
-0.960379234628173
-0.679725164456642
-0.918611540028785
0.985321878790816
-0.200273270130093
-0.225861697818621
-0.124549906814941
0.108516431215308
-0.673090143755869
0.328208477340822
8.04925220822588E-02
-0.747041581994265
-0.937369099401224
0.513265760235277
0.400046038474013
-0.746429090106047
0.561191884920202
-0.921625296815643
0.354676535450255
-0.221348124109594
0.848299499905394
-0.563069828395367
-0.12996194886491
0.364975408482338
0.840856010215548
-0.71521365089086
-0.534143565935407
0.934454649390736
0.128576365359884
0.484524003560078
-0.297112142053844
0.813179215945925
0.584044742442016
0.741551421983839
-0.132839287510034
-0.888468826000727
-0.753659431001929
-0.658124221756212
-0.994423750964719
-0.525526804417376
-0.28562181166773
-0.721978175527508
-0.625792294928532
0.673994352560052
0.889621800884393
-0.541284412061382
-0.87959573134968
-0.708911453961447
0.32385108009412
-0.620408505991122
-0.407928687298863
-0.177467957458165
0.656169878801838
0.626321471819209
-0.947735919531193
0.948116658945417
-0.335534637072623
0.888206352464759
0.774497721441961
0.406886014293618
-0.689959256968223
0.779408695101237
-0.496057871887362
0.956312889887364
0.820160403805516
-0.303351145651115
9.19355269202384E-02
0.226246124347139
-0.668238298756854
0.186324958706919
-0.253983127469379
-0.070153413706644
0.910603692712387
0.850659269447854
0.784941860936362
0.856621810806468
0.863638170695122
-0.308386456889959
4.79139876836741E-02
-0.651940131412045
-0.821595580488792
0.972956435591617
0.179527045963627
0.54425373684577
0.65176460081638
-0.82499271218124
0.896681109931242
-0.409702320440094
-0.188687790959784
-0.57677951746681
-0.958999797378213
0.20412806933496
8.63018606179657E-02
0.890915670929765
0.730044791585716
0.532871754743614
0.850963971306915
0.108099882645765
-0.757121701457953
-0.93734448919082
0.941583960267388
0.852467480430102
0.410312342629293
0.497220738200255
-0.960259111395011
0.355305530592423
-0.772578824531069
0.983578294508116
-8.23838992916777E-02
-7.58281889331578E-02
-0.83431919872188
-0.161670851352322
0.957298354864761
-0.234145874284714
-0.765644875027907
-0.983833283191274
-0.415472937785431
0.787259558085933
-0.774484453975192
-3.75323636073182E-02
-0.701668656453292
0.458523462441748
0.774347393151327
0.204768632844221
-0.168461977379809
-0.558231850889024
0.876161318835401
-0.936682965150855
-0.356862673515087
0.620582267533078
-0.676205941952034
-0.801226130387524
0.42201057024533
0.409432035640571
0.163847836855731
0.365538684348483
-0.427460027501421
-0.221143205407743
-0.282515825764005
-0.297944068165131
-0.243863707167747
-0.698558888259733
-2.87473047519726E-02
-0.835146520128128
0.478735338396593
0.705196971118536
0.215701965204381
-0.699045830686665
-0.557169508555695
0.915130050794328
-0.305716060321593
-0.546307589016662
0.923623594928729
-0.629595654221512
-0.27766952790598
-0.290141896956179
0.782392452796379
-0.476339354063024
-0.754355070880301
-0.578519349287623
0.896188574003167
0.860684489619999
-0.869481746863712
0.973457056482177
-0.238505178481003
0.522759899159149
-0.388256080355689
-0.381381956378387
0.820487606029248
-0.329313655231866
0.272472356092071
0.664717184101436
-0.337935352614358
-0.901423854123873
0.689510773804751
0.073218474491223
-0.334185716117596
-0.712809041737509
0.449939612523682
-0.382351440651198
0.885618447839767
8.07160568096008E-02
-0.37031645334853
-0.850329710147174
-0.989403429803872
0.477512102025555
-0.978061022990351
0.233924853725517
0.094613913005178
-0.355475426998467
-0.586872758773053
-0.561919232105379
0.411592683312241
0.196671387985009
-0.973692764193748
-9.75820214746798E-02
-0.727619279823912
2.66706977697946E-02
-0.113252820888143
0.463666682310588
-7.00525755365126E-02
-0.472589777122649
-0.688379080175494
0.570710362515677
-0.196807086392807
0.918101357885096
-1.44402219488379E-02
0.505153814054524
0.165671344266814
-0.432898855299488
-0.843943573948493
7.64715514111103E-03
-0.825954512036599
-0.301574107299243
0.367482981070269
0.311247553429258
0.652105135429869
0.675621250421296
-0.150248691055303
0.795991050884569
0.399697295973467
-0.824206236505557
0.18740882363531
4.23749862590217E-03
-3.80679106666525E-02
0.998249757716433
0.217228947093654
-0.405757848973996
0.772543537045329
-3.67204020297229E-03
0.237120867555425
0.959798245297526
-0.623699272279771
0.677652835036159
-0.443550803499331
-0.29331467253388
-0.961120656109615
-0.612823491296805
-0.822381168281111
0.952048923104832
0.468620395000471
0.66901743729531
-2.89523991468351E-02
0.500727601712009
0.603117776068562
0.397244675697639
9.04128130848667E-02
-0.647065886597518
-0.545407891333284
-0.427602547155814
0.57232547956657
-0.289411854746343
0.861524326097282
0.299670255540914
-0.925650057887324
-0.325011497162037
-0.339962688231446
0.396333951178261
0.527553531025944
-0.833596682429505
-0.732969475670123
-0.679895286887873
0.114535605280029
-0.753452189825899
-4.19129440911163E-02
-0.333187453533666
0.431151443168303
0.987809072325494
-0.773310767465729
-0.64513773272127
0.949911967113432
0.308468572075114
-0.472706195775493
-0.204379923861872
-2.46941119363671E-02
-0.218936382627439
-0.56666624210792
0.842999789449317
-0.833943740341677
-0.67858084619605
-0.217771073293116
0.122163214730169
0.396589638505696
0.878772606980667
0.733004055351778
0.456389811045346
0.239761087524402
-0.227195436879776
0.8281276824444
0.542811527704753
0.675144026808418
-0.838720911201211
-0.870298527946751
0.771849161370423
-0.238040180069244
0.272387559986378
0.291144828197319
0.141827369374
0.96298740186259
-0.501218644316969
0.029035577428854
-0.410614119709665
0.565558818697336
0.225668543513815
0.875782953360551
-0.262054654289366
-0.78198780047057
0.353240679040841
-0.67767522143252
-0.939373333567844
-1.52602997327366E-02
-0.125913224188131
-0.498943788661148
-0.239336559296324
-0.479767231664318
0.579141425613186
-0.587286368852622
-0.708512427629148
0.972293641476823
-8.89467268618971E-03
-0.633048176938929
-0.629691137683157
-0.953153158781715
-3.78334151185383E-02
0.784869357637511
-0.416849695630763
-0.698449482624285
-0.976757644603193
0.802752030108605
-0.764059464655541
-0.817327063155686
0.534850411807862
0.219819805070402
0.975406785985643
-0.420534858415272
-3.48888320747198E-02
-0.751221104463529
0.885151155661647
0.742526201274614
0.208271457965169
-0.743504414945797
0.256434290961111
-0.702576595056013
-0.242468487828794
-0.776875601105883
3.98311131432298E-02
-0.217904750831683
0.758847882029192
-0.998461185408524
0.103063663139421
0.646330486081393
0.497774786609968
-0.375071664716893
-0.148043152429194
0.973882537648404
0.709298051919484
-0.111059030595576
0.515603532328786
0.322543862599184
0.251005414879639
0.225766725729125
0.453466145968109
2.47706308598252E-02
0.142828411517967
-0.50892776891885
-0.788717738452414
5.12135870808768E-02
-0.248018942949449
-0.299287012064902
-0.265717285283874
-0.888223074406766
0.98961160189935
-1.73348547835082E-02
-0.859629159963237
-0.946407897868902
-0.213925886440132
5.06343735272292E-02
0.762552840361878
-0.187440483619173
0.824617040970968
-0.640685303809476
-0.210951102934497
0.18487663234528
0.538677025594673
0.767286449851936
-0.238843594582888
0.507236360655416
0.715856452267011
-0.98794248109927
-0.566923701595808
-3.08541611741529E-02
0.70205384963002
0.59276778225822
-0.945445232412983
-0.271919570170217
0.162107224797635
0.759592777774033
6.33296987785226E-03
-0.742045801175017
0.628700632257204
-0.775102531736413
-9.99619258010025E-02
-0.566346508824801
0.659175357090425
0.939707142802037
0.748289417324611
-0.260854345430447
0.320277025755799
-0.179921865976553
0.61743455752454
0.683940751870749
-6.62385887829207E-02
-0.338533778437683
-0.705529747903698
2.24498373860929E-02
-0.458828247498892
-0.354793320576319
-6.86558482038042E-02
0.693048883442452
-0.616008837112414
-0.180264683446629
-0.626026339187682
-0.471577193937798
-0.154235589185373
0.730195449271526
-6.00409106285815E-02
0.736030306164349
-0.234326021476036
0.973591635838065
0.778108688919559
0.90729513617568
0.808445835468407
0.872666169058516
-0.375466131000635
0.886395633242345
0.663351089683586
-0.309809389743651
-0.235786477361246
0.214289604801547
-0.754539891052056
-0.153620684679935
0.31356714188367
6.08773108151834E-02
-0.214803330915707
0.455648854984012
0.558716676102909
0.567971284976542
0.717630012001369
0.164961296318332
-0.984241905238179
0.348006659067132
0.620833498621701
-0.245493683060462
-0.876495977601
-0.48180783232862
-0.896971042574461
0.252491971511912
3.57995702203535E-02
-0.902933193405621
-0.498873322476712
0.419329736033908
0.849653865891296
0.850193192705567
0.528661694805661
0.372515086704674
-0.212929176158564
0.743984326816756
-0.400982965630196
-0.147979419836408
0.342602778470605
5.14258585091421E-02
0.450216256464368
0.16703396707278
0.215291987036727
0.850721599190186
-8.95428676649614E-02
0.218389291368929
-3.71954613311447E-02
-0.832343894098382
-0.831050277090472
-0.842944873081408
0.747203097911174
-0.665267214032112
-0.245487567105259
-0.782441183206363
0.285944635512985
-0.725086989129066
-0.425229744315061
5.62422650103627E-02
-0.821670029821703
0.365045767640683
-0.168310051437812
0.52775958224261
0.146773249752253
-0.706155443160393
-0.595422046438533
-0.750757001117385
0.413899442094667
0.901532503121339
-0.620443221462165
-0.469921229784977
0.430618555934763
0.373043311973541
0.804926957621032
-0.713748991878207
0.476966685217068
0.353930522881762
-0.53528852377126
0.411725948451219
0.276643354824857
-0.432095904243849
0.48807136862159
0.745366096474271
-0.302183279930736
0.337177626227188
0.950170202940935
-0.749621962469753
0.856907349023744
-0.958423353352207
0.270457484151887
-0.685685507375985
-0.501296920707823
-3.77173807687869E-04
0.177230460238251
0.181165730611754
0.395297572096132
-0.485424706903238
0.282724717798456
0.443092085741504
-0.312014346394277
0.900675590891769
-9.91249518252457E-02
0.247864078187635
0.590389544835537
-0.810391561443832
-0.359722046297182
0.419092967805268
-0.322269405899161
-0.085543835960418
-0.482221606306201
-0.960150373391401
-0.893698547095797
-0.121809682741621
-0.136506398126215
-0.783714192565708
-0.461165343632733
-0.863990651253881
-0.874022185555537
-0.283613243804151
-0.704395879354013
0.555597406718243
0.836621891565987
0.970000673101811
-0.692263698817923
0.266644157327559
0.455272689322817
0.519805421438517
0.818349082758725
-0.929267934524514
-0.405551907227361
0.428888614401898
-0.541223638052411
-0.54503787898165
0.207413199468542
0.379133304165495
-0.678722598035442
-0.762544046589155
0.72577494237333
0.235616581986469
-0.043729443649235
-0.92986358354751
-0.154857934490235
0.705744232015016
-0.158728532690495
-0.966044308612361
-0.317211146773861
0.38786030031793
-0.199643563634098
-0.615995434448779
0.369150907533724
-1.74140747553075E-02
-0.902887288196589
0.136703056783009
0.785372428614036
-0.268842586915264
-0.519322744761621
-0.361462948052524
-0.877985458182587
0.248549289283819
0.333607253063566
-0.484427284447094
0.209425748576149
-0.164816506926633
-0.748034855594408
0.475244469023633
0.158164922752228
-0.920458242722903
0.882142373321366
0.316679437217775
0.748259047391407
0.10501340770735
0.645586414268978
0.203085609748153
0.218967962040348
-0.832172764702291
-0.89826394147785
-0.240502363049164
-0.36388101202517
-0.521069449909576
-0.868888918799388
-0.118560998371059
0.851965164564896
0.101195355644593
-0.13535771809039
0.274825586036656
-0.777088631479214
0.564346404412753
0.34196942724769
0.694700513035837
-0.286657052066846
-0.556478102002165
0.25057433378126
0.610156933716255
0.789182638516873
0.563392948106696
0.7792578066771
-0.404930622252103
0.592691816062871
0.718283821454511
-0.386391050138396
0.129021904038172
0.29042257517499
-0.160249528630247
0.407756677186749
-0.309914892484326
0.199118365569658
0.396590476646262
0.685833532528918
3.08607287753582E-02
-0.680249122617146
-0.521726840021007
-0.941777354757259
0.351478079078407
0.247772004752856
0.491294224894085
0.88179904597891
-0.28200826781862
-0.921950068634992
-0.31102489602902
-0.949982220959432
0.521895959952529
-0.114150569006894
-0.141257571517598
-0.532158949075456
-0.963763185089692
-0.359393487392865
-0.593060899536752
0.94813810520928
-0.803931426833109
-2.86094816720572E-03
-0.190266311169398
0.760331467365865
-0.384233492995371
-0.690675403723661
-6.02891687650658E-02
-0.131295807420496
-0.447026046143026
-0.575831969525821
0.1312406468214
1.69234341715625E-02
-0.961272714878516
-0.660427892253554
1.37409547059981E-02
0.246975925398784
-0.284432450307027
-0.352985762176105
0.120461842084603
-0.8151481385433
6.02136889800229E-02
-0.169276058076835
7.14373874588221E-02
-0.51804557853081
-0.385362287065191
0.957845858873876
-0.267234734129407
0.170352200960522
-0.390852432878279
-0.930536371507251
0.170390620415419
-0.628366705551783
-6.66504819546814E-02
-0.329749012298531
0.445085888245279
-0.206740275065019
0.795627098725167
-0.885093469417448
0.336334292659989
0.752961701697846
-0.390960476336527
0.402419802416559
-0.063660049296983
-0.909147840877147
-0.348691981575283
0.914606529274008
0.721403592348569
-0.739417989777853
0.868824131267062
-0.026758338210915
-0.813581866434103
0.134997878379693
0.829379668522765
0.74050935712792
-0.58074589742373
0.618404171901017
-0.724416190850603
-4.96200392460777E-02
-0.904679364864938
2.66722199458602E-02
0.990698044774721
0.233914361799243
0.28860335617007
0.378079737417965
0.760885841490061
-0.610613218947313
0.223995981389808
0.231904607210611
-0.897361115180456
0.848507825648329
-0.363242036853201
-0.481562466965687
0.121408087211088
-0.197079803438799
-0.241553210535352
-7.67813410051371E-02
-0.622767354940067
-1.94700870015417E-02
-0.885311715768363
-0.180056018238189
-4.45738821740338E-02
0.899126709146425
0.298664415458797
0.490628133656832
-0.924855473176245
0.575138005868201
0.675213774947101
-0.571749765352963
-0.484073535158004
0.128251026401073
-0.426044774479479
0.88625092030005
-9.79385353339718E-02
0.498028775499886
-5.41390188815986E-02
-0.479111405469306
-0.543091840341112
-0.423463992722975
0.686221098763643
-3.33962598765652E-02
0.224049051378521
0.461381579149385
0.867956900523225
-0.508818879298499
0.949435497689815
0.246475143427922
0.982756342165106
0.496639956457459
-0.171559516070348
-0.20681444818977
0.953520280127692
0.563422501926997
0.144004038284431
0.26248003720362
0.160123856968881
-2.04067764187053E-02
-0.543179577054647
-0.160986846299388
-0.988486801441918
0.253399736103689
-0.544217235270488
4.10254303714153E-02
0.700672863404989
-2.33109922134632E-02
-0.16333403828771
-0.714697672880542
-0.304984474398164
0.588311411814005
-0.350705472334576
-3.56656884380808E-02
0.243260673071646
8.07870609596759E-02
-0.561792588950404
0.193210135258842
-0.279115250051552
-0.499851205243632
-0.800902251651858
0.596665470249991
-1.02588340334266E-02
-0.791983127301662
0.68307114818457
3.20999397213617E-02
-0.886536419300766
-0.693398567620555
-9.69687556752812E-02
-1.77338182691925E-02
-0.25121775455134
-0.628531124240343
0.831267437144172
-0.498274869109215
-0.676101984977703
0.693549502038655
0.224585310414092
-0.935947571845633
0.718575024973557
-0.398996233868078
0.273085252730933
0.432171460454021
0.576628121019442
-0.886794242432991
0.340961252837277
0.762079049505871
-0.390003017368509
0.173242526263361
-0.547543051460115
0.550620744353536
-0.705385630257583
-0.988030782378036
-0.626618332526782
0.750862639377213
0.21179185968262
-0.184200405304422
0.148355106558931
0.403998350546749
0.954861594061885
-0.197946571651341
-0.2237855129012
0.474619169635083
0.999328531667633
-0.950178341123202
-0.659215837059899
0.226566979081182
0.225803400875898
-9.04844452011455E-03
0.361472827818958
-0.560520446288309
-0.111498438766299
-0.665105284431877
0.387929229440505
-0.958470858588671
0.738109539044393
0.38280084784054
-6.47467055330585E-02
0.321744856952136
-0.263664197185499
0.180381689353418
0.741024533757076
0.785701107236343
-0.659521583762874
-0.234290862841158
2.26755127881697E-02
0.931244281788029
0.689857686348038
0.887253290918963
-7.64956472606846E-02
0.746320465014177
0.191977617258843
0.999105655381731
-0.342115278826742
-0.431141834837361
-1.52045168842344E-02
8.44744726686844E-02
9.98407218734565E-04
9.90500420795424E-02
0.5424946989955
-0.084821247559646
-0.28431928125511
0.817268467776636
0.295671292645438
0.724009096285897
-0.731265400110214
0.836240665797443
0.55286085377501
-5.15368392584964E-02
0.761335129223993
-0.696000731748813
0.238847061211765
0.698505266664913
0.382911504565217
-0.12548486829996
6.21002176012797E-03
-9.23609906487006E-02
0.895159569574715
-0.524190101760302
-0.869912830288362
-0.254276239441076
0.662603003952914
-0.369263998400368
-0.737864365614982
0.803605316103364
0.568387494966964
-7.64969546796064E-02
0.59820031122993
-0.196227705059828
0.788757685442844
0.855419634878423
0.305207949432735
0.147890480972758
-0.153068175231738
-0.703789577551831
0.156322652180249
0.481207668538036
0.62685556341451
1.26591430030771E-02
0.239414062907604
0.635462069363663
9.95811285542447E-02
-0.655781572344562
0.332405377316259
-0.193931158073986
-0.60021570203072
-4.38154560211523E-03
0.080083372035225
0.625998520410785
0.587196812125711
-0.87060355506554
-0.539531216138695
0.917903101381929
-6.25020967189068E-02
-0.533339648912084
0.1948608353144
0.337685359515115
0.929473777047724
0.94229006842987
0.734185272543317
-0.133152231604662
-0.769980011189965
0.611170626993071
0.245290662392681
0.167598244740216
0.925826941544616
0.964941967929093
0.624354227797171
0.183830203543468
1.03543254066127E-02
-0.405858867573148
-1.94272873653836E-02
5.27354486414069E-02
-0.293033583358636
0.218502655427636
0.261830814546514
0.385948514455608
0.593865085025016
0.508574085648772
-0.26494562328459
-0.714237663877981
0.693723554021831
-0.165306017484348
-0.112528562041914
-0.918904767700448
0.700689359808698
0.104770214858542
-1.89797277368423E-02
0.699530015205998
-0.660309541671337
-0.809812483395955
0.970658303362459
0.835886791193095
-0.512255668381718
-0.91043691087078
-0.211657673283323
-0.365568779490069
-0.865764499249687
-5.70394413186937E-02
-0.902034482739571
0.470961231436387
0.516891839326178
0.284562343228486
0.542552511366882
0.602655360434603
-0.157542655336419
-0.490307952523118
-0.766470602423001
-0.052293553121915
0.885822379671779
0.43246807286884
-0.227098745765866
-0.936594338800704
0.45863996802308
2.32612393821374E-02
-0.547314677676558
0.510481568674441
0.248221579574264
0.94051920219344
0.441963490275712
0.223140510102306
-0.150229022800806
-0.690588732556309
-0.249566312028134
-0.751605814266098
-5.02186082362855E-02
-0.649862041522652
-0.451644958700287
-0.725097986912757
0.56568610673785
0.921640148405209
-0.973702566637373
-0.259304460379062
-0.993381656177578
-0.17816681120434
0.394121947181185
-9.20642157402563E-03
-0.207597822608058
0.773382168126892
-0.152866247396929
0.949856505970366
0.152661651290635
-0.575574921678598
-0.631634805112336
-0.918330152928421
-7.47991518958169E-02
0.406541357541959
-0.910537718585376
-0.973613268846094
-0.31742651232429
-0.482346553788886
0.598663086930296
0.238100654832278
-0.261973932409434
-0.564559585837526
-0.937127388645333
-0.810540673531709
-0.683235874838621
1.72325289182813E-02
0.321854180035443
0.26667217555639
-0.374242654862621
0.205246907953679
0.216073021489475
-0.652596131433719
0.815064037690421
0.831414449244304
-0.674257016501085
0.235687310458864
0.895921649403413
0.203939597597949
-0.972856218866441
-0.377870048062282
0.56561598569125
-0.741875979803184
0.313290953136936
-0.95567192210133
-0.413593907906806
0.266877344168065
-0.820443317736337
0.44154401981021
-0.124450773724229
0.631727238427249
-0.45914453051511
-0.670657566183944
-0.214265802157688
-0.886967036056833
0.625523834847818
0.364021711826023
-0.810001616108716
8.4962429773241E-03
0.58203907538764
0.123317912060497
-6.75317922466827E-02
-0.748045321249563
-0.361761968101795
-0.701001492981175
0.966029654244994
-0.820167121960473
0.568711564774908
-0.821395254213654
7.02997336355171E-02
-0.199482352873087
-0.54543272209603
-0.712259032497921
0.428036705120583
-0.197686282582364
-0.239232526562992
0.370950941103399
0.535391486058628
0.248527869606027
-0.390234175294342
-0.491638854674102
-6.88311946556591E-02
-6.63813031570664E-02
-0.203818637571278
9.69116735867341E-02
-0.947467599275811
-0.287758594091311
0.565764286115653
0.66913664417868
-0.840646417226778
-0.236593795618396
0.472923482169529
-0.920904394507084
-0.283331180790523
0.71486080246274
0.734601540424753
0.454198980346711
-0.115522826469665
0.828196827243002
-0.585701635669831
0.49331075505725
-0.163625899258113
-0.966928115902572
-0.501439492188479
0.185652354628446
0.513284006898031
-0.500671476732099
-0.530731450405865
-0.168327908963941
-0.884180820502511
-0.351317184212689
0.32857069805905
-0.633814229810686
0.148558786928417
3.30453632523655E-02
-0.800673532229345
0.415733655232057
0.151806719753206
-0.655571657576914
0.602439742255672
-0.733759160978273
0.391153310062239
0.971782873156652
0.303476343071631
0.973707572431282
-0.277568936988646
0.983001596771485
-0.775523397281442
-0.780202406402023
-0.390579640559005
-0.814288108613204
0.332889282590133
0.195832489719336
0.843926835492843
-0.991624145389488
-0.351931153819907
-0.207158869331567
0.902617471665413
0.343603843538422
-0.453206571756515
-0.318046143240509
7.22684175683379E-02
0.208478843269001
0.402776592519586
-0.511428737768331
-0.515157175864266
-0.897920240427638
-0.738837900749447
-0.80462123963627
-0.973917072543151
0.278282124117803
-0.272494617480818
0.153418008079551
-0.283934073031773
0.802305615436653
-0.458237650701357
0.637067553575946
-0.392560848270934
-0.77763194161597
-0.588679147401996
0.747925097493308
0.506815434678605
0.963196510369015
0.593126202367965
-0.345775089358032
0.897075052593137
-0.863963354132336
-0.556532517644873
-0.353435841968573
0.323086858484305
-0.639808073381742
0.695007386249828
0.297352808855973
0.200626083334547
0.404015140812739
-0.425846315522754
0.13054219856966
-0.481967647144706
-2.13348732889022E-02
0.037885835177095
0.639828061207373
-0.77758287184769
0.855832473742077
0.387666449065356
0.237664595147401
0.216995170900817
0.631028406011604
0.309082594338576
-0.225933553667712
0.843380335016023
0.916921405859526
0.989377193538123
0.633316298539423
0.482451684928089
0.526597561173571
0.381047524355731
-0.901663426216198
0.479661531126141
0.294510511883912
0.90820185880291
0.666623792482214
-1.45773496610673E-02
0.583277403991746
0.953382475746278
-0.691714446523174
0.498477392744465
0.237368970072712
0.316077685163103
-0.72413996281385
0.909917153092736
-0.229869026552964
-0.49983792931725
-0.992761055779911
0.667786394253323
-9.15338713602074E-02
-0.833981088559428
-9.28447674634518E-02
0.31697091145116
-0.730104614411851
-0.62588485794979
-0.650662182399099
0.11633546234129
-0.090391195026519
0.350314315069647
-0.8894242675276
0.694842081660322
0.75050614703034
-0.580771174449856
-0.370424833733962
0.780645278217529
0.497118502926147
0.480428575871138
0.977633460658072
-7.80733668333365E-02
-0.465307165539181
0.943338004677437
-0.765205872214059
0.815496489028731
0.527611243811242
0.390170448317994
8.42887177303304E-02
0.36895604814145
-4.32912666587217E-02
-0.597737292185508
-0.130289232764354
0.944479376499967
-0.327057617356508
-3.63099993273955E-02
0.103508558872618
-0.632960432627695
0.695256540984991
0.647055777289782
0.472023703415122
-0.772830405849293
0.943378948795991
0.389867376816135
-0.248556822486479
-0.231886061537595
0.371672928364609
8.59234916012808E-02
-0.269326864422079
0.219492230534692
-0.941937826817452
-0.555344310672824
0.231283315816971
-0.175637372374585
0.202434520313516
-0.387618710711279
-0.378688168737709
-0.996162959177103
0.701822331357085
-9.70593886112012E-02
0.838860370351307
0.113167488269687
0.995047410474044
-0.348792254958316
-0.126949509467376
-0.934513052283909
-0.792591159690067
-0.318521103898291
-0.105947331909831
-0.26584508528495
0.276383299646634
0.173758492042058
-0.219459975126334
-0.508077293839716
0.702197656396436
0.814478651552895
0.662059454472469
0.504899466785102
-0.157475916679415
-0.965796736520374
0.275453307606373
-0.528434129895518
-0.741560961162433
0.863383652371524
0.428605852607577
0.381846986167764
0.51917792488643
0.478248186823561
-0.32857128199899
0.568522933422292
-0.913892534542329
0.862424225548855
-0.606859180359281
-0.166979832064711
-0.578270875401687
-0.824094084807277
0.996538237122052
-0.250107209312628
0.307416936462362
0.401497341431196
0.544090860175797
-0.610931339729494
-0.49601582741411
-0.37012384590937
-0.672657619672417
0.642200188758613
-0.64793643531958
0.947938142188878
0.180231843145618
-0.900773485770507
-0.315323338937411
-0.688900973713021
3.85945381932395E-02
0.993517754449275
-0.487741632302252
-0.99125430486754
-0.757758444633133
-0.881260652839905
0.34079348128264
0.37304378095751
-0.617342713545135
0.817838844552891
-0.303387489515497
-0.765174610556345
0.118495256213414
-0.845676338373141
-0.543215190969636
-0.703704672883011
-0.687307009129226
0.198264079171642
-7.80623617279933E-02
6.88102943056146E-02
8.91671870202653E-02
0.994220959133308
-0.781279658552962
0.315001194314666
0.963691573071598
0.225563663058966
0.582023645138081
-0.961975857130778
-0.927300125031344
0.849409068140356
-0.657545643965953
0.97674127396711
-0.294602661384498
-0.951321740935418
-0.967543295678075
-0.705851419585002
-0.161295524362769
0.73253316920961
-7.51379081094552E-02
0.687382951748346
-0.818801946308271
-0.486279146330194
-0.469460459351253
-0.498843187843965
-0.648646043283091
0.601119063430234
-0.892790177141352
-0.407515948532568
0.247038194041994
-0.631957956574793
-0.930623012847911
-0.326923539595062
0.407332151007542
-0.508368780887825
-0.660278676199923
-0.353193851300663
-0.775580738029966
-0.49407861655583
0.145188947835094
6.31439826170137E-02
-0.767599094122933
0.370937956639914
0.536403092226681
0.223500816160278
0.381549474988459
0.232447174610343
-3.0864819139832E-03
0.705913214163519
-0.799352067381848
-0.068253626475231
0.909190780639598
-0.885468931479246
5.67052376854706E-02
2.21471145856968E-02
0.35716243684328
-0.286119485992903
-0.659522290457094
-0.941430414383243
0.770479537075619
0.273890740010773
0.337867333659935
-0.251067371138573
0.253591778487579
0.930189054781459
0.791408213614028
0.190788610842544
-0.906899387642052
0.155184323280823
0.712693630709188
-0.136080953831886
0.899750185216206
3.89745193806048E-02
0.875735677990749
0.30937144907876
-0.883193359022689
0.995129354672601
0.602891571394199
0.497684263124018
0.214466869874257
0.73491517024274
0.94913003852924
0.773812019803335
-0.2096716361175
-0.105455477436466
0.197052368826328
0.963528442417517
-0.991157423383014
-0.94645160302802
0.694223661496622
-0.264148794339677
0.338065028742984
-0.951614647028878
-0.503990378993237
-0.361702901170056
-0.620094769810925
0.463916283799908
2.12556057563034E-02
-0.643457328968547
-0.259528771487922
0.976390403211969
-1.52150733354564E-02
-0.302669741044144
0.349993260029405
0.825102861323635
0.239834034035533
0.553225860212066
-0.582797757510055
-0.894099832021169
-0.154817134253028
0.680099981871751
0.290928963286436
0.808225516967181
0.665879406512496
0.502968866636424
-9.79189942066138E-02
0.558411472168344
0.123097875354252
0.363099023467834
0.172044453368547
-0.114557061969798
-0.672189219238794
0.629043272276237
0.798948659672964
0.491429666581472
-0.235404369858682
-8.34572545706758E-02
0.171122505960368
0.487542099023772
0.936037739532808
-0.703005971362992
-0.192538601197497
-0.152818874842129
-6.51688325939515E-02
-0.178552672746614
0.687315080097446
-0.568333042270107
-0.220179498620456
-5.31337375907932E-02
-0.892103739114511
0.859748680241139
0.533866641558308
0.523646032110885
-0.704898151417962
0.220751230123418
-0.284439256949426
-0.111847974955193
-0.105972073497082
-0.82780764702484
0.323450747023345
0.301306845709378
-0.321648805042613
0.316217707427362
-8.94144528951223E-02
-0.51598082521
0.343139673735994
-8.47820964302279E-02
0.578822850736165
-0.677486619472426
-0.916453638499423
-1.44932835916883E-02
-0.493513003780155
-4.86150291396307E-02
0.812230220212121
-0.401044165792538
0.679603731719392
-0.630528268721689
-0.668760995714356
-0.174003776564203
0.86607992449833
0.503396963170105
0.549479768470932
0.169413153262479
0.553835976351813
-0.794093984114103
0.924792966436903
0.566875937543171
-0.431959526087345
6.08835859381873E-02
0.710036950045892
8.11605857581266E-02
-0.610763872014217
6.42045800297202E-02
0.295480354260814
-0.749461900721608
-0.18671244359362
-0.740663132780222
0.965189872399526
-0.262182558123907
0.525721363849225
0.228880024223045
0.722992854036228
0.395047347835138
0.407170249771972
0.977990042665344
-0.506016819825374
-0.848102880983798
0.943272969253734
0.19290487501672
-2.95693948806711E-02
-0.760747833011849
0.981523086264128
0.117552284390078
0.646344223140791
0.175575233153622
0.259199389495116
0.36348605184614
0.172830844436781
0.672100518390069
0.620652373825608
-0.146836763601397
-0.93321980985541
0.153943124023916
0.648861002807998
-0.206159981833603
1.82993458285816E-02
-5.22781129178431E-02
-0.44468481148963
8.91296047004193E-02
-0.432290750711362
0.352309392984637
-0.396080553085106
0.917531552327138
-0.239193093432989
-0.212161316947668
-0.911245442039545
0.342006709627922
0.541487859121663
-0.990888474820144
-5.78261414017903E-02
-0.238061369670909
0.103713181806862
0.97306902252721
-0.581147652138429
-0.221412907969752
-0.799802969705434
-0.633999394966379
-1.69536403533269E-02
-0.382594560507643
0.493080663185734
2.46837210728681E-02
-0.479536844833032
-0.36464109050856
-0.567750394393028
-0.473338800949523
-0.697220262799464
0.638646708082431
0.859841288594089
7.83799021706442E-02
-0.248008825500032
-0.254003450477695
-0.435118446033876
-0.504070786216643
-1.65907430337454E-02
0.354965317769986
-0.650122079459701
-0.448366341538081
0.350272767830047
-0.596553990390069
-0.178410452651693
-0.749229951183852
-0.230428405422083
0.565845944386126
-0.91891655909929
-0.293805674209622
-0.522172767175947
-0.716832581079803
-0.236422787212403
0.194679651455559
0.047213039642942
0.598487207939197
-0.533540039749725
0.707282784883957
0.986538194493644
-0.345902666506386
0.504272663758275
0.847070770627851
5.82597565836545E-02
-0.596165272822417
0.142320449979526
0.281056626476468
0.561828257101574
0.603893306389691
0.985979978647172
0.119207337050031
-0.734687661231355
-0.532322283873227
4.06553773498124E-02
-0.428095978983624
-0.588610875118943
0.505023103849865
0.107726850702672
2.82488722902858E-02
0.280427238879837
1.33715700391721E-02
0.644727135980329
-0.698870401850676
-0.837469925599983
-0.551738864010594
0.993371010101424
0.20096804005178
-0.727952158999597
-0.527251212387687
0.966954173916029
-0.171405904834518
0.132207039278505
0.870154778562127
0.189028022499084
-0.981296660847853
-0.735852801424105
-0.298218883501804
0.288147902342562
-0.781129240776653
-0.366205189888524
-0.898977329979409
-0.921117255668808
0.755109790762461
0.241645345294774
0.917554874078636
-0.802835422329985
-8.65190743572442E-02
-0.515335084220972
-0.939952063912878
-0.69155268509803
0.558269865247192
0.476163344601729
0.83312257639851
-2.99653485443071E-02
-0.889228995429922
0.378631696446867
0.824028582520492
0.504327540844062
-0.371272655293261
-1.38229331536459E-02
-3.32073292304134E-02
-0.172367734824523
0.454993767694944
-0.71267090281381
0.296347568709347
-0.920438947824099
-0.554993581281905
-0.45436753510019
-0.397579353502132
-0.889052727444709
-0.863844004041875
0.554580446646603
-0.297274861946623
-0.58641124973641
0.388178895639769
-0.844914372185322
-0.622736732906946
0.91302213119606
-0.997804389102102
-0.152175959716094
0.140315910312697
-0.804076961327298
0.617041402293415
0.389429599427468
-2.60409580491315E-02
-0.793383335398086
0.785049881187951
0.630656934137387
0.90671315542426
-0.77742560553022
-0.454534314643705
-0.463729481227329
0.89319694163719
-0.993337537349697
-0.957821718500414
-0.679440760332759
0.835422776317507
0.434299510188626
0.773484267256638
0.939015851518789
-0.216363636993999
0.606570197285244
-8.48984718139765E-02
-0.204138339077121
-0.63563036370508
-0.51426683248182
-0.176326242207267
0.458736919117932
0.3056403110272
0.427451703428771
0.30651995913965
0.416018780619587
-0.436001576766445
0.634466365121941
0.534398752270656
-0.531131601978127
5.38467689642763E-03
-0.480680263186644
-0.422426614182952
-0.780749647893447
-0.148468097759961
0.239133211822996
0.461478401314627
0.296807211722989
0.175906018887201
-0.746672286784218
-0.633194854801623
-0.538386560920153
-0.382051183929638
0.655569189521005
0.139838441583872
0.526473271906144
0.181650285933253
0.244112065123756
-0.36760733405953
0.161567458857711
0.494244068880092
0.820103095909538
-0.443288981580855
7.58948416472212E-02
-0.776915012741089
-0.958700502035991
-0.480792790565011
0.814095202039732
-0.51646646542726
-0.69095454237538
-0.312055081710582
-0.536119492442207
-0.982062595492379
-0.370758046713486
0.152265181987383
-0.061558197589143
0.685566237070603
0.16343546312256
-0.551011435586342
0.179840824384271
-0.624378851479237
-0.72595855072514
0.958133462761168
-0.376465605364281
0.840206072412467
0.26810951139172
0.912108460483411
0.570821775423222
-0.858586067111658
0.756927583625687
-0.384148446514812
0.735144977496607
0.416445991365844
-0.425846820072847
0.141405398608204
-0.840187386927709
-0.513051439050089
-0.466949944568286
0.238932554984139
-5.11409660439759E-02
0.473516655995939
-4.62001354650532E-02
-0.502808891041083
-0.190609337537329
-0.976419979280959
0.854748581329349
0.890006007498007
0.272912090521056
2.06525112307641E-02
0.976837916746949
-0.238712310417131
-0.355234474167302
0.715191153796277
0.398363151141265
0.029664607301263
-0.775042867731065
-0.8979224543651
-0.602410878369222
0.934812411909392
-0.849714796466731
-0.933000989567082
0.433646469283722
1.07769502647481E-03
-0.673174906736082
-0.666226816757548
-0.358478771605119
-0.939989647821663
0.353466666182228
0.5669250050111
7.48416836312082E-02
0.1519336995665
8.13410481522396E-02
0.118591005344763
-0.919443718661796
0.917697466662028
-0.489386777504949
0.85609085744263
0.652487642988944
0.695274351003537
-0.904741429465601
-0.733727352774095
0.386138260756354
0.951876359747437
-0.791918566624183
0.605002980266627
-0.254986042148615
0.910782838988639
0.512374682735874
-0.755060557918367
-0.250878375108375
-0.726912391381741
-0.706740150259423
0.57198806435824
-9.08110673882909E-02
-0.211911337035285
-0.579111936258798
0.79061434337933
0.255543822954515
9.20587073391355E-02
0.549322287404192
0.820441889729138
0.648482293723143
-0.286348463078847
-0.600937127142717
0.10133840732201
0.207344063208102
0.435213590939257
-0.472182180354792
-0.428545729205771
0.658405551009098
0.302786968413224
0.863260818617952
0.342444716851159
0.677090921855163
-0.506395220054146
-0.546839657659116
-0.331627666051334
-0.112107643792751
-2.16041627185172E-02
0.382403629329999
0.689551842586998
-0.914218945632332
-0.543168841881136
0.613080048749112
-0.870134970620985
-0.544218490320009
-0.602039368942762
-0.377070871532616
0.635839655085703
9.27719898793011E-02
-0.816496717723733
0.149099184541622
0.76805079928115
-3.85351621846197E-02
-0.669629210850822
-0.911697472578552
-0.209830125615185
-0.413089109698971
0.559819274214267
-0.338905125349376
0.348251431068642
-0.771237266387952
8.41396712361937E-02
0.317146176066765
-0.107386327972513
6.79224410448875E-02
-0.102186486013226
-0.459988674521954
-0.733065646979691
-0.977910275466813
8.85755051039245E-02
0.704049853037015
0.273949255429156
0.207117643257294
-0.775159329541683
-0.557216215752395
0.224405916662973
0.773972495044673
-0.270530865176109
-0.39287578222766
0.485691429402353
-0.123513228695393
0.815857459758196
0.823537147644714
0.868817990393309
0.862983033396234
-0.959139351158744
0.906360050124938
0.327216131758443
0.435238392072116
0.820065047529593
-6.48785996411948E-02
0.888050848219086
0.481149337511282
0.354447805727602
-0.323144525098738
-3.45811435204835E-03
0.562847255333745
0.333473986412569
0.215046321187649
0.526034178934793
-0.370093970830616
-0.491801551076486
-0.859026031509054
-0.408668663078369
0.42767331683213
0.768954746215704
-0.530121639975433
-0.999930599222382
-0.716352323574585
-0.284270477246482
0.563495456719518
-0.313325232980163
-0.519785080606819
0.875335899578641
-0.227838301294981
-0.204284840967165
0.259946972283701
0.698015275918948
-0.746176825584842
-0.783781660109541
-0.339942194881097
-0.742887180585381
0.483926376681731
0.315799035172386
-0.164499288867766
0.178986944376338
0.339308618178309
-0.616800229344911
0.305583274555261
0.746329196804433
-0.679154214922515
-0.139882409135132
-0.353134594518556
-0.653413373533239
0.47375715108568
0.827953466718511
-0.444502543548511
-0.521806233755685
0.871106000302793
0.412387469966893
0.915045924096887
0.380837739061267
0.145176836686615
-0.22155189528731
-0.468755599489406
2.19950908115467E-02
0.483049655668364
-0.788990146802589
-0.46700122199652
0.65049461112566
-0.253167155043472
-0.589581238974445
-0.910634529162464
0.418876563182327
-6.43433342826171E-02
0.580211115264811
5.51131150756792E-02
0.679833506612207
-0.924329880675913
-0.856343522650626
0.43286755131914
-0.521965696297674
-0.194075654754674
0.998121658773442
0.127731787298725
-0.512851972037714
0.422166639986263
-0.898982658253882
0.370662428883521
-0.817099597982894
-5.27905163985184E-02
-0.121643964550325
-0.600225171290988
-0.603489128247379
-8.43200944272909E-02
-0.54328610039062
-0.485859798850796
-0.441125972999353
-7.4051806176415E-03
-0.95834372313991
-0.547471897020508
0.924364850516179
0.289348990725323
0.900451235790563
-0.800061320469053
-0.145837170862599
0.297342394154767
0.354161433403205
-0.21234060839706
0.842505398139565
0.728614883610841
0.943970475213689
0.427971790774646
0.385297271854851
0.234496371879784
-0.491134674296288
-0.58747544502088
-0.980982728297701
-3.25785912217366E-02
-0.703438321831917
-0.396220776340202
-0.101119691488612
-0.742302219676362
0.426825559344702
6.18263279313298E-02
0.138727778918512
-0.703840702182088
3.61092426817411E-02
0.37425975014722
-0.198865189431502
0.645273574862219
-0.745314170581418
-0.405312087428232
0.904739162090084
0.645416048510062
0.80223194662683
-0.654148943693657
-0.893188530874118
0.339662726834419
-0.564925784345114
0.606204444131285
-0.177397390707233
-0.590406259960829
-0.261919876438079
-2.57818825809842E-02
0.459019508293262
-0.203758345105411
-0.173559946600776
-0.207465857504345
-0.831303811571802
0.174457750435446
-0.592647261738218
-0.585486920745988
0.071542671807181
0.255611604661804
0.348891701221962
0.108592277218009
-0.755630311046585
1.26784320610798E-02
-0.586903479336817
-0.378731282837921
0.94520324604965
0.353410481380726
0.13259770847448
0.257410064223363
-0.482581742861164
0.511428609346483
-5.51500534707103E-02
0.486988367930484
-0.790163799102667
-0.51828860928555
-0.35468579723948
0.550221048280165
-0.247552197784265
0.196099066352582
0.980694409825621
-0.69150536298509
-5.65636021773662E-02
-0.183929048822296
0.775600516352716
0.676337663149528
0.731694528650761
-0.485805044580285
0.370775054735159
-0.629900857211702
-0.679959075676351
0.422289149043017
-0.651714121027596
-0.578119826690236
0.667860938609175
-0.956524921587637
0.528853932680577
0.932656487043572
0.437909541357236
-0.643056059210729
-0.951250394255254
0.876420815826752
-8.94689899783613E-02
8.83970388754816E-02
-4.15421296752228E-02
0.417564065189359
0.679565310302751
0.175762411178154
0.232577212866475
0.166605294113712
-0.952272949221565
-0.671069552420344
0.340183468048534
7.47709724308256E-02
0.955258050854578
-0.236108300521494
-0.402844909036018
0.255814524107286
4.17049488168075E-03
-0.314199095900625
0.406721965053741
0.923858103662514
-0.318586744835445
0.902131658386276
-0.808234002684292
-0.151071282451718
0.23780943165206
6.62270039568595E-02
0.332166234128856
0.25725195085665
0.845628833960914
-0.516808175139277
-0.257251697609651
0.94125665073991
0.636175126370075
-0.845786883672503
0.862162470861685
-0.505365096521045
9.78213370035097E-03
0.792035628549476
-0.229719172808247
-0.949307610263608
0.214130345800061
0.909460248894532
-8.85306902773173E-02
0.677614101230025
0.602809876151318
-0.235626365287871
0.473356542138137
-0.327837895732069
-0.785428558496829
-6.10423073049967E-02
-0.1445136418908
0.393711711699533
-0.645276592688925
0.637368963381821
0.859506986318255
0.993423427619431
0.713647414169503
-0.594682363115289
-0.757684709444203
0.418738987705124
0.223421929406359
-9.33829085435934E-02
9.58402531690463E-02
-0.588720280902519
-0.667942199883126
0.635915692133358
-0.84808466226115
0.866616596923642
0.665865842109862
-0.996537602852292
0.55795497511209
0.887272081183759
0.153992282811447
9.68993412142987E-02
0.928916319931156
0.135703749949924
0.605173142393884
-0.393285683417869
-0.44670728639084
-0.318088683353973
-0.544725525945269
-0.103872737049382
0.515651141491148
0.440698507632075
0.945201120912033
-0.997174669579909
0.195491433043354
0.506512282824077
-0.657727984816465
0.479101615137207
-0.888029290222084
0.219172129094597
0.984175805141461
-0.591406625383935
0.406302293522732
0.631693565969308
0.903136165633708
0.681956215149967
0.388403426044636
-0.798200553582481
0.578931960871214
-0.329548846042973
-0.478367417426015
0.991604493271019
0.972932723740443
0.805562592103097
0.979222010535929
0.435348179536951
-0.588674233006971
0.254404870544701
0.47827707297712
-0.177057780816414
0.114227052245204
0.874817020628969
-0.518019989492563
4.74894530066989E-02
0.208382848520326
0.940684853309965
5.79002616302347E-02
0.877821358173033
-8.53140898011843E-02
0.747170502690945
-0.309919462673717
4.24922419218494E-02
-0.732255658414759
-0.862829317318771
0.164832186477311
0.749558758936123
0.203258185727957
-0.765535557574802
0.284939752734074
-8.31360733124251E-02
0.139973071842443
-0.774346874868229
-0.385759775765976
0.350435586736681
-0.713502731392509
-9.78654160810702E-02
-0.285692461327601
-0.616000278813031
0.819282736096399
-0.145004461216927
0.40723934987766
8.04997335953672E-02
0.806587626492443
-0.290154497564391
-0.516692062192305
0.996903489307288
-0.705747585550002
0.595257191449012
0.969503297889055
0.726470477108453
-0.677362100931022
-0.842381684147807
-0.415238238097458
-4.19579040197817E-02
0.810088893009276
-0.133159093571211
-0.670060737325173
0.629808444884717
-0.783197007978198
-0.898485936718864
0.295354007324335
0.905396336686777
0.693999340508964
0.558727827610751
-0.2840113398858
0.163012902233573
2.67980736731948E-02
-9.70647686223711E-02
-0.935791562414538
-3.62295052750889E-02
-0.904763114051144
0.249861369017669
0.542116177876771
-0.946790810874464
-0.193633662207083
-0.924392087442202
-0.279568050145791
0.85042316040846
0.49138154374815
-0.55225682239143
0.268049927028154
0.592088748741234
0.61526357699523
9.43072320904728E-02
-0.273808981724686
0.324081964992595
-0.687581093152104
-0.241696415750406
0.103335138636686
-0.728735955361144
0.740321780399562
-0.470611717580897
-0.298116863486839
0.766404438811296
-0.465820789269103
0.401108827776588
-0.965236445203537
0.8821010547254
0.749154360386794
0.17118538794096
-5.00348574253745E-02
0.184947922093455
0.592699479361848
-1.60322568712329E-02
-0.846758304612628
0.6190919892389
0.978065482898024
0.308341871544958
-0.795998390905118
0.426710343062403
0.471070573706077
0.95100048904877
-0.243340229992239
-0.774169712372357
0.555725934744448
-0.175866816611859
-0.670504750801598
0.891305335677839
-0.689667453266319
0.61823144753492
-0.79467582946873
-0.277349197696124
0.564178203540857
0.274845436552317
0.203062021929558
-0.467166927959308
-0.604019926586634
-0.789230734578225
6.51605133094568E-03
-0.245002500170502
0.438733062170383
0.61427242612769
-0.503486345225135
-0.560489621322562
-0.128359228993104
-0.184363866978125
-0.895261775183014
-0.898418822270693
-0.791679703859916
0.728392885792355
0.592409782983531
-0.21987824240642
-0.968510994817081
-0.335690811751606
-0.145786859898422
0.381389758457291
-0.322143962901646
-0.555708561585892
0.357642192240359
0.406354471530871
-0.457042591334791
0.659036029392881
0.650194239492389
-0.501386467948343
0.154189184411559
0.177384719071949
-0.998385927797186
-9.99202311966043E-02
0.451308730285829
-0.44301248444954
-0.30434659152588
0.864548095268618
0.817189460027258
-0.118984044339605
0.745576193761604
-0.645357077140629
0.317630740347151
0.726309591997492
-0.120093163768581
0.935537172466109
0.337539481663876
-0.537519866325542
0.52968307399878
0.679224616429179
0.341816206666219
0.888137356766987
0.245741860811519
0.106018058576855
0.842793541115226
0.329542322533286
0.484331168362566
0.715336039932697
0.822090972679191
-0.241366633502908
-0.978392727557883
-0.504267914491168
-0.16673457944434
0.231511625316428
0.392341878361449
0.954510345765154
0.802652219034568
-0.994887131193304
-0.30457038815007
-0.329837333951992
0.149307806974391
5.89333814247877E-02
0.868551794276347
-0.853747209118347
-0.739020350519696
0.43031848826474
0.106617989249529
0.833263234645014
-0.408454116506076
-0.234038027718476
0.483372685521912
-0.414687693842833
0.686381987947316
0.798906837140401
-0.96718019561432
0.531537929733289
0.29562742673314
0.079476747826245
0.556883576199378
-0.632663212310782
0.401341430776931
-0.779790489054473
-0.752010069448304
-0.59146286420533
0.463051996420551
-0.840996211003792
-0.149982216449513
0.401974617552058
-0.522781700566236
-0.498668992988277
0.528336033539695
4.88307521717068E-02
-0.450358073602128
-0.128494415636377
-0.120593093322405
-0.527514940653134
-0.404121365490886
0.384646018662869
0.582702178663298
0.450521269589771
0.513217084821257
-0.154898403106918
8.24448146028507E-02
-0.869080060800806
0.708807192423194
-0.916241319521615
0.383953463863915
0.16535955864115
-0.777963462616584
0.965781910746921
0.55913362848214
0.717939071283699
0.845268101343559
3.19862991644093E-02
0.877924212020763
-0.35447431783782
-0.374430836679634
-0.518823565086347
0.617274590584475
-0.70367804971391
-7.89239077865291E-02
-0.742570159945601
0.546492065594975
-0.163862848532117
-0.210844126261709
0.375442442183125
-0.152433909475978
0.787238341245665
-0.100459520548849
-0.701306020572208
-0.198659446019146
-0.447452681645231
0.394126040817794
0.179332719077873
0.955171450782793
9.83400582203933E-02
0.156144427234065
7.53189256130327E-02
0.684972707662645
0.681496255781036
-0.195069711757873
0.879506844494008
7.43188388687481E-02
-0.467263430331514
-0.60147776527725
-0.373013173485831
0.855538043680701
-0.254823307525033
0.304852765496755
0.091148088727933
0.792496094411852
-0.73208309174708
-6.70320384131473E-03
-0.864435085626743
-0.667964376834716
0.867277525744104
0.60186457209908
-0.842051422697888
0.610802562871333
0.193680291994877
-0.948659978655194
-0.855951757339315
-2.35444871075207E-02
-0.319932783034315
0.206181700274845
-0.656474870690207
-0.932979119381102
-0.101861819648302
-0.876981396588841
0.386464113751605
-0.810578700533627
0.211580003812851
-0.218910741002397
0.778328124119252
-0.752029204379428
-0.909150088624979
-0.145012445704174
-0.857198821059571
0.795895980631413
-0.708033161183663
6.85949977304803E-02
-0.673893798961737
0.91770776731622
0.252154889393841
0.460094200317455
-0.466974802307122
-0.402486035724522
-0.481925899925135
0.491474362173184
-0.966011085188668
-1.18711006939842E-02
0.797763357619458
-0.648045008785729
-0.335755510158379
-0.431898612131137
0.315312289187762
-0.966730354131925
0.330250293111439
-0.441451535844824
-0.45233156545558
-0.204232430843247
-0.954912999430257
-0.831052458946219
-0.864122856175181
-0.502194269261412
0.633815441250585
0.25080570058608
-0.211557798958959
0.926920860890797
-0.818648010463656
0.760389745690617
-0.667614076100692
0.749785002765542
0.539572745390094
6.64673882382658E-02
0.717977734720665
-1.10346212517944E-02
-0.233001370933023
-0.413725859200605
-0.254008753394886
-0.961976280192206
-0.756445696237286
0.49268755989046
-0.438259741561149
0.142506456428442
-0.615466214844283
0.307854972571876
-0.451965150695735
-0.997107276753409
-0.627952900065433
8.32870127873107E-02
-0.850410722844079
0.696582746849513
0.128862123018358
-0.436305051348563
0.374303975900815
-0.530475505211418
-0.121302757854811
-0.758385013584432
0.242234743378151
-0.885907299478662
6.86601925453358E-02
-0.467871063518809
0.29095272843443
0.628349442656263
0.173669834907764
0.431755631119488
0.396389356357074
0.642831284684235
-4.06622826497427E-02
-2.71462786203038E-02
0.631151116782553
-0.295476186618403
-0.851072842914909
0.544641657251937
-0.342320225498155
-0.076300420290488
-0.878351787850782
0.724206260606893
-0.758476038060016
0.717811629143835
-0.736312667356223
0.645637692393415
-0.129620997355685
-0.572350211323734
-9.99885556383783E-02
-0.867307201097655
0.177442393215318
0.434483277835287
0.354126309863215
0.830156012006978
0.893022636754236
7.29280060487263E-02
0.614610438362399
-0.608668442570107
0.386230459891538
-0.887206792049876
0.331385432059404
0.413866701674692
-0.491028660497059
-0.125822606873024
-0.578674707592823
-0.736628586235136
0.417349247512912
-0.856400860586877
0.431947139928681
0.184065400571322
-0.67901776327649
0.974964203052914
-6.43353059260965E-03
0.167949009186469
0.698620922487946
-0.812314437181583
-0.8155585612513
-6.12395317459202E-02
0.418851421901246
-8.47108236155696E-02
0.44006997313792
-0.895753172428606
-0.582444509948681
-8.86464566856284E-02
-0.243054500821608
-0.95995741713692
0.109190385402331
0.485646653162115
-0.627283115210264
-0.609285250793553
0.54684248810886
-7.81600035145757E-02
-0.151161206073768
0.208298992790943
0.496398637530901
-0.980805682637768
-0.461560023076068
-0.304082368733151
-0.94692978425601
-0.995871778500977
-0.208723391584876
-0.716165099075011
-0.796104754735163
0.473595435372552
-7.07204257341727E-02
-0.662428618974886
0.827735024383502
0.260712821615587
-0.979655962859407
0.182464777215133
2.46715145076153E-02
0.154096780056252
-0.215348629055065
0.326329812766812
-0.620396766851822
-0.744119061109344
-0.413046748303476
0.771635713592512
0.790227560058261
0.429404154194534
0.399888768500258
-0.869114671827157
-0.172512123988842
0.76607289591425
-0.132453661570345
-0.106354345755157
0.246955121796607
0.291918414300538
-0.84487808473452
-0.35905484764903
-0.767496792631978
0.23788411926255
0.13966649914765
0.262518667427591
0.229029197922571
0.113894303475973
0.678556391433118
-0.695353514348772
0.808859091685104
-0.444728480536706
0.186459622269304
0.461100143971038
-8.31290493958339E-02
0.451084614323422
0.558213668258151
0.916972221491551
5.22580026643058E-02
-0.78247386490522
-0.405830766091452
-0.235065888985939
-0.52975564198456
0.245432236454901
-0.483803975070135
-0.964269536331642
-0.675042892231746
-0.470424895938831
-9.33129476523439E-02
1.94852704532158E-02
0.825049239482406
0.27837246804862
0.45953832724391
0.501659783951109
-6.34422313367291E-02
-9.38248801587455E-02
0.301221715807045
-0.702731699184756
-5.71269542382439E-02
0.226308406764823
-0.678290670748424
-0.96077679243361
-0.740414880311489
-0.108439914423891
0.949148137935081
0.561446860678239
-0.697636145094074
0.169821389690727
-0.891175254443932
0.414652815216478
0.918920315679085
-3.89476444851378E-03
0.726100053474706
-0.937535115496356
-7.85126989845791E-02
-9.18205161100349E-02
-0.935365073203827
-0.87219171548592
0.594147641864917
0.95157048909445
0.435368245783188
0.694272452542132
0.699729645363974
-6.92937271019832E-02
-0.631650785376275
0.114410909300902
0.473879248536523
0.486485373495335
-0.79133310799805
3.67090566435404E-02
-0.630690245549656
0.396572501154791
0.279359920473965
-0.564783438707224
-9.88800807337084E-02
-0.776762039400454
0.248330644212647
-0.689393463816669
-0.155537693778959
0.974573112288482
-0.857071928509554
0.428689274080023
0.248734359704975
-0.201569481241259
0.575004800420062
-2.78258591427092E-02
-0.74214519724673
0.894451982471536
-0.829106288558624
0.303738489242711
0.564079542401836
-0.191935772071623
-5.51088833572435E-02
-0.826771521155306
0.473200807499926
-0.938662794862173
0.411472922340794
0.649082173600679
-0.978135382980095
-0.320884526663372
0.600611964129343
-0.186169423876372
0.363132112045801
0.58484914632549
-0.177795503827509
-0.164201398511162
-0.27569924996856
-0.93093379292731
1.97549135947439E-02
-0.586107231814181
0.641392108915806
0.574443746954889
-0.139891719130935
-0.210371145384563
0.887603678936525
-0.105048920715986
-0.674839363241205
-0.469682357515938
0.538412844416377
0.552553894803206
-0.496881832803093
0.109592974954824
0.953911143924219
0.593483433449692
0.521016408247262
-5.37680906782091E-02
-0.890661353550959
-0.662909022593313
0.116851763051242
-0.990517930898447
-0.332322085036037
0.713823098387532
0.21881780756497
0.358877397166163
-0.536441802219702
0.744869267288654
-0.919220255836212
-0.941211214552698
-0.344389087477187
-0.555451831680387
1.72610606633017E-02
0.792721744620363
-0.295191819325212
0.967515854241365
0.587856786166105
0.199638976697528
0.549206804620031
0.176393398180046
0.200128568657721
0.464351379917291
-0.129089435458427
0.971428172562807
-0.468322702020799
-0.983713455593783
0.1889546305687
-0.29768219962951
-8.37699740353507E-02
-0.674290766489524
0.662206148410447
-0.226657856549707
0.89521770501028
-0.266265401579382
-5.07339945207459E-02
-0.843536294931285
-0.494538138322114
-0.987760366936676
0.247747092989771
0.943072928297891
-0.444771609631515
0.922044786353298
-0.276804596279509
0.293569996955624
-0.864952824514107
0.422502878566628
-6.16895195719542E-02
-0.815008843362638
-8.36625178352295E-02
0.382897829115862
0.606012814642674
-0.789598023269453
0.410018894499551
-0.344177747640752
1.52958674987107E-02
0.349797064053901
-0.711071038191576
-0.805032636499181
-0.183308321459801
0.110760180300595
0.122008657567845
0.534525462592975
-0.495430988108576
0.728154800319312
-0.575142115137617
0.394669867075625
0.896374150289289
0.215631028697002
-0.199596196726209
0.437343580390311
0.184314461657819
-2.22502173418284E-02
-0.874935190609742
0.268853027145712
0.722876486879473
-0.579958559561452
-0.770065054163683
0.670529446884432
-0.384040626240486
0.535331272433241
-0.666847769192198
0.735985127884851
-0.619702969042595
0.798179959020029
0.598756984496996
-0.896741367258203
0.487231110205335
0.865302819197661
0.62898546834901
-0.207592234764413
-0.577210897685946
0.55834722014988
0.44108539731799
-0.706125215204356
5.64112533970116E-02
0.396423175083292
-0.463619592721176
-0.499785260650406
-0.428438395290063
0.549297782423663
-0.961548984852616
0.833542375335623
-1.31517610069785E-02
0.49817982428384
0.558940638820173
-0.506680662686876
0.384169399199103
0.919536242915106
-0.556364716859525
0.133869187870695
-0.639208610529129
0.348398185087539
-0.641893367104672
0.478272535552436
-6.48434282784959E-02
-0.968870197067587
0.791348795811252
-0.614938944278364
0.16160868825852
-0.956351676255769
0.987479165274325
0.706394714643996
4.71144747611336E-02
-0.770399951040652
-0.940284626227046
-8.88288648937632E-02
-0.986549168253928
-0.195987769828973
-0.402520283813172
0.893783423374911
0.111217290859918
0.571456300293336
0.946624430889041
0.649006579250812
-0.532575810378904
0.623773979069134
0.524410397266321
-0.434240446189614
0.03629792910734
0.110933012728583
-0.974986062753631
0.977254962246325
-0.376665154239759
0.219595059046235
0.177975594891761
-0.697685558138077
0.365526100875529
-0.152506134532054
0.841146540407388
-0.377607194907294
0.376066610890827
0.627737647802414
-0.358671837532927
0.861120560586872
9.97516764924278E-02
-6.43351507517756E-02
-0.88005863358001
-0.132061082271913
7.56552761126361E-02
0.301898376744335
0.397702521066974
0.654668134448519
-0.733424555205735
-0.741240890477561
0.74142398108544
-0.206385142667504
-0.10987847089301
0.063214670181678
-0.902302864088942
-0.441909844497187
-0.225789958026194
0.968055676419271
0.652357129820566
0.77097532846143
0.660125390719222
0.754006627153626
0.781268869655652
-0.475761460477147
0.589193298325485
-0.911005008214568
-0.622885702969612
-5.79294652738009E-02
0.534504273366662
-0.053183223091422
0.468501836427575
0.982573627355748
-0.222983372257132
0.795953461888658
-0.708140573966331
0.907703538544476
-0.824242682207452
-0.439690001917962
-0.466786839268234
0.498429672665437
0.444731133252629
-0.542840433892484
-0.673905643830156
-0.648155458179617
0.824538623708071
0.733596506290557
-0.226541965811101
0.669218901335674
0.124593509548114
5.13141450664638E-02
0.255637176568773
0.828765196231622
-0.987778244828534
0.810540088427984
0.592996839313421
0.734136448410648
-0.362185457533451
-0.942522757919821
-0.748906298587724
0.439454923038193
0.210597890377199
-0.214385876696557
-0.79221339337176
0.873928780199188
-2.25271101300197E-02
-0.580215945689643
0.845884573264917
0.623882075418744
0.207770510794232
6.28681107996729E-02
0.291559388062005
-0.322711861611987
0.24965602745261
-0.311447461137644
-1.21095399266915E-02
-0.204337741474785
-0.500691455159007
-0.120433071183809
-2.54499412056545E-02
0.750435487130117
0.211891513321176
0.939344999256895
-0.661221871917122
-0.954303546002711
0.483721226114477
-0.753934511978148
-0.390563951461366
0.946454343491545
-0.552069358864437
-0.428453601330165
-0.514930523708228
0.641341226874437
-0.24868369431036
-0.246518750449592
-0.781448612232222
-0.809061901117475
-0.282052774125647
0.588021732825869
-0.774983707660915
0.547673907516213
-0.744495158746407
0.100727014893344
-0.963562079950125
-0.619486557175782
-0.476786117414842
0.457414948168797
-0.404656774770969
-0.302585353511021
0.655614746483139
-0.30753324140262
6.17955519091911E-02
-0.669197942907211
0.424318341018759
-0.83934797123314
-0.198078630290209
-0.763931384990674
-0.379724592991233
-0.840443496761016
-0.967105228641104
0.250383541769337
-0.848017731734405
-0.476789284775909
-0.281564930532646
-0.531149952263308
-0.619563567007277
-0.846466597835924
-0.259486641324912
-0.282678474829428
4.95452838546768E-02
0.434719173582318
0.117104251996724
0.735951288746746
-0.678917584919991
-0.733285097194628
-0.907539904124554
-0.365183998854839
0.886176259453842
-0.942553557436743
0.295525103476459
0.942718842951826
0.900706582386591
-0.570529134507082
0.843747897660932
-0.857456027629523
-0.4201250919936
-0.374753060117595
-0.736308715249779
0.971299392634337
-0.312394256626273
0.636230994858003
0.406478820106611
0.960251227067857
-0.130674238106339
0.934521401498762
-0.844741629918572
-0.299682196288866
0.802059058095395
0.351790272481486
0.653503481618705
0.140157454430978
0.473667209682274
-0.871242817267381
2.71139258515238E-02
0.859150044141896
-0.446547014585153
0.449474472215239
-0.870082520896177
0.704737339920925
0.779238130630119
0.878210034345086
-0.288684260495391
0.443353210462863
-0.438584889860555
3.27287970050256E-02
-0.413542912001665
0.14644030020798
0.59236449103587
0.556289872729698
0.883460787272294
-8.21846461090542E-02
-0.849980739274964
-8.30834841169281E-03
-0.751143059137483
0.265910969922496
-2.7513870306517E-03
-0.485786634885083
0.01154720511236
0.934187428639464
-0.695875638271288
0.646316433433089
-0.262767780943386
-0.674726654135969
-0.141976751500243
5.54854838494041E-02
-0.650607843131099
-0.210839834350791
0.976909647728037
0.327603572358142
4.95475232122293E-02
0.993040782787503
4.0334456304103E-03
-0.788227320694443
-0.361332381781633
0.350147948506938
3.76685562257078E-02
-0.751494574470773
0.523235396600422
5.72145601510106E-02
0.637408257100672
-7.82698690530353E-02
-0.316382932733285
0.674942532007908
0.648924023115307
-0.483933376649886
-0.81097335524181
-0.616866599791384
-0.998014803692689
-0.285654206849495
-0.537484921989616
-0.948100984589333
0.361927565282319
0.636362122765725
0.431055075297443
-0.907363633739922
-0.147350560648062
-0.501636863464789
-6.00671552208392E-02
-0.312783573447018
0.719604449232968
0.363795764661874
0.367299121633092
-0.558898068777235
0.764150863731244
-0.44065409511437
-0.756128328873418
0.765875664153241
-0.343991976770931
-0.753678504978612
-0.135576988192735
-0.631074734641869
-0.181539040070404
0.365946810773568
-0.628172839286707
0.112797087410994
0.481344967929047
-0.281849886423698
0.60107970027713
-0.796003176109381
-0.290267688450041
0.286942767259616
8.98467322448628E-02
0.180780358669931
0.741634505760409
-0.908496178625372
9.37382759973784E-02
0.491744067284557
0.805923119826944
0.820599286583503
-0.811357437289856
0.591788969817989
0.742064002026682
0.298981080824089
9.90983254351887E-02
0.429299417268621
0.206149296794585
0.437926501663653
0.760822811949656
0.958142050737318
2.31030815526725E-02
0.7380943055005
-0.692846386328571
0.880356586847267
0.332826506095121
0.641389284852778
-0.336696431923773
-0.789824102070635
0.578439282466911
0.069543049745358
-0.261032206806093
0.447277858397463
-0.902335093330625
0.340633912319331
0.828963778181488
-0.843062290130885
0.103797408178079
0.320784835360723
0.763224421580057
0.577014887674383
0.180578717544675
-0.853206199344304
0.591606132841686
-0.493525965731049
-0.934294870242326
0.146466501492792
-0.854386084281524
-0.822594489033143
0.460573545225432
0.686937099359065
-0.311714240925518
-0.927723504237432
-0.120732590432346
-0.402721628525574
4.51200739439848E-02
-0.279591053038289
0.137673629155234
-0.459781997315782
0.103069831821215
-0.607552832371609
0.984012290894731
0.2487936831338
0.371268190238602
0.30884204192114
-0.415048463026387
-0.102705040605081
0.416290338585925
0.4881462678216
-0.893129651241421
4.18559563190275E-02
0.416397965567814
-0.316821087520633
-0.530276842059635
0.544577845078824
0.823352310093491
-1.21154943186502E-02
-0.498649556486824
0.686076691991865
0.177022994635366
-0.355023283380898
-0.81703003254298
-0.725133238537453
-0.512839540596686
0.3442227074282
0.451974422585821
-2.19940500195043E-02
-0.721660063731595
-0.126510279130465
-0.883948521886434
0.325944996778365
0.388226326274094
-0.630558915928753
0.833032897882994
-0.114461807706101
-8.40507127227556E-02
-0.387965538658383
0.823770230169647
0.9486885061454
-0.66348134685073
-0.183259133302464
1.07249453732792E-02
-0.249883919351157
0.728851039364926
-0.799331617290815
-0.387148262290565
-0.293745516730338
-0.690880634769838
0.233540531202195
-0.122255944457814
0.458294548056782
1.77767142477441E-02
0.931744342969764
0.594902033952026
-0.394088341902727
0.777747843753486
-0.186570684919855
-0.690627124244712
-6.57722637358501E-02
-0.77707878697587
-0.795096281729112
-0.257094715889366
-0.33492541374855
-0.809784336225406
0.47334046440464
-0.16985075541213
0.804641394564811
7.51363400314786E-02
0.458070413679381
-9.67613658671262E-03
-0.986895517068814
0.269874716541119
-0.117493362057956
-0.219833992996565
-0.412147107806103
-0.665351047059403
-0.148991567776949
0.911863495338147
0.130439381192265
0.297120761098504
-0.330239787998126
0.770067102988691
-0.741598135495092
-0.468634214408136
0.178005270829351
-0.975034010762808
0.326615697901963
-0.962984592831523
-0.464259437205764
0.713802515384896
-0.461146526224078
0.620827917674522
0.986243951952634
0.251091941433399
-0.941256109569457
-0.522911493113279
0.496571300861698
0.228204413061014
-0.229662777109575
-3.01230398950627E-02
0.376425952063987
0.575855961316898
-0.807999138934412
-0.9606161096144
0.985569556709432
-0.311552887578555
-0.286616645107324
0.586095803545371
0.46220758992611
-0.552922908000966
0.803701382430346
-0.569189301520351
3.95501506396809E-02
0.728453454164109
0.130619948026442
5.08618518362303E-03
-3.49875437978179E-02
0.949806547465565
0.632511089133427
0.795862807855429
0.296286857673066
0.475309674389268
-0.497107402303978
0.749645734950566
-0.079217768745647
0.297395651854762
0.774363599503677
0.335769071410056
2.96934739029133E-02
-0.693248089132761
-0.269630510515433
-0.225093117044191
0.975228599340669
-0.322333725835007
0.726644305186969
5.81366083696715E-02
-5.07128887680185E-02
-0.579213717995641
0.170194447572618
0.813500207362112
-0.755851460989152
-6.75378066553622E-03
-0.61779686831157
0.821149814678095
0.990496121363936
6.50525463225948E-03
-0.137749721595866
3.48047460398369E-02
0.21536560105216
-0.464867646714556
7.47590386048447E-02
0.336387529452608
-0.177624588724907
-0.694837068936192
0.29459477787609
-6.76524393505982E-02
0.66885969965499
-0.871456442202811
0.277258510476672
-0.70567923277321
-0.700708650126897
0.350571502154189
-0.439867555394772
0.853415426670311
-0.908352083609365
-0.209873684848367
5.47507101468934E-02
0.2765538168558
-0.416861083690618
-0.322118436134286
-0.743916186937357
8.49408113648691E-02
-0.436021388297094
-0.564424661208966
-0.126658297981704
0.618870781527902
0.162653714335058
0.789808670734708
-2.21849606521577E-02
0.909724752424814
0.593401768189189
-0.323268210838677
0.866790350041206
0.88915050231866
-0.50361908542863
0.669368726881501
-0.241409340778671
0.547059194169763
0.873277569799881
0.247221379221623
-0.837691843737768
-0.855788067718985
-0.494135662319841
0.128184610313625
0.306811458263383
0.391811282286999
0.442286103978963
-0.904304860238304
0.36712590553635
-0.370347208251036
0.645617390128104
-0.720573331583856
0.392300217315872
0.466031987716955
0.221500511249592
0.685735305469974
0.817389255573034
-0.91325607797466
-0.223561135635347
-7.55506164783345E-02
0.233197846769473
0.497151657531498
-0.594413970316792
-0.458511556306575
0.69094602616005
0.330441743448325
-0.431363887680568
-0.857813041787318
-0.764967573016
0.536825004970387
0.684687668537981
0.578088949933564
0.585587453395476
-0.737418683036431
0.661717642914197
0.870370096897031
-6.64764731568427E-02
0.534488069427784
-0.226431257561751
0.255934875557692
-0.335693755272037
-1.56873240331137E-02
0.30711825599212
0.767626591748113
-0.507315645015665
0.77968947228968
0.22456285881975
-0.902121078802975
-3.08663813205782E-02
-0.828157139510844
-0.279481348399223
0.145528280123278
0.609784316870444
-0.372741373926024
-0.999097955502293
0.608396836982256
5.11790427980596E-03
-0.620454074392364
0.870322425865956
-0.740353368625257
0.178734435386845
-0.580626546257904
0.786983119794833
0.133795966230691
-0.803992706129872
-0.565496248963896
-7.11472276277507E-02
0.748679776035615
0.563458036767026
1.85899105554079E-02
-0.487864718242196
-0.297473654901154
-0.68680075765301
0.586540110042517
-0.887168698901332
0.510713272548271
0.832809405399246
-0.134104127204084
6.44509229428605E-02
-0.615343359670775
-0.520481064858599
-0.422189912960851
-0.860298296392842
-0.194322925659607
-0.191397287539763
0.977852184913398
-0.328757270744504
0.209578015608007
-0.150610674544245
0.296008024700214
-0.973639360720647
0.873061506505968
-0.721686219632839
0.796882796119108
0.922688941763854
0.180997575363002
-0.433044784794201
0.175255873885087
0.45685822112218
0.853954185905331
0.224017248764246
0.30877709836317
0.915229714212063
-0.571715322315705
-0.896275814334724
8.7348515506529E-03
0.445630915521874
-0.693538836671879
-0.580878363019963
0.341466463771022
-0.508722870843996
-0.96676782502114
-0.422713691632316
0.337122674811665
0.522829018400199
-0.896426024335899
0.24446454829676
0.45913783270571
5.18009029274547E-02
0.571295196038728
0.152675688131989
7.68990006611698E-02
-0.831698589606272
-0.997454359143475
7.53310548601012E-02
-0.634253329093653
0.918352647822916
-9.36300620840729E-02
-0.872063970462929
-0.447418429522128
0.720800073884932
0.67483805099281
-0.909042886309884
0.231991781791109
-0.278908704582213
-0.72182495596912
0.805452749720503
0.596955413161005
0.488966754130965
-0.514297105213045
-0.141918954828984
0.859814687255832
-0.210628218007621
0.221298074160375
0.750614342916514
0.883357807185275
0.290664463385745
0.812459168305479
-0.459894740243349
-0.901514287120686
0.021459786234943
0.354969322356819
0.539365124727951
0.154081347965854
-0.852783961102145
0.190529144421013
-0.916569130611325
0.426339706933206
0.209934925682026
-0.417374116674312
-0.403787647880248
0.508957753770763
0.359112654845537
7.62960014063299E-02
0.232527689739181
-0.887776523046463
0.29934500089564
-0.259671843742361
0.22424967576538
-0.581815295583445
0.689754372431446
0.515844899196589
-0.274697990995536
0.870717806216543
0.552673582078847
0.233091396069547
0.428759868579661
0.623458502446843
-0.116214558066098
-0.491349408026159
0.520324726219243
-0.574803828871262
0.10318378789958
0.698194776722433
-0.364040892555543
0.591474769073182
-0.753413015170287
-0.644726328924611
0.407482480687181
-0.107216747158114
-0.131799769150677
0.234530598922284
0.908445371980993
0.683859912423798
0.511489166288265
-0.221871808396068
0.853613891209273
0.405274820210449
0.301392239676801
-0.762944064491633
-0.241086680668339
-0.292404397268598
0.721265791625757
-0.895616992290933
-0.565306152919092
-0.119917453211263
0.960120385377356
0.375409294680985
0.163698534081253
9.99914846778704E-03
-0.649526436320854
-0.699940467334818
-0.293871948504417
0.355265465645198
-0.635590943800275
-0.244245040548288
0.877713072696174
0.782321777088442
0.395198510005596
-0.855611848142224
0.862720483654569
0.802710827478967
-0.87589258637531
-0.195082811412697
-0.347664671728528
0.736027751647778
0.656772196846605
0.333485878143358
3.98760919792227E-02
-0.166472987960167
-0.189198473068619
-8.41328465028565E-02
-0.542183648968925
0.81581664732318
-5.39798133914806E-02
-0.197581903906857
0.607601541187446
-0.79028925575331
-0.448960302069259
-0.606375270719801
-0.68823459549811
0.113451190117247
-0.565394830465882
5.47061873735981E-02
0.308866049959494
0.576151257555044
-0.182565950846587
-0.259362097377364
0.815277064170544
0.646453287250237
0.880027367878004
-0.211655691542868
-0.406114656879686
0.327033916738973
0.394200349818658
-0.179297690357156
-1.73772653506032E-03
-0.83426914732224
-4.91554535970745E-02
-0.392612864732284
-0.998109252386965
2.07056520654592E-02
0.993699011310525
-5.95169371220106E-02
0.575546326971089
0.656197632562646
