-23.0170700510008
-12.1082888010344
4.68241939902519
-18.0558015020445
-97.0737243482107
23.620433107527
-23.8271927739878
-28.5790699941008
-68.3289708355746
-42.9893836015953
-17.6017194748602
8.27980351371364
47.9486098051311
1.06452122044657
-65.7096958638339
-17.8506401709322
-22.1500095641077
-4.13603399613851
-63.1660939044232
48.3301806089791
58.9319541218968
-91.9234746601359
31.6923009559157
32.2365899910568
9.91210694466108
30.5094051801245
-53.1206217948824
-48.0749913834697
-37.6289992235787
-78.8856691146653
115.36936222502
15.686821370138
-1.20573334830559
19.1245991545254
-41.0446928510726
8.78163947096222
-15.1571544811387
-24.4510496583471
-37.018925835819
16.5007187908574
5.93517886161503
-88.9440724285808
-56.2249410588943
-24.1203913613257
-1.93833512717589
-35.6428369747256
-33.2918470740119
-41.4758217396931
-108.271249558835
-24.9616574652638
0.783314358999862
11.6747717479108
71.5476665589148
16.3925278039871
-69.4603783048832
29.3095640532825
-49.7588498485008
-24.8178755462041
-58.180276918574
76.7800136583289
4.74041500287007
-18.1069768433971
20.10643687318
7.67889692441519
14.5841572593521
20.4471826441434
33.1815406425622
35.3645102968743
32.5116035087101
-33.4915195860065
-1.70217918619511
4.80341552779901
27.9623683493097
5.45067139026304
8.38403349369183
22.6484742052356
62.6573376635606
-103.743972302762
-65.9782993466015
66.2389874141659
-54.4631593624071
40.0785732964706
32.0425040926914
-35.5046686400944
-15.4249649829997
-8.06325280553067
9.0955308663224
8.4818110929876
-8.62724271034403
54.4969732899832
25.9247548540517
46.228312503856
-23.0450081354326
-37.8282546469604
0.878853553825335
-22.766133553213
-47.6363279183439
-64.2162651829795
33.3478248806106
-12.0766180304809
60.4417104939078
-51.6591515384862
-30.616093064224
-28.3074353571558
-86.8500644342682
-32.4737448305078
5.2178102687367
-4.44453426839789
-1.15493564282989
-11.6678901812797
-77.7743622337018
103.304052450975
-57.3261343198816
5.85603277503444
-15.8633708916434
-67.0000544336412
-1.39362930813094
-84.3646474481167
59.3974085156687
56.5446219244549
3.13925124939737
-10.9842732835107
-103.375478588449
87.0163567278476
-16.1505339400183
-51.5620744379681
-15.0162441576229
-92.5803177939151
-24.7322442156313
-38.8205746660417
16.6321438151841
54.9662396320949
33.9718328158367
-62.4940938026915
1.04651939256402
-42.0052564533862
41.8698038372937
-84.6281784627625
54.1410703969486
-59.3578853436431
-1.64410455625375
-24.2410717332756
-43.454330427462
55.397867196233
-22.1274662960407
-31.5430033516315
-55.2234858213187
-6.29047804800615
-3.09447765349899
-12.4281511755976
-37.2188388509018
32.3580267319738
-32.4276106873888
-47.2074812439366
6.48114960960616
27.8890876984511
28.2378488685097
101.961451006145
-39.0328653169777
24.4688613652621
24.5049297324344
-114.730436706721
-9.57620481221522
-60.3694537995847
-4.01453464918697
-54.5585983933874
59.6748170194721
-33.5077656417268
7.44942882678865
17.08474015902
41.9418320365126
-18.3442800027574
-22.2109201393767
106.453642140065
90.5054158118032
48.64107860763
-133.289141885035
-95.2856358303439
-33.0588248037519
-34.6276599076915
40.685715890079
33.9094394284888
52.9793608168417
31.4059756102496
-56.0531810751863
-33.8131716365566
-90.697379161629
59.2857342634466
-31.7774813772143
24.4982789099653
86.2532156061359
-15.8850838942451
17.9320040421242
56.873827126617
57.9683915127604
-28.8397082584212
-23.2487335913382
-24.4521654564714
-56.5994221376098
79.0406975825741
-41.2222366025787
1.14609717517411
-25.4922729284661
-37.692348972132
32.9836427302586
-68.6568406587939
-28.88169354158
47.9954207760172
-3.75062838894175
-50.6355947646995
-1.91466040956481
63.0036020707914
-21.4876217814939
27.4383870633466
29.844399189406
18.4765140095567
53.4485385493788
-42.6985321444535
38.8815353850698
20.6606263257568
18.6282969811191
28.1190549376743
-22.1011438982316
46.0537772111359
63.2537822505915
66.7155099444048
15.6378979271648
-0.99196824035149
51.8883932394552
30.2983239180491
-63.6161614401664
-81.1881434796388
21.5362148558433
-37.0788209077707
31.1272717726988
-35.8433602258534
-3.98502799380412
-34.2447416757851
77.704473904125
-28.2123698965671
53.2933254598777
-32.6715022915297
1.97195833726683
-73.950011239915
78.330977000098
41.2483825170576
-81.8033765486459
-39.5330431630162
-13.5316530480526
-25.9544275100128
33.3588865950515
-73.0710183612127
-25.4384676056074
12.6627121110103
-56.5270603996735
-29.4697759743083
-50.6522319014149
-15.7342443266106
37.8256409097777
17.0619511644236
31.4568310591592
67.4734729543285
-20.776457035358
-9.3388390325615
-20.4454068153645
-21.7150356879114
20.4161273558998
-54.3829086553971
-97.6836022114005
-27.0653053518135
9.33265037951819
-9.64162002723887
20.7799046210387
15.1198587048858
-16.8702614624786
72.6792046450833
72.6198462800296
-2.9740946400303
2.7974833010891
11.8140652855331
-72.9796902288791
19.3225864868633
114.212825962677
-63.4622860923701
37.0941800683991
112.315103117961
-3.43923378308629
-6.4506980099197
80.7138750670994
-84.7872041232055
0.466333887796834
50.9979137683835
-8.32727729419068
20.521224756665
1.49318225431544
68.6204776470049
-60.2079195907121
-57.1273877034395
42.8683777153634
-33.4076194772311
-9.07422898140375
4.18431222917855
57.8870600269292
42.8362013739814
-15.7095742782017
-33.6247078521217
15.4356491997537
-99.3054715006009
47.6680249491381
18.9765853468139
-9.55232490197649
40.0492206429264
93.2852131595951
-11.1567452041202
-7.62756477329502
80.6612325651643
-4.92711333431969
28.8126009499555
5.89345832696961
4.21275816362117
-91.9508712189909
-39.4438104294384
83.1810860992855
-11.243493345166
0.248708481537121
-13.4582646743159
21.4014472798647
-1.48425148757585
-23.0568210668712
-25.045051171266
-53.4672071064086
-35.2668480557809
-1.64294400190521
-40.8688335865438
-64.2406876995816
-63.4635925310053
-6.81244765119454
-36.9880767737425
-57.6775440190582
22.0743675869011
13.9780833858554
77.3725667441098
-126.789709589773
-77.5213981882536
-70.7209844252408
-1.43639276126457
94.456493426264
97.5222414948417
-13.4469269437647
-18.229285264546
62.1023410046015
-18.319542661246
2.44738130851229
58.8260617515587
2.04743658735215
-38.3549090529495
9.85924695186202
-25.1027668318751
-45.4221357811618
4.20968249656985
-54.3313308471173
-52.0610429840548
-104.685893079361
-5.6793815247626
-8.40310017880538
-64.8823726924165
42.1653015283434
-80.514972454911
-26.1225023959839
14.5089345257657
-90.8887777634825
-20.3631908180748
12.2939550201874
-12.7751292860907
10.758954921963
-55.5116368342254
66.146309546554
69.2479499018471
-12.3627480365662
-2.16245866185663
-46.641985750872
5.13770497841667
-88.4016531524217
1.7568197258648
51.724007658296
-30.0726628826252
-8.00563399628733
23.5648633220695
-14.769041071614
26.946874399966
83.9834442699019
12.4694232377035
18.4515730467999
-23.5067384155684
29.3992802503181
-55.7251304946024
-50.7737769742297
6.71749798456971
-35.4129042184558
-112.432278305296
20.197229671571
-24.1856925784223
-11.0311544042712
97.3291652657464
-75.2462224677718
40.0807645604299
-35.1490239294889
-40.5251924691324
-43.4212187702756
22.6568533299901
-36.3708025782915
8.88883495453373
29.262921288244
-28.2268044097673
26.5764048664734
117.602232200652
-25.1343752811606
47.6089871273198
-13.6776864421906
0.362894570181491
-110.982051402229
-29.4333762997379
-70.8936723513505
41.6192252813271
-120.261898560508
-40.5413752953058
-23.031231253687
-93.0518346393403
30.8267985709416
-54.9628749943477
-70.5001644376753
-20.5362853335372
14.5866867882443
-49.4634410433252
39.1505660282611
-58.6974715703875
47.3277107238207
27.6061170674213
-51.4145116406604
-92.9404392462806
-125.48133842493
-65.479863186965
-61.5371726505887
-89.121483400872
-16.0359792240252
-1.68821109718642
-110.195162440799
-49.7705151789373
-44.2352110280988
-64.7817387234447
-18.8817981131719
9.07918745608984
11.1121452189607
7.60409666073805
-26.907571033555
27.6281295267213
-73.4863799642931
-54.8065762796744
71.3427984770182
-15.1467586788219
-16.1771655337618
-33.5484828836984
-32.96637427448
66.014717650924
-68.304026333407
37.5714815449227
51.6774921098276
62.4213238559973
59.6907779834404
-42.3972344549724
45.5965924807693
12.7397490729914
33.7971870309513
30.4448634508818
83.193412610634
21.2204846041324
-80.5173529846115
-21.5383254790152
49.8497572898569
-17.0648056113734
-16.1002939987716
-40.6000731426098
-3.54454679053461
75.9787244668271
-43.3613724230069
88.0184424998284
42.5610741425822
86.882644236287
36.0636017944209
-51.8958502494262
-29.6873684815848
-17.4233941006075
-8.49244659713601
79.525454052522
29.320429814471
-21.2211404742374
60.6775754986866
90.413877504379
-5.80088079142282
73.4578555973586
33.2807003088533
-45.2891201138328
-59.0684922574001
12.7231791102461
-4.54194372543902
22.0083232983971
-62.7052260322696
28.5159349169668
3.2543132432786
-22.0117517174801
101.684456272157
-27.3837708419288
-17.1610554231586
72.1205099843655
55.569013337266
86.0585194013877
-48.2740407254208
37.7951924006718
-41.3043416011731
111.234414039196
-49.4904164158206
-33.5491108946506
-9.75316077288771
43.4668444499066
-40.6552191614492
176.209598089877
-40.3840332774763
72.8596042028526
59.75356239796
26.2443046444632
-35.3691568836478
-28.9381413848747
-2.86927939974591
-11.6136754920928
53.2037118035744
-5.96149742305552
-8.64411349547461
54.6260197113079
69.8280463302905
29.3041628349288
7.27966104664797E-02
-0.94728016910002
70.4538035387421
-29.2588682551345
-1.94887217027332
33.4975280372061
18.6353651741258
38.1596673668536
32.2815215324195
53.3661320644173
6.83927849447969
77.0528989532884
-45.6498723177204
-33.3421846780393
-6.7974362874171
-39.1720858995861
29.7755187409922
-25.958389209751
-2.57339214163293
-38.2603194508965
-21.7122007079238
60.020801901414
49.2964889396963
4.2350502384828
58.207438053613
35.8830172017461
-1.74891550727362
-42.3495945797223
97.2596680990497
20.4246670216313
-7.02454834481352
141.678371178119
103.419221956037
25.935730683142
11.1236377204403
-115.293447740416
-7.6003391839171
48.8137358100535
46.387552956724
121.414397137301
57.6418438335006
89.4041588678547
-3.03461467517661
-83.3469492296171
7.8767701693081
-13.5013261807361
24.4117971097822
58.4874556410377
60.3995354478081
94.2222676707989
69.5112620896253
51.4900122337409
-28.2668506168421
-19.0543540756285
28.9458253588552
-5.81931430791092
-62.3763571209663
-9.389695985224
119.669058402206
64.9497743350733
12.4112301081407
98.5701667116637
100.36906858045
23.1964574861727
45.7861458917104
89.7559680405538
148.625169452644
54.6886658640693
45.2824198982886
27.6763558961845
59.7151960837272
21.6781214684473
11.3679365054684
56.2631543776003
71.7934223904702
-62.6320156015075
215.734988856287
51.4272752550133
45.9126471138144
151.010080507332
57.8019418817061
84.3365642610026
74.5282789040524
23.1236384160354
76.7236818408762
50.5770705398966
90.9170815065707
5.79809818713119
119.996151254746
34.635312864076
-7.51124971163883
-18.1111203134654
47.2486823593741
20.2606075499658
90.9845969378221
85.8568246219244
-37.5333691115405
16.6537679647086
109.964361512789
-30.5403955004951
12.6764690829855
15.0813238854428
10.2795183685914
39.4764876292869
114.555623397072
63.9328314214955
-54.5805236773208
-7.36333782358597
-77.9998493172898
65.9229794405386
107.195603111584
15.4256854133194
-5.10522058072802
100.589840712541
-44.3026590044395
90.4646372912367
38.6818799807599
-21.043982374679
5.31447640949954
-11.8077415779315
-16.6813732221445
31.200315645717
-32.6298768149625
-50.8684614442514
-2.6551099247813
73.4342437118154
31.0501370370148
-48.4108160596736
16.0583361353245
5.18974659090862
31.8463341007984
15.7188805948853
18.2077607921164
-41.9974790289152
16.6533584508124
-13.5225729407628
76.1708694779725
-2.98138339292695
47.4719175487636
-45.3834366485623
-31.7215246236453
72.861183320643
48.3748107149066
79.9827398243545
22.2835915668699
-58.9311159713859
8.48635634825949
18.0420591816605
91.4508490783561
4.25786866369159
-33.2892754858077
-40.7916757131951
62.3594212875249
-61.7348988780544
-81.1798825362132
42.7283078864947
0.77091706472974
-16.0975108683258
41.7799455895828
79.0703460828815
10.3125950104527
-15.4116054633207
63.8447604383823
46.9698107428823
-35.234144842964
63.0260152859474
33.5061923897784
-47.4917924629644
30.4301209787916
3.26649936176429
-39.1879565344504
34.8413595035295
39.8529901026067
-26.5711878865241
19.9043367317309
40.9465962855943
3.17902000086479
-20.4519525732419
-34.6566437739772
121.028848013229
-79.5284794292078
45.4891887420993
-48.105433267755
-9.48881268812813
21.1044058990267
12.5943284974025
37.455802093537
53.3366462548455
-9.79550800937127
77.227902133595
18.1932212274618
-31.8749737244315
-36.8515042096368
-61.8532950494081
54.2362529927453
20.060947065636
16.7836101482504
-15.8506977961067
-29.5458462699013
-2.26251406826611
30.8456296474788
35.2528997383286
-68.6002727014435
79.54359065964
-9.00551592258911
-36.7951901782307
-64.5405541680205
-10.4372119555889
49.4733772064952
43.9603622594832
65.0933862935368
64.3457671589896
-15.8751369309004
-26.1505403194401
51.7832864883611
46.3300285621704
23.8648010291847
-45.4901033127996
-27.5674863922751
41.6060939569597
64.7234569421834
25.7871796030091
39.9778570200775
-18.8283484984923
-3.78802916484152
-11.8122235650742
-23.6202352374364
28.7724958894378
-84.4380993335028
-12.8744653266846
-8.0449468642743
-4.09764660772533
-73.1842085430108
-12.8804652949737
-100.29594082747
23.5223454955801
47.3174687653988
25.7856196643652
-41.6371376719474
-73.9346694295854
-76.6377723066892
11.9136518245687
91.3804051218159
-23.689675785575
-23.3809148539789
47.1378218789902
-80.1197736867573
-30.2521366479672
23.930004511654
-3.81169619297336
-26.0829924031995
64.608455064756
-13.2757695070549
-17.540860910482
68.4792247616598
38.2931503109928
9.05986790447533
-71.3605690811554
28.220982074945
0.527748512602111
53.2193234861057
-63.5672292562035
-51.6716015130622
-21.8396103573928
1.84047211892732
51.9332779770571
21.7389947042697
91.6359307019666
-103.738861991856
-16.4643215214855
-40.8239564506149
0.850021250993166
53.6309758090159
-14.6283592940751
-38.2258273785337
3.45070142492884
-22.9581564400383
3.82480828240805
-13.1026870652079
52.6560998640146
-20.1145668087526
-18.3769867010538
-61.774402613344
57.9329648868366
-62.9947341840338
130.477708342562
-22.6460613227346
15.4727611098884
1.50904057017466
-51.7221694733037
-63.0382850939769
69.7695072767057
-52.6930992572975
-74.091789284972
72.9404108208427
53.1067167114998
0.901342704832057
112.211021789818
-17.2360073410789
-2.04044439757568
-36.8046858649016
-2.53709558614431
-52.3245517814249
-1.46726380302045
35.3264471914593
-6.77992296901377
45.2621533743057
50.7046739250835
54.7974540242317
34.0090888374826
-42.7374298971305
-70.9059160112418
1.81534886924046
-49.028183119554
-12.1526966612169
-10.8335347838078
-34.2644987065236
-39.3300857890025
-94.3913808181161
65.2148313033675
187.870428359365
-15.1439169596314
-36.3856994572614
11.721507704839
111.807788760183
-102.732575905718
-35.2259491995328
102.676043554938
39.7272129810613
26.8295465930542
113.869666405701
20.8279956652383
-78.8485840086689
41.2191839865832
-74.4461925936486
-37.7672559932514
10.1534641791315
18.057836210605
19.4664018274817
-50.1564539013245
-4.73090718698431
-26.9007973136441
29.352644669563
-19.6863483091264
52.2306901653747
22.6291943875184
-117.808007139497
-49.4014085114081
114.147824300126
-16.5811257704472
1.86367421266565
13.3906173905342
-70.5918631724431
-124.542139688265
85.2809893157193
39.8748449062509
42.3619877689583
-123.651394730672
53.7240276908308
21.7697204024669
-13.2156410705663
-20.8396257943472
-47.7115735065692
-23.3967215019509
-79.321586333083
18.2258571340582
61.4463946157717
0.180990231853964
3.69643490557902
-28.6869616967348
-5.81453908552217
-92.2789354142026
0.306008147149132
-52.1796990438763
-58.9496831360152
39.6686819233787
10.3219066196854
-10.8763170382927
43.163525948163
14.7519316222545
18.0575216319924
15.451779556069
-46.0579418492575
5.40908275030043
18.123521030229
-2.32399040950997
-33.7416569599254
52.7994034240892
9.81604262856701
-123.31820386474
113.716829659496
14.7077901167848
32.0918606400044
19.5296449696868
11.030121464967
-60.7326437500782
43.8237796807775
-74.0757859987073
41.1822882043876
-9.44659110707273
-22.1340669184703
-19.915839678713
-18.8387373299389
-20.7526470689051
-31.0642784141146
-25.554118571884
-51.4729623901209
36.7296432882966
4.43678840315113
-38.2597659659603
-55.5420969105994
27.6372174212049
-8.39425578444598
-34.14711413682
51.1830455072941
-24.3872907509847
-45.7357348864408
18.5161703700738
-25.1333719222139
-8.31971892109046
47.9977582251287
15.7831368034704
-62.4442595043397
10.4060370471403
20.761929222627
-1.09703374581262
36.2426876579471
73.7397794410958
40.739453677095
58.150976447226
34.9206529442144
43.689220514674
1.23027735699242
-17.1338451066928
38.7310103240333
-35.2521624991378
0.961243054148739
-18.5854684025395
28.4104260729615
-9.71685287568439
-44.5566988521855
-5.47241922205209
78.7464055480863
1.39349025643962
-48.1120425843756
-1.03849827991939
36.6410054226758
7.5582800562521
-50.2815291159522
60.1853794998915
68.1642146669844
5.73920845079522
-51.1241026428646
57.8340943398029
9.15084924465214
54.4380380592386
-22.5747579619907
-39.5447115251619
26.9577876853088
56.0803763965351
-39.0872076816748
85.1387850355568
-26.5479991002351
24.4742324565897
-30.4878809263623
-1.55844669990669
45.6440823825732
63.9871690424723
-37.2767295929631
40.1116610345423
29.6168032029463
19.4965012435851
-28.2425842550253
31.9706026015179
-14.976255304757
-103.406717322641
44.7474038276644
62.4349791656866
49.4491593206911
26.9626982802111
1.07373402227455
-8.45430398732643
54.8269642976795
-0.679012985059357
-18.6151022596205
-17.4742948469002
-46.5859110583712
13.2622143632825
-123.678729990266
79.8057567549206
50.5014642239649
65.8569271557841
-51.9774662661233
85.1416952689546
2.62446095718308
-0.150861403602088
-57.7899843056273
-12.6034118377962
-86.4960745659486
-56.6818516648714
-38.5125957831976
68.2762427104515
18.3087085611316
21.2072510667724
-106.504059203286
50.2876814897345
-124.918799700908
44.1727904017092
20.6935522092282
13.9366931441191
-22.1916352436633
-24.726221359619
-96.1987757722249
-108.807197635765
-17.3473729315038
51.1049045054652
-38.6254306780897
90.5278158126079
91.2792370390261
-103.926116344122
51.0136173871419
-91.6224176165957
-28.470225608077
53.1378366349802
-58.5802531810424
36.1856566468873
1.39505443767353
-43.0571755466485
34.3450246260825
32.7623017861997
43.8349425413113
-21.0443433044286
-39.5436565909732
49.5325550944819
-53.0225814466658
-1.1622563862753
-3.74564293116217
46.85307371076
-56.8952300155225
-65.0129485335372
-45.0544374124658
-66.0509583313725
-108.39912789663
-7.13395298731265
-33.4352253181999
92.6596280184656
12.190240869723
33.4411639482491
43.1848080495404
62.583316873942
71.3469450114201
-8.21769532182384
38.7303503258094
32.8829055753922
37.1894406740724
-1.89018309441716
27.7337960725368
-3.55599176513624
-137.494040594368
-29.1693391204535
-13.1677273796974
28.7806599879804
23.2743994827555
6.87557727209988
-27.0928964393049
-44.9530908013217
-13.3495368412365
-109.565327820582
-56.9903548092078
20.2442664282532
11.8983122633883
51.490115317624
52.1007403224977
-17.288574416969
41.1291019777793
-82.6384519293826
12.6549570643225
-8.7550453808643
25.4945137140746
-49.1876898496741
0.345299736733314
-13.2726157652043
104.654756532127
9.11273621789123
7.82932111038178
43.4326556630574
-27.5965060151914
0.820554580319994
-14.3967099252341
26.2379614903975
-47.214220194329
-48.5821898984962
65.4775492401956
-36.2043334980953
45.3893073424718
-29.6612756585677
-15.5467801080449
-25.1905965003411
15.2241544317205
-20.6663796001068
88.6481209263102
10.4143457550112
-40.7683082431696
59.0402286833891
-73.0720062008758
78.2832420517862
63.479412447441
64.075640130908
34.5481680533303
10.4670371888262
-35.9947630377725
-6.58034378744031
-16.5997714484898
4.1317108766109
-5.9278733695089
-62.6665194371022
-25.6114818054129
0.771414386954437
-15.7180827394077
35.5463980409631
-17.4679484689692
-78.8379066879123
3.07581892563827
-11.0524720222207
-39.9011212148888
23.2694758672144
74.1183226362587
-2.46023570089331
-21.0680463250746
17.5406462166412
-34.0789034880969
64.4486233735104
-88.3817342451641
85.9893580200355
21.8139188446433
-10.6699958072914
9.78628867865445
14.7318663237737
-14.9891313693798
46.0877948542168
-10.4092913871184
31.6422089375255
8.05166020114799
63.3947067426475
-7.64201794333742
16.0737588988266
36.3204414237886
25.607943980335
20.4213745263913
-78.8627165537336
46.657290867648
37.7850183515881
-6.12994453801441
-17.6651703576903
-39.2186543217922
-9.36554327176558
25.2731118818721
-94.0764923621468
12.8386466413578
31.8811464520501
69.4164963858853
-78.2765001435317
-22.6272908229365
71.6867124290992
8.20855866834009
11.190673517589
-3.60869518656607
-18.05840241099
54.1681056189039
4.44564890854429
-46.530989563526
21.9374063717114
12.8078726921779
-53.9115003230899
-19.0181004123807
16.6355870853893
-27.7341377774562
4.03098245955203
75.6180336702961
-59.0283278857502
23.2171233566306
-8.25325955057135
34.2454356860189
16.373097348747
-76.5805971481709
-62.2260609975559
75.5478650259358
66.9229372517916
5.20749479977614
-44.4954449611755
-101.442094800857
-28.1279723346503
39.8531811078294
-17.2401749184385
19.8267493514185
-60.0125287987024
-13.0496855601173
-43.6176542988383
-81.0294058864656
13.0268843264644
8.36790239508754
42.5718978560506
92.2246258646298
-29.5554161649522
-13.161986821057
34.9542500557724
22.417328143694
-102.23153578702
-26.0902134796595
-33.5999234516734
-31.0497902884945
63.9344187627937
-58.6938865757221
3.40450873866687
-58.5689406650383
7.22899843979018
-38.334728814194
74.8970154603984
64.062391216094
-46.6297004297746
-15.9837302502569
-12.0440917547773
0.011062463583721
-17.0678060783083
-21.3963070867896
40.0322103630959
-40.2401756141803
20.2675795437652
-5.07450005256962
71.0234842401479
2.94711581332211
22.3926336041794
15.5555659111453
-35.6401353081694
-24.5824811220579
17.4359544465185
-27.7283555303832
-2.04827862551069
-34.0880356717555
-80.9860226272556
-15.0809979265829
26.121208597402
16.2442647476457
-62.0128171092218
4.8301473512141
43.0184211283401
-23.0416002680178
25.0004440033222
-35.5881314425262
-20.5730310025125
146.719708007747
-86.6048308052147
67.6822387883313
69.273453600578
-38.5577002664803
18.8809938995146
54.6722639366837
46.1507133027164
76.1749186269694
30.0503686415201
-52.2404130494331
39.8056057927908
-8.20667262338301E-02
7.2706872814523
79.0348698595359
-68.3112582139678
75.2852754656886
-0.84453319694273
0.67550835754168
69.7757117892558
37.29687863614
39.2386612480021
20.0557864060002
28.9872613070758
-10.2704988162091
-96.7057360768197
52.5978152844443
72.7992753219142
-7.69312613926485
59.8971877279253
95.1834006366008
72.562516733061
39.2936478279491
11.03076513417
86.2233553158934
83.5668015394621
36.0919169989169
72.1312550804876
85.6378936689853
72.4045994033622
102.103908740918
70.3003731402852
17.3193649218463
39.4950090242404
9.69997172922034
143.293133161328
69.706931622
77.8006408771315
106.697040708484
165.380187327041
145.321667094351
62.7271652119857
144.229577954639
119.711373977604
57.7101547306754
121.158071362974
43.5022500912352
106.090315612779
124.344821002993
155.665705456657
2.67171203732841
63.128694994711
67.2500135688905
74.7736654067943
89.1333577673998
69.703203059278
13.7843076109984
41.0453872493689
56.6082279911911
113.308218741408
165.511546914904
-20.3609162420794
55.0350873635061
97.6828770927489
83.835790617897
79.7001303955873
112.773180562779
121.392481933299
108.458672557554
115.958588732907
100.112280592778
137.461103761176
145.841574957355
42.7617893902447
120.668400176437
107.284716820612
143.31957554049
67.099660960704
169.515889302136
104.002393735925
123.839323098255
163.994041568141
91.8896138736194
60.7868160449221
97.7987625289999
96.2422052575964
124.304567182676
102.954795522144
48.3730929892401
46.1495928172716
46.1044506188035
120.513458891043
43.7383633900076
40.7770611680723
38.4856754231476
54.9684654639275
2.17180116222734
62.7839064134957
139.36866947944
96.846841282018
66.696268642899
23.2495108020191
33.1845540186946
71.5089285078235
56.025169751909
80.6836688509467
99.9919204142049
102.721470321185
53.4336670502654
-9.3315148211451
37.535867275571
63.3370030777099
77.4322569886492
100.813175168886
51.8093854213011
161.673460839741
111.449563968876
87.6471958903307
54.9758593562063
58.4123500710356
90.6626073036989
24.246857858514
88.7806070113189
125.15381306548
82.2648684991815
37.405854368958
3.63934830398155
110.002584265192
111.655163580938
40.3411469076113
89.1218544404759
136.890096303843
100.943615493396
114.952219266091
127.430286134988
146.644892697063
52.1849529525498
85.4038736353948
73.6833323124916
61.0860106558873
65.9639085847158
194.38066436233
166.359716448014
278.632158522007
215.172671728347
172.064416628539
171.727587056916
209.693278857049
108.036152803042
148.215453115771
191.809939659124
129.260475677612
134.077223989469
174.112789841156
202.330413584339
180.05530619912
242.891175242499
170.148939947763
196.268750957024
191.960073904416
104.196297960585
148.96088615834
147.010599772847
202.107076241322
140.225779560404
163.190407757252
163.182533363816
255.536555402664
180.30506452909
148.484081293573
54.2398463702256
-12.1392608790024
-73.0616528791178
-64.3137749587154
-78.1579244372827
10.0144252734019
5.32806569561189
29.2663691139639
-61.7708230019548
-60.3486691947738
32.3120413494314
-5.30296066947569
-9.26009130047896
59.0998775011071
-28.2356264513195
10.2972804052491
62.7331770211477
-20.5379285805046
20.0081923879454
-2.07730169003602
-38.4569760763648
118.984738765504
24.7911076589314
33.8737556918225
18.1783675327064
-16.286260333748
25.8374548728022
5.97063022178654
-3.57024401493409
-22.681408162772
85.995372972828
-35.0148227869331
-40.752911441543
55.7275107639494
-63.778690979165
-118.791666391004
-17.0152892367969
57.1209780193558
33.7697111844168
-12.9552215016505
4.99315805024582
-20.4842372853862
-22.7985246457592
-69.6142497640824
8.29052783102053
18.8506595548151
2.11113390687308
61.0356192504196
32.5906880908407
90.0802876366238
23.8798350031439
-58.2618497161067
137.380311962795
-11.6261150549551
-2.93117970979591
45.1443370449947
18.802358856717
17.8823474111854
-12.343574226586
-42.7347040624253
-2.74041834948809
7.11861223339962
-8.46944433600026
-37.0991203337634
48.1384904900671
3.40519366795156E-02
2.51809775076281
7.2675433074207
35.1115344897883
-9.39335502756245
41.9229915288985
89.7274098251499
19.0632129480877
38.1454919620393
8.51538610989231
16.6046053538828
7.36448935618678
-25.3793709240698
1.72580014706932
27.6246064709496
-52.0708846144909
-121.912907114601
-78.1097749994129
-54.0323143352839
11.2652990990837
-76.2721243894536
-54.195192969945
-47.1714613621171
44.9266608985202
-78.4683658727593
102.862019288894
11.5006567801282
15.847584519063
-3.87205504785405
-16.2658232967368
-12.0636533732735
-48.0003143336433
-5.19460577370305
-57.7752938405662
-54.748978779945
-19.0313780295184
20.0759598184929
-23.4372689685424
62.2838999571757
-10.0366373066595
-10.6371297297821
11.5123587230545
24.5363369009221
8.87368569520843
91.918590160064
82.2644785672171
-47.8563407855715
59.8459089005016
114.484517062748
8.63590521771278
-108.543185918731
-25.0882929591884
-18.0553194071639
-43.2215732494625
-44.5240529421457
-53.1196161543109
44.7019910447908
-1.90144162402
-20.0102062629476
38.7910461539126
45.0174478891933
55.3077750184344
70.2317946196104
-47.0820975797661
40.3003011186258
-21.3974729150807
35.8067972337517
-20.5307671425437
49.6602167875549
-0.246472187570536
55.9106285513149
44.4586026429259
27.6713654724019
6.60457906003937
55.198869975643
37.0154824782565
40.0126524058658
-9.59734083087428
-5.67905519045378
-14.6983226811708
14.0984067681301
28.1630428212545
72.2808927670267
-67.9301616713677
-7.6405688536201
62.6758529973186
-60.8228043214538
14.3008153831396
54.0356340946804
-6.65616849218592
6.5706037736188
-13.0522684286251
-8.1416950410752
-20.5350583237175
-25.1088972430134
15.4963621837752
51.7326802867964
15.2380546788432
35.3229989720255
-57.7761679253197
-8.62048041359116
-18.9249125532804
-30.0994242278618
-74.3994512395999
-47.2417599965849
-15.1512082800137
-66.2941766444961
110.833985045005
-0.92647287070972
38.0918053517236
-2.31553382989718
-5.80289956657025
14.8623485579758
-35.5103663263453
-1.71312567062249
29.2590778438036
-55.6910357128358
-51.4820959029342
26.1363310184915
64.7815633445887
16.3817859518125
86.6025378754255
-44.4312029816807
-17.5003475206156
-7.73217066313815
30.2704061881096
-15.7845633436281
-31.4863289041009
-61.8619702451745
-25.3524072462832
124.052083108316
-26.7848915575148
6.64982881962239
27.492549776637
20.1581900014206
-18.0819196110647
7.1422222316089
-25.4177343504531
1.67198618070678
-2.0736926670027
-69.0371728039483
22.4609305294814
15.8581974057022
24.0948065712643
29.2465982323095
-22.9472821311872
26.0600340530602
35.585420390677
13.2813785048227
58.1728762571811
-53.6718328873146
24.8056929744349
-15.3131493225262
-20.0152536858729
-24.8541305444294
-14.4581575807773
-1.41973645967724
48.4241125269968
3.88185548819152
-30.9717860123004
10.1848467049261
-6.67303994214555
88.6800852283967
-60.0820084850766
26.2350184304266
-14.3281730984675
22.159247017648
-41.4470124932215
23.2661815319573
39.0037399772153
26.5638184287188
7.09384097928397
-11.03362678592
-29.8368157338458
40.8031852948065
53.8862863883549
12.6320045567136
4.92057426931782
48.1557240527178
-62.5760113572017
-20.0694180978242
-10.7656222569403
-28.9793436789412
38.6438774414408
-41.1504131535585
8.60935865276205
-91.0278970556474
8.55612374607128
10.9025763509574
-13.0696942220354
30.0069259383453
40.8675495421895
16.8710611296921
-69.8137935262361
73.7808475207877
-94.1953213783692
-82.4160811939986
7.17993241766208
15.2957169846845
-31.7193821579464
-60.5251899418612
-16.8606114430141
24.9349253834713
1.87853010405471
13.9124869305396
-14.8925723752551
26.9436712664465
-61.6562297489719
37.0689350639477
16.5899420976601
84.9160942377651
-42.6134461868749
-31.6241562258469
79.6841608546545
16.5822548330851
-36.4024545523865
-3.57871622184573
10.2925598763449
-85.8154436582117
-66.8301243389767
-14.5447317904749
56.0516159466806
22.995335568192
18.402806688034
32.0054585030787
51.2693064931985
8.05526568314643
-20.865355784505
62.952377813499
-8.52968819735991
-2.99437648978731
-62.1844883533705
-45.722709681528
-8.40622685290371
7.94655520974629
-13.1158648459658
31.0752992664351
-10.5251750083745
25.078194979942
-13.5428695379249
-119.678798232923
-6.03178543364784
35.4718358832367
64.574050364712
54.2863488772978
61.9399530471251
-4.32572630690264
-78.1329846736121
25.9309407267132
22.3612776177785
-23.5299570255367
-11.9601916017926
-5.46182610785706
-53.111867171622
40.5135074011016
105.448075555295
23.8141108155745
-45.9011233495101
53.6955203286593
110.869665951517
53.1503005469823
-10.0068199944586
18.0279137990337
-45.2579448020622
1.73498009774604
34.425803898712
-25.9869142934795
21.2225047785262
-0.296958039116967
-82.1395829893515
68.9157133245076
20.8957747967161
101.03498933596
-93.319344133449
41.5689326112072
-48.1858945441517
-40.0492595874248
-60.7117170586325
29.3282525396422
6.30465320712447
-10.4045623100918
23.8516431741222
-94.9668767385746
-84.879274679444
2.38125695457215
70.8414952834266
64.8482133029375
85.0448091386059
25.9317955180244
90.4058776421289
-87.3656788773154
-50.0261581442648
-119.326292112007
7.19084557100952
-23.9576862428817
-18.1698777085971
5.23408070556204
-70.0903061037439
-9.16749100256742
21.8448449906559
69.4313636802838
-47.2002922586546
-79.5032838994213
-62.6444545252846
0.792776237593871
22.0825995348749
-0.899620265802483
90.7435441605664
-2.80832159798353
38.1623234605763
78.3683242746824
-51.986997250894
-4.62528408390212
-5.94755928907913
13.4090966973809
39.7793019814631
-20.6595862858168
-1.07603091909032
9.11018289684508
35.5912052134776
-77.2615768909477
26.7043226722487
53.1391395470002
19.0586138317708
79.1817870018107
45.3380515280968
-5.34580476641582
15.1957196453404
-18.8966847905972
-9.35908877492752
26.7619272788424
-52.2820119647533
41.5416103284037
-0.359752279762855
-25.5406682482052
-16.249396257389
-24.9877361281418
-63.6033353905672
15.7629347169097
-33.9840751797763
-25.0946126998014
-10.9552798551461
-69.5414314942988
20.567940111605
-58.3480473323615
22.6735693867491
11.401986654455
-6.96715440391197
6.21827580233276
63.6925288111356
2.56272677291711
-69.9033856023296
-27.1795304225362
-10.0090149646408
59.531451659962
48.652780744975
-13.9010648299042
70.007297906911
-76.9955579284847
-20.9133682259143
-14.6433958161449
-50.7328459749229
-0.181966574483135
-3.37433557587703
-40.1558542902921
5.03820784396233
-36.5695516022897
19.0303334521498
-72.529695912312
-3.02504262638695
17.8388512289626
75.6340479464687
-49.7737973432897
-17.0045852271347
-26.224616284225
-34.6331802728784
-114.461266264851
23.639499179239
36.1475261273729
13.4130755838245
-20.7899940623472
-11.6920539796566
-18.9246633123335
-47.4390707855214
36.0573935011196
-18.9298970716212
-2.46902610499802
-12.4024766945389
-116.158180535609
-7.84081848825798
-17.4956915665409
20.7930613171891
-67.9392565536548
-27.6557178096077
32.3026007204849
-54.4052325229401
-7.81336235842106
-5.92002528899414
-24.958180003949
-10.8787702652465
10.4518198642822
-0.813724116384184
81.6026179073334
27.4074781897116
23.8161335524267
-35.1955111672297
-32.1951518865777
-41.8983916814548
21.3052307061983
-16.4922704232222
-13.6988474865799
-29.5451195066433
25.9741058894147
-90.2811398831521
30.2023100645012
2.47897194996947
-19.6669387060607
15.5030900042905
55.7249002682275
57.5664206670725
5.17142011869414
72.3577270449689
11.6952851633051
-43.3167195775182
7.82807842614753
39.3172917431212
32.0529755884024
-39.0533714074932
-48.4126330778876
-22.4712827538996
-71.4288140793122
-26.5062042689959
-22.9762653901783
-43.0716779482065
-64.1473045193894
-48.4649381953313
13.7793986393121
0.769988956241637
45.265079257762
-31.1429608544262
50.9353798591365
-38.4877544185209
75.8509920854358
30.8101006108069
-122.67178961742
-6.52912756918362
111.386354765994
-7.53009765167413
-68.127816035005
-100.316759817686
2.6621460168023
-26.2895284800658
-36.8299110505978
54.6107105764713
-35.7660398858749
73.3642687562865
-73.0658220766349
31.6262695534324
88.3175608191897
16.9732857391976
-2.00647661673802
-7.30401600040653
27.7083827286002
-31.1455563427114
13.4338961563252
-27.2350891002954
-19.4317397728501
31.3124523720719
38.7019900835695
18.6007637378898
-105.84639627947
26.8337519134192
89.3070519867787
-21.768029449687
-34.9441510117462
27.4862850952705
16.569891017365
1.6406178226182
-66.7127893430421
19.5316008105991
9.2017328157316
-6.46456514560613
56.0725803566951
-55.0718882172289
16.8435916903885
-101.664993241066
32.5018853873615
-86.5326389487119
16.5605135611031
13.437345143654
-19.2436962117934
5.73874476262987
-90.3354883842254
-17.0617273689903
4.94645209445645
4.96237484412103
66.1350046632489
-24.8118341726376
-17.3090649188691
-106.535371614727
-30.1837866115189
-31.5557105531862
-16.0802872021738
-24.8035609957355
-114.502762650574
-26.6157714819629
-44.4918092172704
51.7104709752968
-86.5775429618587
-5.10514429536102
-58.7647442579475
5.42006921502954
20.2373670106359
66.3408475705587
-100.288732902027
-71.2397631180056
10.8481651370368
10.9469062678474
-23.6595632911468
22.0588937128599
-18.8378688825796
48.4986531923457
26.0661961438121
-79.9947348212101
-31.8197529683513
-84.221380918301
48.5977619634446
24.5714879683849
-49.5664618733332
46.5057384069983
-21.468466102762
57.1034049741788
84.2902461277345
60.5395056930493
-116.238164152873
57.5469901189485
8.2122113653481
12.7432021922624
-89.6778602127605
-30.0820498789504
-42.3942419260612
-0.325455260233366
40.3101229213601
-27.3461753956402
77.9948613686068
43.6866578149622
96.8277008242362
-0.589781302916974
-9.6574351449613
-26.9225455904394
58.9106817688446
68.1758462406933
-74.0396684932662
30.6212858841593
51.7317403184092
7.78461123793692
-51.425540279166
-10.3468209815612
37.9351147298514
-33.0027346144712
84.2636766227792
4.35301240859517
23.8017935792983
-34.190035024447
-58.3573124211828
-33.1553500077279
-36.6001084061237
12.3726352394846
-75.3072835971191
-2.46661301424999
-8.70353677941462
2.21603260760418
-1.11802161376583
-74.14607112684
-58.1056894370608
26.9932869471473
47.7765331867075
-42.1092496265866
47.110047800342
60.7389260422119
-47.1848827996879
19.7627862806109
-28.4717619051392
-68.6635145919114
-1.5896572344347
-22.3647481903151
43.7504582554156
16.3643360400901
-4.05700709280968
17.1328053999465
-34.1921412120307
-10.3413318313028
-36.0637745987668
-12.8196995273471
-15.8788809490796
-35.0576295982432
-35.6178976068681
-36.7099175852986
-10.0273395131155
71.6190901554987
12.2441350723668
-39.0519560530533
75.7025578547301
-39.5271724454892
-21.7735523793138
35.0246197998431
4.35180424472349
-20.4548132255768
-21.5173371973959
53.0514285934377
2.25438494767288
48.3847458119147
-8.4642306494934
34.7594510501661
-88.3768630804961
76.1760120983019
-38.2060028347819
-67.5295638410845
65.9833708563952
-65.5409565661806
-64.8228939231059
-79.2303648734301
-23.6169853241157
10.2450397132356
24.0125500158042
-79.9149308890378
33.8683169245286
-61.7119154389559
29.9915830760555
-38.3738714329057
11.5301448096462
67.3587001736734
68.8616681681763
5.76266711205461
52.1674382633947
-58.9989982103694
32.0934279116766
-73.6253252159372
22.8016748529306
23.4619489232808
32.5179226292821
-14.80788492757
-56.3710654376999
42.478598252881
39.1031403023141
36.9547525266267
-22.7053082643979
-39.3227953077867
-0.592592948653229
13.8325504885401
8.10048382913906
56.4566577502518
-68.7082270778318
17.0386717123115
2.98136602738473
2.25798732193139
99.0534900057634
-7.80086819506522
49.0883364803581
-44.4785079036599
-78.2817107704505
103.575898677925
85.8309306812927
-4.73640989106111
1.16050723234327
-34.246567794496
89.3617281188525
26.0465587496852
57.9869311551736
29.3726845602175
2.69670735544509
107.446090526902
42.0028087797405
16.7110641223727
80.2433057805893
28.1639625557555
71.7965727377035
40.0820698619175
26.1713557322841
44.7060633435339
-33.9463607348872
-27.8159000568302
-60.1687156040637
43.96969882419
-63.9410124625343
87.4643601123131
48.5985949116329
85.5582862621414
-24.1267048986984
-10.1191413771736
56.2040042947496
-43.0335805615427
-9.33199373592341
62.5431300001095
48.1945580939405
15.1337979114229
-14.6389844430826
25.1706545279205
-49.7573573392677
26.3325969447957
58.0865073668293
6.00685107213369
21.4570036816417
75.8096162487972
85.5400545094938
38.3860685879497
12.7727307111256
-67.8281092234764
52.9831823206297
65.4912039016065
7.8255879640864
34.1024561958278
19.5903929366631
71.7803284461108
65.7702185641863
69.5015452256278
46.7560573657241
81.5821800473376
67.2613817909651
45.9477684682083
59.328544267463
75.542388073022
23.8627673257942
69.2436497915199
77.284694854106
53.6050157029982
77.6388707598931
-25.7895721106617
44.0588977841236
5.49725286136689
133.581986554914
87.8880920571884
46.1580474466959
5.80906968360419
43.3886023781148
21.318409844844
96.2660657360666
75.1641617742806
39.3673027990099
9.6810297309529
77.8099080154006
74.7036967026975
20.473715490206
7.55576115619109
37.762676642517
142.370186030488
98.3471895725012
156.417706984234
85.7189093815053
81.4052165117965
97.8885234988433
128.156220740558
84.0120771132461
182.681829056462
155.488428344438
47.1234496938055
122.535035477157
116.560033664751
198.572393169288
142.043795793048
168.050381052149
79.762195278063
183.049132437742
178.431659248369
118.519590310933
114.434015361029
31.1570890638829
48.5916335568124
117.457343345813
121.006329899534
122.016217817429
32.232641187506
208.450564723119
108.023172647838
163.7307980628
-47.4644897000761
53.090478314461
2.67228105405369
-62.9269584069644
-22.9079059357987
-43.9296109817938
-20.0342507332433
-33.272957241387
-16.8967232494123
89.7219113206319
31.3704700321493
59.7878839965625
35.5830811924271
-9.20200988752558
16.1807807753297
21.1916854608777
-21.933435517468
49.8623865007862
-53.94103424423
4.49901521912696
40.9603197140644
-70.2878851449639
72.9432177444463
-30.0337959521543
23.7061190317957
30.841908228593
-63.5627811772957
-11.3829915473601
18.3506206195014
-118.442105787148
-5.54933804523086
-9.329510927708
-38.9729583925088
-103.938554393724
-8.6441659422057
42.290043691803
43.3582869075845
52.7535656266398
1.3618310202049
-7.70668731369368
-31.0146860063342
-71.744823455958
2.7849872597259
-24.1971364299157
45.9093254146272
37.2993422892348
1.51180963951345
-85.5762874123906
-17.7880991588882
5.32770753196773
-33.3909815030571
-6.69488346679941
-4.61671974003288
22.7153492741524
-144.365849259323
-5.71853036466839
90.8457611445607
-21.0442708107072
-12.3601648305237
-32.4102113721866
-23.9134843770735
-62.8593872319418
-2.07506001435958
-8.29009932661828
71.0921310664257
25.6485619624065
-11.7533547213507
71.6473914366141
10.5858045049524
8.69002384175122
-36.851123681572
-29.3408493275133
-20.0126504006101
52.3270390608332
-52.1353518483399
-11.9133308176759
-12.073995227191
-36.3287464395022
8.29245182137192
11.4931994798624
18.6566066764056
-24.2148152144608
-18.0497688948746
-112.182539693832
-60.2193086053124
51.7885650994477
67.9943083412592
-25.3212100235327
16.575919010651
21.124148733134
-42.8847411266833
20.0564795440697
-31.6504512950513
12.2254665825103
3.84785756441302
48.7794694558906
-71.2853520880728
29.1128199047659
-9.48196307939989
20.061678517359
-8.11862367361355
-40.4368288819429
20.2362335366992
-1.25704877960569
-42.5000756179518
65.994620030134
-36.0264771556327
69.3859103356622
72.2264949296888
-48.9831842314948
44.8846568774454
-59.0049964455017
-9.93072278083352
36.2848831015206
-7.86963408676964
-11.174412529091
-92.8325759275824
26.3163816028771
-60.3397094556554
-46.8019285321005
50.1027990929473
-38.5716960989907
11.1873515079135
12.8650627047325
1.78163426190505
43.5642767971443
1.65466884022363
-36.9621879268573
-20.8088069103064
6.85089888768138
-23.853174282982
60.4423956140055
-37.8847899412671
-10.0734609105421
-22.3912281385492
19.9257866096787
45.6610157108473
-17.5940655645865
-27.1123104733334
75.1472432536734
-44.7687483158417
58.7995970785096
-8.97418096592052
6.29147452163021
-3.3165651650348
24.1182649070362
25.7255290589458
-69.6534419850291
-59.9181603844601
-52.0204352956163
-44.7181166680951
42.6018331977481
-23.4421374205811
61.6965606360065
-35.3675429380616
4.23880955685724
-45.3426038271067
84.8659968275696
7.90937027540282
62.1115962865372
32.046750076468
-83.7321588467092
66.7742671593953
-16.1775818954607
93.3522571793904
-69.2829208330232
-41.5465370686742
25.572527048068
-12.6970865365495
76.9538024198578
-42.3125618438718
25.4291144911076
24.1503256912754
49.6381954044926
79.9866156226935
-93.6851856884649
15.775678185588
-47.7466307892674
-82.7363808138643
-6.18206674062703
-16.120444128127
6.63083080857056
9.11114204538282
39.8588231321698
41.7072083611686
106.420931547236
-78.0658828832891
-68.9494784839109
30.1091907736177
54.8537586805423
-19.8749763917805
-13.9395998651764
41.1753213964023
-33.6252770389372
-30.2079799627208
-1.78651188858238
-23.4915045449865
68.4934703898914
-29.9890329573768
42.2779480648414
-58.3758730959178
-12.845213922404
-77.625518123478
-31.461507018509
-45.829115980891
-110.674211367914
35.4538313524383
39.0944424786594
40.3688269098438
-36.505017113223
-79.3272105125674
73.3157647246621
26.2522179959638
12.8956426515537
7.0164725196236
-10.9473747160851
8.98597821039637
36.9985067391933
-56.0372329667447
-9.47823243645412
40.9971269328868
-27.5330764929746
-39.6709014580238
103.586579780508
-11.7744239912442
-36.8686622422088
73.1731016808287
-62.2932886840125
23.7521798507144
-55.0805882789971
65.6722085225558
-65.1421490040888
-0.393723841519508
35.7731092585161
59.7341618759492
42.4126071334335
0.389731874144903
-19.9053138053105
-22.3417995273812
-35.9706412805301
-23.8199357957699
-96.110178287401
-40.3250883448638
9.21757751053825
57.1912679833168
-37.281985999949
-90.1582857258905
-3.36471930480461
-76.9222607686826
35.0178772249834
-3.9395428704463
1.82712346042299
8.56408371233587
64.8481368239885
-9.086203556503
45.5301234693063
-40.2285017612238
-74.4261314287285
73.0878428354788
56.3580366971077
6.19012884903837
-24.9680677832293
70.3599591537621
37.1251685053335
-24.7840208215314
-48.7704136815493
-46.0173421959301
-5.71431178756871
134.030824016012
-55.8341208209591
-34.7127731884418
55.4455144399602
19.3540836439204
58.4167031336876
23.9640189229382
-23.3496278759423
46.736710308914
-13.308690647952
-2.74977975195165
-22.8341024489065
50.5988930856563
-15.3494392529621
-24.8294567594464
11.2434116377996
6.1357296848219
-32.1246272934747
-62.4686151764568
-5.09147474306204
19.0280268673233
-25.0124414763688
-5.93515112200836
26.6187542489626
-2.90101554926614
-35.4453184115584
-39.044574723365
-19.7889158814198
14.1517611001639
53.0555466234537
-18.0408148892685
9.90070872425997
28.7077952950696
68.8435902268127
-69.5569758062699
40.6981599122617
40.2412311394467
-30.2782802330634
-14.0702278020157
4.48359512435512
28.2708918903926
-6.56595459580636
34.1339396693669
10.1142615844647
-28.6719439052348
75.0874287535812
0.512408131969621
-83.1560620940233
-109.134458662661
11.7389900173365
34.534532522237
92.0016419469319
-17.3882969533893
-120.875603865015
-33.3030498332256
-3.68902695111026
8.7014843693038
-10.7437571299996
18.2698203080592
33.9311415010084
-29.8640644855656
5.89176069786677
39.8632174046019
-18.233883454983
-14.2685234010442
-14.3451747374529
-14.8548524256143
44.8192252727209
-91.2793474693196
0.398422475188616
59.4259154351923
-31.6328592261082
5.55726357100777
9.21068913382854
21.8475053651857
87.4894532580836
8.26046274493748
2.30013313389252
-53.9188358679027
-3.48227402571244
30.3048263848023
7.84378114930485
60.2416363756817
-15.7384391188347
33.6263114145172
-37.7542122689197
2.17216993549998
50.4281156913426
77.2677318423147
10.6334201946517
-89.6590376490888
65.976359109133
-3.9684946666808
-54.6876346101664
10.3166799193718
-68.262425177428
-39.257595506853
-22.1860718084314
12.6584206770874
-10.0103334781903
-2.15156377661592
8.59298884328774
-32.4362652174968
-27.7056633057593
0.104145105283979
67.8774639658368
49.2673019326713
-13.7065432143984
60.9873588559773
-34.3724716648498
-78.0276469697991
33.3137620934315
26.2977384681457
-16.4639768356435
-19.9728432614778
4.04745447301932
22.0735296364219
-43.509774774937
47.6296680813265
-32.739592202046
16.5414653989213
-23.0804496492393
115.054833270086
-13.5706536223446
-22.2159442588712
17.473790814716
41.2511606760257
1.92470111153854
-36.3316438428182
-11.9878780729781
36.1457723195286
4.83684461672258
-36.6692436890193
-43.5655971839492
-30.369489481361
-11.2100744520852
-14.3464900283979
-29.046856654793
45.4755687944542
64.5997836597249
-36.7996074695699
17.9870989079314
-85.6683384114744
59.9102315701816
20.5013027647504
-51.0444711486905
0.53694978134158
24.9854551970226
-21.6114322816637
162.865975454685
-33.3592917964267
-20.3546364985137
-55.7086736291782
-49.7822021605827
-19.6078120620501
-11.5945900651908
-15.0113518700398
18.8886832351463
1.92012470822048
53.7228051084633
-57.6931428467407
-34.1679311957649
13.9460674019595
-32.1431229016726
-19.8779785471715
19.0896257876137
18.6329737191698
-85.7769409407181
-66.7052613004429
50.3148562165665
-41.9305400031089
-0.242931370929483
-63.1789874941142
67.2113859723317
54.9296283939241
-19.7912472092179
64.5304330837789
59.5126945250117
-47.9714033216358
-63.0464856144007
-4.89918488201227
11.8687482714103
-35.1853909246633
-61.1567318669702
46.9871292837593
-25.7405422514105
-64.6998893774329
-8.68132476610062
65.5817183276711
-19.1751661161496
-31.4638924538068
68.4696261197325
-16.9672918946446
-0.212586419696516
-77.0230607958907
9.96200893783357
14.1480131586994
15.9437815907788
47.9657734549133
-25.7547104893083
-30.2966033042315
66.5188887458238
51.0951423536861
-4.7823015787418
-126.245135738121
-0.490584489603284
-102.638653074462
5.36215047428916E-02
-2.77205633119404
7.49055436058148
16.8367385069687
15.6912555319486
-56.8805141101056
6.22436733500385
-26.9702915495086
2.03768144391531
75.6011357927348
4.7872553015263
-92.8113858158258
-20.2268070096886
-13.3420375448882
-20.6708925851303
10.5329352442838
60.2270753248611
8.1305023193586
-23.5126550954193
9.7626189486923
6.65297057311744
-8.34596228379422
12.4053238517581
-40.295078394003
-41.1464503238226
-67.9949929399188
30.7464822019651
-10.3931296479283
33.4914212146318
-10.2288268288581
58.053117435667
-65.6288293015939
17.5760469399933
26.0595814420371
50.2718342107538
65.9634061525144
36.0348566585595
3.14426052330504
-5.74354088545949
49.289309169018
15.4609111752729
-1.96568259126191
9.06364616604671
54.052219018187
-85.9209431488024
55.4122448417046
46.8763591239689
-62.0470801924276
-41.8120327775533
31.2521424430085
21.9261339168179
35.0867710617883
7.81634329969163
85.6780639444254
-6.16378786990838
-10.9737454960017
69.0781456195894
18.2638077974906
-21.6253659043129
23.851069404574
104.223955265273
21.0071579570456
-8.31124284544385
21.3024275796327
-77.3366156908388
22.134037525693
2.1909912904144
-35.7066436540784
20.7768990025909
-18.7990661392619
31.3791182608377
0.202647939127169
108.144508995132
-18.832370702027
16.5041208700328
58.7165250365568
-81.6064862876239
77.7064787510923
17.6433703084105
-40.5409205701139
38.7077646669544
96.9993602187655
-12.6023096262686
-2.22967421076528
12.6469250276924
2.1488724186279
-49.8929037485947
-26.7511057081332
22.7957447550214
-10.403464668478
-16.8281019476309
-11.4245825970164
102.400603804612
-66.9025925235288
-120.22663989724
82.672122035576
100.553386580278
-39.1520288528343
-14.4887226164603
21.4343956024487
-4.34876696032142
93.8020589196514
-84.7854148720147
76.0908435119962
13.2947563968291
-65.4617249071017
-109.064498445069
14.7098071082376
-50.5129201076824
18.2615306925073
-25.5922329349788
69.9723324843397
46.9613118215505
66.1312446530278
11.0351188510076
-50.9256986690603
60.6950883545237
40.6091988993847
43.2774799433889
5.00370015946929
-16.3326344191202
-17.5888154060726
-83.8808098990856
20.4629284935162
-65.8251278827473
-20.5717159648562
38.6361341964387
-29.6293574195299
50.0534284092771
9.65602094246836
-37.4732174247394
77.1827211412732
44.9428442181084
-40.2674122987349
-5.1640756573823
-0.782141109393391
21.7931521368692
8.14098573735794
-13.5207565833938
2.25959212741845
55.6346513577686
-26.0258906374652
46.5719468713199
40.4337130246336
-13.2754240181897
-82.6032527950066
14.47525826438
-78.2723461512069
31.5391460480344
-36.9361253480177
8.90090722678121
-3.97327553982605
-77.7986375323449
74.7707835023816
-68.6444149159295
-60.7189651214804
-31.0879220932289
52.1073181729726
-22.7450989053704
-55.4235315488922
28.4747513933212
-2.44416395811279
-58.6205136912292
-10.7967502564987
-58.187282133104
79.5505227515137
-77.7753003623566
56.2364555375946
-6.08809550575091
-33.0557226444655
-92.3502610924509
-22.9957656718932
28.2216203615407
-72.5513373543916
20.4020072462919
13.2815736734463
-41.6286162248422
-45.9177843798306
10.2382392469657
15.6700938174761
3.6727198610337
108.542978594576
-109.954871909063
-70.8323218099632
-102.468582352365
-8.73784064849328
12.6291146081965
-36.0043359667314
-95.3020354653615
42.8976007010622
-50.1024838138442
-41.8641208192629
-53.9682990680736
6.53808887286038
10.8413106150123
-12.3250535378825
39.0876973545771
-6.44744935591141
-51.8063507803658
-71.9008493910386
-76.0055836739918
-37.6282677068515
-73.5823871682944
-75.3304919622942
-46.6850147397871
-71.5057284430239
-65.7683264484542
-46.60620323299
-61.1648383062471
-3.47609833081431
53.5720404434689
-141.240073279011
-64.6429072717783
-55.3700234720406
-64.722714427868
44.7233770963957
-21.4804755526078
31.4497110647073
-44.1674275628714
93.82032950609
13.782313939697
-17.4128254317048
2.19830156754162
39.8776575726752
44.6759702006271
-30.0285054089294
28.5311701805229
-39.628840125541
18.9853511225765
-1.82529924085446
-3.75563845308493
68.9041778320618
17.0707722880932
3.71825646300583
6.7080288023519
-9.8198141194505
35.6694669414464
66.056546298827
20.6012170182497
-56.5350035555708
-3.49432771165681
42.0554856960422
-85.7679749461829
7.41687679631708
17.4085837479225
64.2248657083367
44.8840832265877
59.8462079635786
-4.066018198635
40.2541766040604
-61.5356854327662
7.89020558521212
62.647563119946
28.4834409445548
57.3594650147666
45.5528020923819
-1.44417410600412
17.6128330270337
58.7570220250573
-27.1350440017505
45.4638343886067
-44.4820209114186
111.549947301352
58.8664393096955
91.5982291342533
43.1913611554653
30.0239849869762
43.3966140207603
64.3586180884781
11.2745172248934
37.5213881045596
-20.491274061562
-0.74924744275122
-71.4193959158193
-23.1144940343672
-21.9500694779413
-16.7290986319187
52.2923196631653
19.5769638920622
-47.6624204970875
61.5123790061282
128.416401029338
43.6740617397446
40.3712112164141
56.5124110300939
3.34253506296133
70.787527002584
-40.2907710734834
-3.5896414136959
-4.44803699948761
-31.7070829646667
-38.8305558455169
-0.99324738693563
-0.69098531038717
55.8727242319284
59.2234636283428
24.6367047790632
78.3874226173025
34.0046191737668
39.7863057456439
-9.1590590235276
-59.5274647429669
60.1723377393415
-105.205308617374
-2.1269473359027
26.5203506688185
-34.10871278662
12.9001580840708
-53.4974868306412
44.0248365097107
11.1122851683807
-29.8436172456663
11.7395826809531
-13.4738879020541
-61.6263082532612
153.594095434102
2.3604408878288
111.323740966253
19.2547497103535
-27.9085195607539
10.4887145337327
21.681853179864
92.1810531574687
-10.5968853223302
-7.06697302570361
53.3857070259021
11.0068859581857
77.6663688623509
61.0492642661684
46.2929577284821
-50.4914914732376
53.6205129180615
70.5509985680069
131.177156321255
63.6275434394933
32.310952763609
-71.408224866667
56.6458100014384
41.9642162455405
99.1685534945809
27.5490065035562
110.790881410913
-12.3035072990102
38.6124439601098
37.810728832956
58.9956838033091
-8.70694802991652
78.7235147690025
46.5037242718173
14.4788697127323
85.0955602955646
92.5754323517049
63.5043381355552
61.203587737013
92.5688173772156
130.990172529184
-52.7582461566523
69.2178696253046
97.7561756286115
63.3058091318965
17.7376104648455
87.3208929557225
125.231964387311
98.7058192115069
-24.4744722000429
40.6590490379287
-14.3972605484648
-156.248871143523
-10.4505878495177
83.5355784782184
-33.5352579958402
49.0688599749653
-16.0595459011891
15.0080283132222
-5.18369770934946
-0.175009928032665
52.3592085901784
38.088910102849
-116.409248225049
-15.0178846939952
-26.7985577920536
-44.203337036464
20.4579785492579
31.6580046737667
-35.8557967684295
41.1863955248289
70.6008514424201
-81.5841407039119
-17.9879321566371
46.4828752137613
-38.0334294788365
36.1929414088361
1.43257042009228
-72.0981710329944
46.8823450099835
-68.6592924999342
-23.2454466928324
-6.74012189458073
-85.5101644605845
10.7866109863839
-91.8965143650368
96.5182711121256
46.673452370942
24.265404749568
16.3737729452744
-17.3988951407153
132.153868246563
-26.8739048776818
62.6296557721652
-14.6052317503797
27.4099676857422
25.3196210013664
29.2234901557991
-16.8078151973508
-26.4999597242722
-36.6081377642793
-3.47694120875479
83.5726636800124
33.256085533986
-86.0732045323366
-5.75198709558566
8.58629601841767
23.5039515647382
72.2853745650219
-35.0704167987961
-1.79968353981951
21.9763468902097
45.3771567274916
38.137499660674
-5.3257948698227
2.84585004857918
-82.2062330809671
2.07328056360716
99.6700557873921
-87.3793596935361
-52.5940651612009
19.3900946071994
15.8553394771641
-4.10303448345835
40.8591465565305
44.5459390845749
52.6961967764272
-105.670759573104
-30.5230925910792
-15.6909009702982
-10.1087837636652
-31.0187768122686
-34.784877082655
52.0326662815114
-12.4220357010702
-38.920195130634
5.12630967059551
55.1183958625218
7.07755233437346
-31.8732212301194
41.1881344030567
-25.4008094212154
50.0261216696732
-12.6666946759257
28.027214372882
-14.8156936625158
4.67637758899038
22.3268293326895
-39.9738537689347
57.9315886253363
-22.382841411923
-67.7791585453984
74.1194404144452
-89.9828808217966
-11.7654922932179
-4.48584099685448
-6.35770826730886
-3.75585389211999
-6.19614170712337
26.7782790650415
19.0150883674908
-35.9095544783157
-30.2203474194055
59.3188756673814
3.74606951750358
-12.3439666004052
-51.4439330826629
9.38068793143064
-118.965233894191
-52.3383475984805
39.8505568269017
-51.356231204974
30.3996146138155
-57.5974760598608
44.4504964115672
39.2735020769375
31.9745811697329
38.5215391485461
-4.9975645983861
0.776777690295409
-92.558311439003
-66.3485542699546
-37.0666024000875
-42.4976087390524
-13.3910046965992
14.0064863291024
-141.705929165423
39.1249891378754
3.7269109873286
-73.7994278701008
14.4849135449184
18.0487615646253
20.9396007669905
42.6112648244427
-25.6521066047488
-0.760358994537533
-58.8271463586086
-65.6233453945636
5.45896038244763
64.0228646472027
49.9249041567382
32.7657170638489
19.6993594790809
35.4265726291421
-36.3874647996009
-5.0382087310623
16.8774504131996
-53.2285396949905
13.9911962655194
16.9035051582376
-13.2030104800559
36.3815823776208
-72.9050687684563
-46.8821334096612
43.102689302423
-32.0980227432607
21.30958609297
4.63613600035885
-14.3406748947996
74.9351330035193
11.4210572862307
5.42471234318981
26.4567859311066
45.8701312615472
85.8892784860272
-37.0895370284622
-129.799764090437
81.9958781846051
11.7082017083944
14.1527497923963
-24.3181259892897
-41.3970335573347
31.9621641479083
63.95287775391
105.978790361049
-59.4725534264778
-7.98009957010751
19.1357706413326
27.8200152804202
-6.18575090713628
20.2388125548961
-54.5916348352677
34.2351242668618
-20.0020619700438
-54.7957820766292
7.71458599853877
-33.3434200599582
59.2341853273819
-28.2790584611857
97.1876685813833
58.1785455026462
-65.1534041330385
33.6879226498425
2.32724450289899
-18.9440650208733
-9.83959554227551
70.000440639288
43.2807338537614
-77.2607227222897
-19.2428995930315
17.5391217282919
-22.1134957484245
30.9832930877845
65.7021723198876
-78.8799778356561
29.4396406917793
16.6401021692451
-55.8280673728726
-5.80404404095255
-48.3297128210028
-61.8284769385363
45.254778984095
8.23558400180526
85.2992461514838
10.3092946766571
88.6472727529096
-23.6160981002826
46.0757987933308
2.9767538681316
60.3260525830992
5.40536880604599
35.0887173991055
-34.7588705533376
41.232875231469
19.4092946479822
-1.24697910122028
-70.9283704226129
21.4419647620023
7.43597417830844
-46.8078330395421
12.0153044858692
-93.8336156318788
-18.9783843448506
20.6383059920936
-48.0500110721159
-33.3167338331554
-34.9596764989895
64.6415979010626
94.0116193714924
-24.0034690023961
-15.0578556856808
1.81371889644821
57.6218647696936
22.310107820815
-9.0323500810406
53.530357301022
22.7612171196872
20.1546747547612
94.0215561050833
-99.0171092064936
60.242562314534
9.29662011505045
37.13058045388
41.2002995002444
50.740737513562
67.8591436392821
69.2940130929134
-76.3409422087892
55.7247016385831
66.4023702134675
-30.9405908232921
-23.6391330131609
-31.7793129495389
-43.458190926572
-7.67962220162032
-7.71402004829757
-17.4929797841974
11.0326793755985
-65.861389437484
-36.5767109237898
2.40438083006096
27.1113755413135
-13.1619341919739
51.1374646370202
44.7787666508433
-7.23526107140711
58.7057044402234
1.95810074212976
33.7187644467554
-1.00717994737363
-82.13982570565
-40.0338102774505
12.5835369279667
15.0414786370638
58.2175330962986
57.8091882087966
-20.2565537497263
-5.49258031539933
-2.00857578120558
57.9975189510083
-98.148659708365
-19.8398532623989
-51.6859925173029
6.02256402094933
-62.6107258830953
61.2828767478948
44.8535093242702
-1.01096792712041
53.0327687901534
-125.692445628504
-20.7655442444025
-10.626939682206
-13.4372142104313
-49.4920807039037
-17.3625711132014
-23.2985489827158
11.1340619323895
53.018925422985
-33.3334005455106
-36.6028152508254
33.177862244536
21.4708902963609
-38.0746098849671
-0.748309901909752
3.57691213020385
-31.9376749491495
12.7332526861182
65.9652734282678
-23.9991145377013
-40.5532518269151
88.5498412397475
-60.5562913152216
-5.56816108762718
-12.6244038866295
48.4468451475453
-46.9487777212778
-2.55921445704521
-11.87806249798
-26.6177781752959
-52.2021164437239
-28.3010452627007
97.8077819693838
-62.9131974106053
-34.0170647297895
-8.97976604247919
51.8715923472424
106.569013463596
-81.875392530989
-2.06504717892678
40.0419690333663
-27.9200970102707
-81.4182625398003
45.8893755216848
-1.17148829538768
-29.6423268095193
-60.8872003753196
-40.3498565690174
22.2015111070923
-40.4113273999192
-33.2760772281504
6.86838994183756
55.3083717327518
-19.220001010627
23.529055283449
-60.4756249356264
-65.2334097268377
-29.8621110048793
-67.5173382817135
-13.3697847310251
34.2806165690487
31.5855428202505
19.7481127370381
19.1156492659412
-38.9469434586216
32.7342787102822
-40.3665310846404
8.75977272344121
1.19949054724385
27.4426258314857
-46.0396396444377
8.36028421737273
-63.3694874611828
10.5594991647746
-19.0685777015971
25.5510179077831
25.1346672281469
17.549538056296
-5.4729255325039
13.7884292046337
-72.818409206595
30.4414614132884
0.193348795555468
-1.97186505659763
-17.2340901459755
10.923514115604
-25.4208935998606
10.0037806916434
6.92937807219284
105.934082386361
-70.1568328878578
100.802215839178
-48.5687598575565
5.76003048799523
-32.4203094827017
8.6013036386209
56.8849329141061
-17.539451920706
17.7036203438939
-92.5002531959212
5.54305200635861
-31.1199473417628
74.6971193256833
-27.6781853034486
-45.70814350243
-37.8998369962335
14.4425496618025
-26.3757660955053
-57.6883687516158
25.407756830406
31.4579610350615
22.3672268610723
89.269876432966
-111.776146412269
107.206969042463
-5.1627142729477
-39.1594671692018
75.4463353709479
-10.2234919995862
3.42530843047898
-7.71561830118478
125.808425765538
-100.896896930428
-29.729504946655
86.2832612291701
58.644470032078
8.58121794910294
-25.9222347368991
-1.30613312441963
16.3846317313442
18.8056098737124
17.6044312412489
-1.62427585951929
75.6710259080872
14.8837711560873
28.890486857336
32.7522464022944
-34.3008555954278
9.70418840894103
-18.223902262485
-27.7161079085575
-34.7594442613353
-3.23847538365181
91.609775525815
-60.4320142758403
-72.704509910349
-42.3792254296038
-65.6988538473839
-74.6688623604189
-26.5427915081126
-85.6509981383015
32.5134032382462
99.6469999701022
-100.155938076304
-31.7444776231956
-48.1777831448859
-91.7053146487914
-18.6304134231801
10.5591663738134
8.59029221630963
12.2712774014761
26.1762430118841
61.6447825210217
0.619687407967154
10.5856458483571
63.7541683221677
11.8801576469982
-17.1523133627859
42.0901848553714
-1.89725607632418
0.539280497124053
-67.0537945519259
-50.2479218768902
2.76983708884309
14.2182029670825
-72.3303879026381
38.4263954382582
15.2212383846372
-39.2643158134225
-25.8287047243146
65.3695255183052
-25.2488696049077
55.382408377353
-57.7245309240899
-35.576593583335
-96.9566454946779
38.5197838487815
8.34738855314217
23.5084954321325
124.032753065167
-56.0678822587506
1.95258081892691
76.78658584512
14.3961158034832
4.47642694703451E-03
-110.066398333128
13.5933249586148
-5.67703994421045
-142.76742819767
-42.6384712533203
-59.5052808641691
66.1779073337321
-58.2292445199777
-47.4614249270361
-15.9081154772318
1.76837205044713
56.6895318418162
73.838093347912
9.9839887440566
-13.3259661981011
20.3449158977976
47.6687345206358
35.6005751576714
63.9778042686249
-8.74138563154051
-7.25935882802364
66.431353045763
2.76196756648234
1.67016677693017
-33.4067398608241
43.5140793482063
-21.6023049786176
55.4499999602391
-37.9832193172624
6.38927601612437
-12.5386573411129
-0.144119462357311
12.0621292635926
-7.40569231303159
80.0566953887458
-54.3257569415328
-25.7118859544841
-27.3512453382898
32.4087955169137
-48.3873552322097
-26.7614620518656
35.8779968880045
-5.17798513665749
16.3998882481359
-3.12308471305847
25.3326104794795
29.4627096230374
-61.5936553289468
42.8320353053437
-1.01257988581574
90.4350998981094
-16.7814338060808
105.32355463658
-11.6540288898055
-66.7320439807959
11.9894796819092
26.543713526455
67.533653665733
62.2191973970829
-1.46167656900228
-37.4314864636353
-44.5640620717187
37.7357021391225
50.0929004362268
8.55974105225924
24.9268565544956
-5.02356948550619
129.250830854891
-11.9021935408384
51.7373475917187
-59.4816278451169
18.1861892161195
93.9546266232081
-33.9669808235902
97.7169111091942
21.3432259755572
-15.524365403022
-30.1933891801503
4.18482475402051
-33.6601273214039
4.49048255410803
-20.7583753181559
-26.5124956285881
-29.4497479493281
-108.686884438721
-30.7294324171228
-32.0741607913475
28.3476763129682
27.9236614785045
-29.8663097335926
-88.8071861416979
-0.232578740953475
20.346895430773
96.842325145693
-16.7550035693944
18.8920194222147
-68.9449300425235
-2.93536822490915
-85.0740479347894
18.5709020491488
4.92649310612539
55.0810071732001
79.214987571496
36.1609580634572
41.3854830052432
0.601398098091396
-13.0483030090085
-18.1851782464054
21.334181412706
-18.1025967329074
51.5045000407712
-12.5502153200384
-20.6377866462685
-20.6216422692358
-21.8904106307642
-16.098306087812
-58.0137323021435
40.9324313479004
-4.49430880454323
-16.5945294469931
24.3284452499156
28.0613428134333
-41.9704291643006
39.9466939105893
-50.310444116489
15.5603989125014
-35.112627592016
21.5671652133219
-41.718451618979
-15.8956446713056
-101.952271759297
67.0514315003502
64.6218641442875
19.2640014698473
-53.5660473812815
-95.609038821464
-28.9182596033898
31.0183516553833
-14.7552847270129
5.4380025160986
-21.7596138359998
59.6630172642898
6.92524839052151
43.3421164323066
-106.852628091328
16.2665720154462
-53.075543474119
-11.4110611542431
38.2167617904531
-25.1263678419986
60.4872124944682
-3.68705441610801
-37.1517816598289
33.5758727491793
-85.4743227804639
19.7138329364315
82.1626554741753
-48.4596149424214
99.4086654035731
-31.3104282170133
-69.1269352425159
25.5185023120391
-10.9761376179857
103.428279545598
-6.94532207812216
-15.4723477613988
-14.1558687877233
22.3157586005501
21.7729269951776
120.143789443129
7.30621846620039
-13.5441111806237
-38.5875049869596
-9.5973641570667
22.8278114394424
-5.39298548885808
37.3862434119895
-9.0558236350462
36.0072066253226
85.669037791383
-58.151068512488
-16.0931828135612
87.1288194350691
5.173168893965
55.9573514639401
20.0450723694102
72.197229756582
-66.810925951625
-53.1840949945892
37.3178208753834
-14.4472715062287
-74.117358499444
-8.1654068416561
-4.41703673341799
-4.50793977848379
67.4416887967254
13.1050306518579
-27.1613652043721
-81.9704844096441
-36.9634189822893
15.3693550232779
17.4712443008575
-29.2144227213377
3.19813937510703
-23.9833080766307
3.0061604284967
69.682981394542
23.6761020403109
17.992408350431
20.6082133501964
-9.1366135013585
45.6880418989069
-33.2535489918417
121.746022067448
7.21172553910949
-7.3191911191092
-36.2711767455734
8.86669273387879
-80.0600793578375
-16.8455736788245
-6.687408968623
-17.024392944477
25.18675872797
-3.90818933012017
78.4878468021936
47.2797252418554
-19.0634224499215
87.9967659101323
133.123623568981
23.9322877589723
43.6458104356785
-11.1325643638556
48.9390151698532
40.811794019383
10.6934794888805
-39.4773238171152
-48.8403853423241
1.27875545956861
38.2394438498807
30.1548419530255
-3.23912315709739
-7.4199655661503
-56.117551460051
-71.0960103428565
54.3161187040309
10.6124588892553
52.4590230376412
18.9357415312881
46.823613117165
9.16487193547685
-151.536253631452
-24.4920847912013
-30.4654155145021
-18.9189401893157
33.4516317887016
-28.6205903440082
-24.0580751955387
-14.7754530038548
-7.89581934454091
74.3489768170284
26.4180392035087
9.38090218012143
-41.3979873898586
80.4112219068535
68.2094767630391
-20.4970104287056
-18.1508457732794
23.7824316093587
-9.0941204132031
-50.2096018399921
33.7366034003296
-21.8200986024916
8.40124246685774
-43.704521563287
-21.6837871653316
19.0348912001758
84.2666147387079
45.5753208400747
-9.010236248484
-35.2083303780304
-19.2349013704286
84.2715566163679
24.5127085425506
18.0028179620114
-60.6776265174433
-64.2420443631299
89.327242873966
30.6345266895647
-33.0210470398319
-1.49036177859143
47.8351040496328
-80.2953731328135
92.1540014807372
77.0770317355573
9.15699889229014
73.0508481364827
32.9847727966408
-42.9672212061903
1.7425579778472
-42.7929094043483
-0.78940505244781
20.1404334715539
-80.4675806817305
47.6915092182422
62.4858227006522
-7.28995857806801
-42.3076796445065
7.94172269521792
38.0422789591362
84.0675983214765
21.9480391198545
-10.120267331496
13.3884474913535
103.882926338621
13.7595281635496
-39.3380979840241
-3.04992999630267
16.9935916760918
22.3028212315123
-81.1121228254269
-14.4552753308207
-83.8486706670315
64.9990059506708
-29.0736412641979
41.3616541013525
27.8217881968996
-1.8788986447796
-16.9546595713441
-72.3326960211146
60.7684344199802
75.001602181981
-52.1101861668228
40.9568861155464
38.3271201435261
2.83623459274986
-25.1891757734024
-92.3071981632994
48.999054939697
-12.5973140083473
-49.5135883732016
-58.9181263454925
-33.273147211905
8.45706759060891
-20.0428762111537
-8.63498336788091
22.7908274962418
-11.0246469670322
-13.5333361444062
-10.1345602463133
-19.7891689552968
-58.6877199380473
68.8916566242278
75.0043487243546
-42.6972485847239
-26.804071331937
58.5036268135373
55.7068243718049
-16.8218562956528
46.3226924199885
-81.1090420407682
52.0447305445139
30.9504791231295
41.6243418506232
-1.9610065936952
11.7584106529975
51.3821862596187
-50.653393104439
19.622302637922
-28.1856207735536
-62.9771332982257
88.3569633770924
30.9548194145717
54.942356575501
-4.89895888562043
-26.0617281021075
63.6206969864522
31.1917386837353
31.0791913062532
4.46445410805756
62.3115695209232
-38.8050848341267
-19.894848860806
15.4345360058187
105.964415796827
9.66290087809705
39.7315091278092
-4.77775065209856
-14.2118000493233
1.5272952163249
33.0892309735368
-19.6602315168345
67.4473070566846
2.34186061074064
-23.0483893111026
-115.02380091946
39.9949794830005
21.4568814301949
20.2003737424908
12.744149159474
94.8110497627633
74.9699107313411
-34.0029850425085
-95.5590032630468
3.78474135838179
-104.122345665564
-49.6907009227896
-27.3146305206542
-15.224415403084
-6.91447515510268
32.2254618217276
21.403947982061
-47.136708879989
-17.8463835266585
18.386699814441
24.4988474256216
3.24091107431214
-37.3089439207184
35.2023606266213
45.4416427889472
54.1346456316343
-74.2259267924562
-56.5983518289006
2.63652770034377
-2.53155003259187
30.6775527684799
65.4406251988987
50.832151170444
7.29182128170798
-6.91541588474896
-16.6660011256904
-12.2506519782441
-9.13480831852999
31.5840502194577
-34.5726075117238
-60.9597197399264
-41.141115760034
-41.7775738905671
77.0077554017421
-1.5565628361532
23.6088124035011
21.8826525660705
90.2070239867369
11.1884860761109
-4.07505567759737
24.460374762846
25.5273437695846
48.1951452308368
-36.07302228131
42.055740037934
94.864888244381
13.6610360975093
45.0458110174371
10.9576601482365
135.393751147522
38.7049591550628
-23.3609747849295
-47.0933917935653
46.9313513725694
-63.5360382268421
-57.7359897293857
-1.67810438899371
-2.21750876610136
78.375408952854
23.4732386384326
10.4099077113569
36.0904401297752
31.4884126518802
4.72286062606959
-18.5891695249796
-5.0096751875793
-48.8769871551597
-144.802091780537
-79.4268290024559
28.2426250537627
4.40998258252928
2.43532398349742
51.8877455972551
10.6427177730248
-49.1806388368449
11.189391752417
33.5857716750485
37.7761781455527
-50.3584324583389
2.45331765721907
22.7293236370034
7.93896373861124
-119.478586724447
-13.5746433528113
-91.5033379983454
-47.1334358399395
-20.63763502404
97.7882106347938
48.4898080025688
15.3169536976008
98.316078907615
1.05644496896229
-36.4528209976706
-6.9916891944963
-7.96944028376322
88.3181754574102
-79.9896960279376
-43.6954880148459
44.0291638057995
16.1345185141755
-52.1497218998599
59.0488043913904
-34.6476983605112
25.4831498951696
-27.672966885579
2.38927631352304
-93.4662311433095
0.560724586530744
51.0525113885195
32.4384962721495
-11.8754603715374
36.013052128908
71.5773583365509
-12.2159299252952
2.03819783397267
-43.0384362843019
-74.8599176243059
9.43692370903666
24.3942848354513
120.960002007954
-9.07255836460491
-57.3102910183948
5.87848492913467
30.3461732032019
-3.30470564465476
8.15904700228577
112.521900930626
-36.0497863518645
-19.5096716388092
-40.8977914360962
-45.6744214617145
-45.1169806259483
52.8947302972568
-51.6686819597199
25.7209773375801
-2.44370102646556
43.0883072463881
35.0963505719347
20.3623060566001
16.0792221695937
-65.0144998032331
-22.4280411038408
-104.70762066533
-56.6643516489037
30.858366893813
-57.3374762484861
-38.7898503013155
-33.0293150167518
59.3008627022832
5.33488892591246
-123.5049584791
71.8056218735559
37.3245692695802
-28.201150249696
-5.4890401285272
-28.9437419035771
-69.4984327566484
-25.7182384825919
-32.7789000203732
56.8512318100994
8.58618967406495
73.5855029410667
-28.9063603523305
8.23413178943508
-57.2457678024535
18.3715626181326
82.9679167548926
-50.6139527324813
-23.7045743032814
37.4931867450822
-56.7190902681299
-15.9763487791045
30.5831072689253
-4.51778555433931
64.6245947099485
-9.38802333903402
7.22352249904747
23.302741586618
-28.6837804746345
-25.0192222971235
-9.2434855564514
-29.9963496538044
-64.9844460059578
18.6486904579924
-39.3608614859965
26.9377951666107
136.915880126194
-27.8596281401749
41.9943327809008
-45.2331909574838
73.1687516523263
25.3283414769606
31.7477632420331
16.537466133597
-30.0234887823945
-67.6564658701575
89.807828766039
-3.80199276129353
50.2011047997846
43.3763040483883
-36.6339521353213
-12.4789924506924
-32.1071464938434
-74.2668253254048
88.2081724193537
-53.9868813252393
43.3387321627316
-43.6763627482642
43.6298398352191
26.0214052149205
-67.4339455476835
-19.6739590873466
-4.35503585976618
-61.6089452233898
6.71455171243217
-21.8780330344229
61.6597821877339
-45.8101652823864
-55.1925024317991
69.6943805260596
55.1610990760196
-38.3090377104449
-56.7891605453594
-24.4435011664222
33.7332750626642
-141.50203144985
6.96822092652077
-112.584525942388
-58.6246969196076
46.4026069952784
85.7393124557963
7.67785302669393
-38.8633353077618
-8.20993916081396
13.2490703038784
79.5722096978706
-28.4713452836915
9.64440551313401
36.9763322457418
-9.90155842909137
24.4964471086422
37.9617683921645
71.7715846560943
-89.7870716909389
-19.0435513107237
7.64853247878872
-8.80422195875006
-105.875928253318
-79.4866555894498
-20.2323194837951
-10.8852364771176
10.3037164126692
8.47168657639732
-64.2024133352184
-22.5328006717233
25.3164941110411
-4.35193365883448
-25.6155310836253
10.147742049544
-4.1686151728521
-0.728432684464189
-48.0977556711433
-74.8881910237275
37.2075913237935
7.93260484896579
29.4816631011589
50.1134941266211
-137.159710061767
-41.8967257704616
-33.465630732551
24.9338876924935
21.01090759242
19.2058473815315
66.1769515551786
27.0435945524275
-2.18874603125523
26.5504091694105
-11.1449813457974
-56.129802243601
-15.1987641076095
-39.3026022388668
-3.12197711811509
5.70916930434543
-108.584262656947
84.9263743492669
-54.9981798110854
22.8249728914079
-25.2420572776333
-2.99162185070097
-10.8621772411305
-60.5619290238754
17.3034960083489
-36.6139385818105
124.725141720021
8.08306141022245
64.6927642235509
-9.83693449895674
63.2752569104975
56.7533814046903
-0.793064911792152
10.9921540284173
84.5875317512011
8.81879960327593
49.2077416227965
-116.969798711364
5.63824159844459
25.4133140513042
11.2703180983572
-8.90261857701016
-33.8341184613104
28.8432069327219
92.9540299386541
10.5377691124032
-50.9889257749069
-0.442422070680997
40.1370828918553
-135.970958465744
-70.6792541292065
6.35706057969288
-32.9127328656895
15.7301024868336
14.7930783917497
-79.2096850902118
-16.5465498099565
7.68714523702626
-0.777707304760306
-28.3975575187913
18.1402100279584
8.3411269507004
-6.79953061242811
26.6546571749388
-45.4284948897781
26.7924716655873
25.9473300275147
-13.069664367458
-1.84166941250321
32.1825845159844
11.368398383208
52.0789987079021
-59.1399952884533
65.1458968460363
11.5868488848669
41.9268374352015
89.569114349434
15.7710467034955
28.3551243691124
-16.999948772449
19.1560533182982
-73.1146771436212
18.9285683064192
-28.6344157979717
-52.6193099499031
-19.2574343354512
-4.8247221002514
-40.0072292563757
-45.4840922477418
68.8514963087315
-8.59610643574107
8.87894482624265
-38.5694128373182
-14.7712287112764
-19.8858576087335
52.8622306599885
31.5480727424279
-96.7009065306693
-15.8862171446194
-8.63441490359111
84.0302311852048
-6.73466623381908E-03
2.19994817919393
26.7775087382314
-30.7630918929114
28.3143747041793
45.8729352687525
-84.7230353404504
-64.0240375738391
33.2521131816702
110.336092367405
39.6526849364291
-25.7100425535648
-34.0742637847607
-59.1632119189724
2.05034120101779
-99.9777785610876
35.2272953676747
0.220262935324719
88.1050109327881
24.6671722365514
-17.4815054233144
-22.0992432854782
-28.9191218783892
-5.46237585436525
-29.3930946456668
54.3024039634858
57.9453406618818
-15.4247220733931
-12.2097694372394
12.686168349957
-15.2495796902169
-35.8103480051982
11.210966141235
-18.8415044823568
-50.2191059926451
27.8354430945285
-77.3919880464121
73.5523627476897
-67.344486458535
-7.87138340698061
-146.213347722462
65.7820726706057
66.4354407157176
83.1574839448788
-50.2461612562209
-38.3006166679018
-63.6977348867434
28.2666441916763
-52.0182180278644
-60.0795311099237
-19.483043007465
14.4787955560025
-2.33036865642039
8.55074486499841
-54.3394140463093
29.8723540890916
-14.32962205214
0.707705025055916
5.087877844964
22.6511990455224
27.4380753224396
32.2307032941057
38.5954462530808
2.82694810398427
50.9291434750568
-41.028990610796
-48.4820236040723
-52.6160483183007
-81.6393146437092
21.0754896217006
-64.1823300128778
-14.4875934712683
-29.9113193618828
-1.78711145611548
3.22497609568754
19.4760671350071
46.6193723961999
4.24297609920417
-4.37812352483092
3.92750676640722
-25.5917406624541
24.3957301647212
-100.86702822737
-12.5038096711138
73.6328922895095
-4.88980170495636
1.80414503281333
-14.7476505961143
-75.952003480903
-64.7191206257242
-72.6962730760759
14.6932104893954
-3.15554881807699
-55.2267867729608
64.7769657631562
-46.7928907916328
40.6372495635073
109.699136823635
-35.1790732377171
34.5458227383781
51.8018400661715
-46.911260796785
43.0240784055226
25.6757062807031
-23.1369425903497
-17.7453592570825
89.6324805282134
35.4842389196726
-42.983599903081
-78.6779843043561
63.1627450472198
5.19010994109914
-16.3725331407977
-13.410922286249
17.6809381130435
71.4422500252158
8.21215600309183
45.0903500973943
-81.4939258614875
-78.5040371736327
-26.052443607818
-7.54181231001545
-56.2229101387732
37.0228492533989
35.701450183758
-14.0831856457646
33.6429311539433
23.045242607875
-12.6029955832661
30.497498350644
15.2968532191439
37.6856041320634
66.248389790367
24.8335232233357
-1.82194017224631
-1.61334062012667
27.0130124776193
16.1792655599137
-45.0934965407902
-27.0109971030535
10.4064567618149
-60.4010478543386
12.8999474681181
-2.45050686832163
20.2174199923165
11.0875449543085
-4.35366578140897
-138.954043719406
-12.0584077546961
-53.7812339437535
-23.2309549896886
56.1415653505699
31.4258469169553
-56.736629207091
27.3278216756097
0.475676935369345
21.577084055212
70.5845848300504
11.7439031619293
-79.4929338456819
-61.856336947304
-63.5030143106525
25.8243830149528
7.26011682044524
-2.0783955318342
8.17015975165034
-59.9121873438772
-0.585076038713018
-7.52734588200707
73.5690755256147
13.9607891634251
66.5381957342973
9.06669422583551
-83.1505887271046
7.92351845775373
13.3734224729464
-25.4228149610874
-52.4320380475051
68.8313241778048
29.4959963288719
36.9650482523381
23.0257604012962
55.4285847346031
-42.2082150452111
-69.2163181159226
-9.46529619424839
-74.9982392619517
-103.863857326791
71.3259288364534
-11.1127594139001
-59.8109931696028
27.334396669929
-193.887711047257
-23.6869311288633
48.0952374088522
10.7545644483927
-32.1909889100849
27.1468157560738
61.2736196727391
15.35840748088
-41.4154957163662
29.0263168425053
-21.5528949763602
-33.3621537957771
11.4830160908924
4.31237154065228
-26.7230891350991
51.0103871743282
-28.664358275853
58.7877603357202
-23.041162663319
30.9393711486093
0.460450152897887
27.4758256703865
-12.9772148230177
-103.497255207329
32.5059151479409
15.6970421744295
-27.7939345499029
66.1174480352759
-17.4552382203051
-22.9641840635992
-34.4531101579113
-28.4843654925275
-66.680978453519
-21.8909080098622
-27.8091791184753
-97.346349864315
-4.938716994266
85.1034163036314
30.3100584650899
62.005008410648
-29.4879955046556
10.9177173716198
2.8630779915337
55.0045426734963
-111.721759187598
-0.42466155441653
45.8304568334455
-19.0674285464513
47.295252970834
-0.389225374013309
85.3116495061863
124.015011724134
59.0991942052014
33.1340556552168
9.19700759126136
153.7083022383
-52.7635430006979
4.0688745187173
-14.6204611467835
22.3764072625394
-25.4367849757604
-3.7106662734459
38.4516791242841
85.6612539040556
66.6873466405293
16.3045774631725
36.6038024940393
-13.6423092004831
-1.66586050913931
12.22058288277
-0.88679608602443
-20.3606498883483
24.5970418467181
33.5640395637368
-107.894974899794
36.762794051735
83.5852270234699
-11.5954785582182
10.599819794147
52.3238630535927
28.8208437422474
64.9780401617363
0.316465876884581
23.8323951920504
28.9505465360313
57.7775760667829
75.5535963005001
73.0892846018215
-29.3016977488511
-3.38562679233442
74.6079666947749
-6.52668482539825
-40.0005847495235
7.96748322501088
14.2539387586489
-2.07570543101401
-45.6306362810076
6.47852513112884
39.5546927623945
17.8937229358734
20.4252355665889
-16.136451284516
34.5228395560092
-14.8554753343581
-63.9875345305851
17.2246269877348
-43.6842182985406
13.4373931101781
-94.2849713153028
75.8700110222591
5.35945128903975
-5.03717663597663
41.523358856595
48.6735943435832
-26.0770006103479
-57.7548458434927
35.6810264410122
88.3019651881791
47.7965755704477
-120.262271801243
53.9085375644702
-21.0095571725713
33.7544479959818
-15.6531981034469
23.6106305730347
-12.7417024466632
72.5166248708189
5.26584357560985
155.212058959444
-6.08228802035191
49.2534311426043
94.5716271549106
-12.643940149871
68.3710928346602
-31.6703391927154
12.5488249692311
20.359610680951
118.526962579644
0.1775430629288
-1.6092213869618
4.27003488671425
-3.5840504534023
8.70105107874048
54.0506870140077
143.388639033993
23.0352816062766
0.9280620638624
50.0696878046936
11.6988141684155
87.0726810103203
52.3213635196858
-11.7338790854302
70.5383725087694
24.7387779967882
-77.5852741967179
44.9137114584393
-2.2310884324494
-104.849173609992
-22.763954978951
61.4455272676633
84.0985706428039
7.53999592505581
-59.9840326970585
30.4952296987247
-29.6911707462008
-9.3005391481069
38.6574877247307
-7.07251127614272
65.120816014372
22.7512109111337
-3.4403159497661
27.1154070349488
-15.8878789022521
102.285714299662
45.4470226499574
-15.105651151285
9.76119011219354
64.5205453381655
64.154635237648
-8.34121428092242
50.653134906763
-29.3685110986662
134.559478170325
37.6716320333904
87.3281540608722
15.0329051574034
-21.2724807591894
-25.9760539105518
-14.6082619907793
77.3228158351557
27.0678131440856
96.5170012145104
9.23446128083208
-64.7373863331884
58.7458384855547
29.9384276342704
-30.0716214967156
-17.5687053852332
-40.289537911366
2.6694318952663
45.9769389375605
79.4797720520172
58.0316005583207
53.3911020579907
-5.30421314050692
-2.18791383583651
57.4289320692404
-19.0456574752543
-8.8070504040693
-22.8627595416573
44.9959585212254
51.3402262766236
-35.4113407049975
46.057888308282
-50.9217542763677
-5.54463931704132
-27.2426168277923
33.6802394151649
1.03985735937186
55.7703464024798
-12.4723334787293
40.1833793318071
-25.3121928501799
-35.5415641987349
-28.9210111345909
-45.9845160350669
135.560758219978
-3.13370708637564
-5.73093652608769
29.9295559977477
18.6652661374966
52.3889921539906
30.2698824252468
-9.10816059139572
4.02053710055783
24.0874294835771
-64.4536997174086
1.35243101976343
-10.0890411158312
-13.4621552672464
-16.5629392639909
-40.4805741926347
9.15461384494225
-7.4495989373351
68.0548992658354
58.7855304781599
59.1355022093148
78.696566630064
-2.33025869411629
34.0791334215346
-127.672592303564
-72.4464575595736
-68.0230336891325
-60.5493253769551
69.8581264391922
24.5080029150787
21.9813709326429
14.4595040340037
15.1241941410895
-72.8388127428369
16.4466457561344
-46.803550971209
-19.7316782353394
28.0426613755751
43.6701083891157
-53.2370592529955
-15.325578802588
-7.82894806442777
21.9428490175855
0.928871990047979
11.7183606376774
6.69665136213059
44.5666344090036
72.6281669883405
-90.7934004159178
81.7929245484364
-12.1094069804166
-58.9063413455047
-33.5906946681721
64.3019088441544
-63.4268968386653
1.85092744419006
-68.5301854883536
-26.9981770301466
-32.1127240014346
53.2045826807616
-39.0319490627719
-0.525631105412482
69.2920592375398
-62.3201421670263
25.4519496115351
51.8238796341925
-5.73480453532616
-55.792648770468
60.4079989471527
-0.479175622120452
85.319160250726
-27.5605093199222
-19.30030918906
167.188102567046
13.5766777785103
-42.6565349083535
-48.1790729022074
5.08016799034152
57.5285295759113
-4.11266565254119
42.8504204425733
51.2822467833247
-33.6068864162129
-43.5164818142946
4.61264086008832
-77.3603112144719
57.6245612574846
68.6569998446473
-25.5689749312074
-15.2040012630769
43.7542364205492
-90.1556160245045
-32.5200060830722
-3.54782155356815
-45.6209922908135
-26.7156913350496
-15.876252572486
35.0796582012743
-64.7510192506687
-14.850261022684
-85.4081731460775
2.64451005706639
33.8771839991628
79.7183459045899
-14.3958642983725
-2.34846567366799
-82.4257614815036
2.6583795893051
11.4014350657125
-98.2265982894093
-51.517885633507
-9.8955882933873
-3.55883414742246
-53.627731822091
-12.877150796898
40.1897929945461
-20.1568696780425
-38.5909169002375
28.550442492576
30.4508218669847
-53.1253776998424
9.42926505368698
10.8571408289241
-72.0185727927933
-60.6895384442899
12.472547268744
22.5789401758929
-24.5634963160236
-15.5701856847481
42.4194361804477
-42.3906374108249
-34.4028922131487
100.858691998472
5.59710684369557
20.5054426521038
25.1613505225719
-35.3252794677758
84.1634956772987
3.99532885674624
-24.8489338447005
-14.4008907913737
-20.6900541101921
69.9130372191152
-62.8337113017462
38.549591250911
-3.99004694139129
-85.5073909192773
-47.0229732997077
-12.3822655695246
-29.8056127755874
-60.7486717448731
-55.5849953136603
-38.0358430534915
-3.3479387178486
8.37958065611762
-37.4831869836182
-89.6039915566139
-21.1614532630494
15.3336244279824
22.0742791030643
9.20245919228422
-58.1741206735746
-37.6033049920396
104.367908168254
-18.6239443515681
-84.9588796140797
-1.16615855329676
3.89489407058166
71.1404176620064
-28.2773118551332
51.4162428110698
35.3544405381634
18.7380770521933
-40.8300263552597
8.03199626317931
31.5200675180386
45.5062032120824
-53.3260600885282
14.6320115969701
6.7110514047726
-18.3175376886947
27.794249161899
-48.3179231992036
-23.3266514555019
-87.5615130935318
-13.308058743277
34.8050916192016
74.4940637113242
-33.9658018015743
20.7356920624875
-43.8988656282348
-8.5970499487386
-37.5773474602094
9.77450511977876
47.9272108438063
-41.3405415809907
-19.5278433857033
-8.83009674332868
10.5634428836741
-39.9555462006428
53.9700431010015
-50.8332683787668
39.9479134362976
-37.9679435300175
-41.8091744651441
-14.5867819765726
-18.7114855084152
85.7688574668925
3.61033685228767
-11.5218461379309
-17.5831187912663
34.5954081644894
32.9870801313335
42.2159097353292
-13.6031651619831
46.1678991134872
1.35209770331944
40.6384293018868
-50.0222153740235
-39.8831964163452
38.8895565861732
-15.9925659861814
7.93212849748665
8.5536249254215
-28.5083847730649
-65.6001965403045
-79.1250745913521
98.8468804689608
52.37321277252
-75.5356057269594
-63.2260098494985
10.3741548767875
27.8750898351008
-38.6804759074537
81.3590509932799
-24.2417231762708
-2.53334262316921
-25.4630352507223
-80.9702999223316
-26.0874147591668
-15.5157571395132
-82.5795720967
-37.856356982174
-55.947217705954
-28.1951823467768
9.3144419548944
-1.76093144687812
31.1809919764108
-52.5395585064952
-24.0271099693312
5.80800856673374
-67.08856570754
-2.35546987095418
-44.9243567153332
18.1911107834613
-77.1135063303971
-5.85260051678139
-31.6936493031429
-29.4914796885472
-70.5729762021314
-15.5143605274807
-81.0051433941427
-47.7235784323708
13.4713107732582
-34.6424471031464
44.6836103370017
6.48429895549904
-6.71654495410951
32.0651505978817
19.0990437739868
-82.5759762972532
17.3537829109423
40.6921672884388
-44.1038893241653
41.46871383476
-9.12858523095021
-78.8829312329082
-10.8030154336903
37.7965743894493
-40.3776912231588
41.3702660997405
-48.6366120930746
14.2429867393567
80.1548033166013
48.9154436745938
-74.3738980885764
0.542709460184753
-63.4408644240811
20.1464626409751
-79.8550817865794
-45.3067524371642
-30.2726135742052
32.2432439165238
-65.7123799858987
36.0303953732601
-15.5040200501928
10.5227663693001
14.3975394368329
76.3573677021355
53.6241106332736
54.5546175666556
44.0658102776361
34.6100834272189
-6.87159943430137
-35.9155699994318
0.436675370793273
2.07290388661209
8.07654342108613
76.223113436099
-28.1480109031025
-26.9185014628843
-19.95907557158
63.914950843704
-27.815450043556
-21.0375426007637
-27.4731067117893
55.3934549507386
37.5189894202
75.162934295349
-40.6801798427225
-9.82973682533532
55.9135880745352
-33.882177864052
-45.6599523087335
-5.42055563433617
62.8168109767835
6.38681023618105
-53.7444841136106
32.0172359129348
-76.1817674865705
-19.5308096410962
-32.2218996174477
54.2755524503787
-25.714859086385
-72.0296267828835
61.2616011771473
-83.7334853007526
-120.926657102494
14.9508041089474
-5.57317991312063
-51.0251960602155
-48.5965529233792
-56.164633871917
5.26236124701249
17.154833632682
63.1624324538492
-25.3006740110848
-24.6115138856405
-2.8894857110986
12.8243733445882
-19.9245399351435
76.4258044745803
-9.64317113525197
8.38387046891384
16.1463112164993
62.1805866991536
-68.4355325949498
4.66110159748445
-53.2046873993851
20.2441204973585
-43.568533139491
6.83430090683824E-02
-21.0089466250876
65.9048030555036
-24.4909004281673
45.4244148441104
25.8700605761916
-31.9114372155146
-52.4668548474812
84.1656870329664
-19.3348169463548
5.37573486623555
42.4762935307476
56.3301371903352
-3.70091291049224
-1.50936337961062
6.34254843698082
-52.5156232338743
-51.9746964782488
28.0238415276928
-113.829677510839
6.32269227512529
-26.5471159591369
58.0266331805832
-2.70265242499746
23.4918089537592
-18.8649654672597
35.0120151826426
-15.8324414835015
4.28543625495048
27.1368329775155
-82.192607011867
-71.1721969323252
34.7086241370515
-41.8772460141334
32.1302815742319
-68.7294955255574
-9.96649520243891
-11.979255330421
-9.79972406372318
72.4273676849834
-113.144748819794
-14.273616746228
-6.34194894612378
-1.5912719333691
-18.6901382084327
-63.8920129158843
-60.9646875069339
-12.9866480499782
-7.46611443676135
66.2615544920824
15.5083777726018
23.1042829307721
-69.8697454664196
-68.4569947449217
64.1724494015669
34.1577448618767
5.35409882853183
-91.6255429206847
50.0936981099284
23.6441923839983
-32.0522192558071
-21.3189034788924
60.4318735905117
-5.60675152823657
-40.9647122018745
58.565736410524
22.9774733134594
0.227570546453306
4.73277135687098
22.9692389868977
63.5143527714009
-42.0753662484494
-0.85583920486868
-3.40328165439139
31.5012171989212
85.9799577819275
-17.8113198275345
-38.1881809721506
57.1635537555167
-40.7995393831446
37.2504733177202
40.0143407257565
-41.2986591592231
-22.6475354870032
54.9497111473714
55.2200855053462
-29.0527191159982
31.9252699852931
50.909199459776
46.1560827659317
-21.5447190138095
-11.9517237662151
-111.269150318553
-135.330859267157
4.15960559382245
24.7173114912491
-61.9976311004979
-17.3787618005012
10.921355110212
29.2441184511551
57.5260373331485
55.711323663782
-27.0291809981441
-6.2581163441949
51.5987385895781
5.31985523085682
-47.0381935320478
17.499245219954
-18.9248472613666
-35.9802122375601
32.5771672553606
-1.22462346011421
45.1145343550454
29.3356649559234
-98.1365153138792
41.369553823387
42.4455608140083
-5.8388748027328
-12.7726500569682
-15.7199250086489
-17.8165517167412
-32.0356522236122
15.2956164449621
26.3693554515135
34.1988595959606
12.5208423528543
-5.8723179637419
-40.3051747733388
38.7690895295273
0.413442593885165
-51.9308753082285
-58.9515589048338
43.7385895920392
-4.06946796396671
-29.6470843879493
52.2716280974515
20.1781126759155
-3.224775239419
-48.1130661005891
-44.4230229264074
-19.4404221390411
16.1705673975459
42.5146660855637
68.9132257423209
60.2572112439221
-22.9910821357322
22.8997448282107
19.3558172683715
38.7446261891486
-18.3528700743312
83.564375182711
120.091795964083
50.6821716480016
51.2935219974998
27.5066916450979
-128.205174794465
24.1792484838733
28.6674278275309
9.2327917079698
12.5537901743562
48.8722216804231
11.2376052026682
-17.0346262512463
-13.973235017222
17.0801634019395
-23.1380863826461
51.7329095258003
-7.35897460436962
-52.3121612728975
-19.4425971289032
97.500686108855
-48.5506430465418
58.0582259642148
-61.5726793009938
5.47830655231529
68.183088222005
-27.8047529914063
29.459519844458
10.7269135697385
-72.3869488763103
5.56154604163305
42.9893793406256
-19.3061384317871
-24.9588607337061
40.9058019569752
69.089591174319
56.3225470818831
9.59713323843018
30.1694308949149
-59.9909984150816
-24.0792241607852
46.50819740952
60.0234518941968
71.5332193681996
-61.4777311417053
10.1417021015545
35.332922875297
24.2807975883592
19.0428807155131
30.3959721726361
-19.1414978112545
10.9805159426188
17.6155456903159
-47.0718736164561
32.7825850979357
-22.8022790185844
24.5861518206137
49.7633251190899
-61.3091404552034
-98.7094352851798
-12.7336804861382
-43.4744537850403
-62.5507364648824
6.58070007124416
-25.8315838747929
74.8664584979188
15.490986899939
-20.1828359556496
-57.9067853598115
-13.3540098638598
36.368525016976
80.4970581172098
-39.3988214541452
-82.9641333212836
21.5317436855017
-33.5178521365676
45.574717041345
-127.524293694722
-7.33553629328439
-83.8834288942565
-22.7294684253463
-32.1898236230271
-0.950659097032003
78.2076279347207
-7.53118570386948
78.9752692984738
32.8335925197566
-55.2210326964355
40.0491144123291
40.281922011421
-5.26340060050239
-31.0565301530602
59.0614995574103
-66.3339603760094
89.674519092767
14.0717337441676
-3.8839572363225
-17.7646604459113
-1.02329520331682
-73.3486397423509
-6.31637509253438
-60.4544251889777
67.8340981422155
-53.6579885834277
-5.81320738455351
28.3712732206407
119.440697145363
48.32176957321
99.1505527599459
129.989536831769
15.6557879499574
127.781446291215
80.3699868512393
-6.09075239614661
57.1668544711604
10.0951359418876
136.774047135707
135.492708796811
48.5108762001387
-36.2821907164914
42.8630071243435
-8.12819231646833
9.75521030455979
40.5736119676782
41.1108767560688
57.1166729525393
115.80832718824
152.262201773196
102.713431797835
100.831185289249
121.785378432469
2.38470629977784
21.5875551455005
41.4867394903869
118.853901405253
33.7456956973664
-104.341781916813
63.4833875071101
50.1509194050772
101.643125219076
-41.774293830235
42.7657093195465
-49.685699888012
28.9842259919981
26.6575910565335
-67.0202273131614
-52.4315835511066
50.0221673406874
-20.2425327717399
5.09703094462799
0.106994752217932
16.1555613570927
-13.0144013138026
26.7111922196586
-51.7155007072157
-32.0890189701882
-4.31456696529451
12.2749510936426
2.30147442391956
-36.5228157499549
-34.8557186408223
67.4247866109683
-23.3110119400778
47.3190287632826
26.5265381922376
28.6842233448948
-41.0973940956185
-23.1410880112078
39.3534033334495
-52.8715028591648
85.1173817309626
48.2640607716239
31.554379904502
-68.1730441221019
-35.8382075628366
-9.38091865598183
-32.7172904931851
12.6534012816392
-15.9591111858171
39.2949747585894
45.7693976757368
39.4691754398358
25.2766707800086
-15.7518735078016
-2.41133903402018
79.6389060401947
-18.2628050874242
62.6958214436836
-48.2786117572153
63.2346966229341
9.13501180234242
45.0183801611833
7.13258134523754
31.5209182286715
32.8501797825113
-50.3476506811552
44.0437952548337
-27.7911498822145
28.993547227969
13.283923278493
-63.6977952532525
-57.8519520978642
8.79178639892804
-50.1526258468089
-39.255767977176
-27.3003202177331
27.5674352997189
17.39931019918
51.9435375207536
49.735925147651
32.0242378038734
38.7963243195702
75.6406895296197
52.4491553905719
40.1510330750945
-34.6689857585221
-16.444979963447
-30.4852829284019
-59.0941841740673
17.3592683812204
55.4578765210607
12.4120093094363
41.2157226090905
12.8603838515543
42.2209221685255
-19.030084122595
-13.1716078108563
-13.6892170716518
25.5431594947199
-68.2352570937454
-3.02454168210262
76.8219852038001
-85.194067316735
59.8614701487261
5.6599299378291
27.1139605370765
-29.0734580198942
-42.4275846996964
8.17576234452852
35.5861170969333
-38.8021139224029
1.63136479532611
-28.0698571929917
-2.77010043335192
43.6341418951784
-45.2742429028249
14.5468546083998
-14.3206422060773
-53.4293903395792
-7.32532341664283
-7.93747597063543
14.7990073416066
91.1696177443687
-28.7337774013607
43.3666361810127
-3.15804935877966
-90.9562037840072
-9.24574957178342
31.7609507733864
0.75542819108318
21.3030035512334
-83.0584693375483
67.8042096578603
-5.15413420844432
-55.3580970937555
161.544015591376
-7.63593764958032
-27.8590502276033
58.5113895204093
55.5392831751621
15.4196605163795
51.3023754224428
14.8589980758261
34.8510438447337
-34.9543879459384
-29.5503115907716
4.48093222532194
-41.3887525019915
16.7607899529286
3.85293729328817
-35.1984836622559
7.47144016702608
34.1439980954443
7.23990457493095
43.4845995824228
-59.8541419784937
-2.0574996604516
13.5822651586526
17.3258909089189
100.800124243161
59.5691969690242
117.914261043628
35.6151652184278
-10.4084529935834
68.9395490155589
38.9373651765258
-34.9670093859886
45.2595825295446
32.6802544936416
18.0148590128005
24.2978355214306
-17.801552184096
71.388362072031
65.2014022726306
-75.2536642186514
-60.6223198474016
-19.2084058242475
16.6443800961225
27.2720373580179
20.1710830988795
103.718612152356
71.3961994359021
-6.07396350398731
-56.8303890289333
14.2912957498016
-97.1303354476225
-10.0232535477553
-23.8304146213812
-17.5197280104909
-24.0677832991427
29.9153978346162
27.9240403328931
-17.7004042972213
39.5490350507134
-51.1411308334397
12.5420463252747
57.0768365217598
-30.3301723794434
-39.7378240915286
56.838553221238
-38.8592374049148
-15.8702653342941
-75.2709089576041
-95.10442693422
-117.659576430411
-39.7192748463732
51.5813959294539
48.6744638197841
79.6265959877566
-37.8332364544948
-5.3326228873054E-03
27.4986192312121
-46.7305471647106
8.68327279275366
26.8117234100257
13.9860605140993
59.5347087153321
-149.400540729566
-27.1163993877482
48.8321792483935
63.5746078230963
-7.84933614185862
-47.4576893303272
28.3043894599304
40.9898441065467
-71.8728332116053
-90.9203378275824
-44.0875897490446
13.9837841610349
62.4956738168784
5.39209614145002
-19.0393728477776
-76.7386141884602
44.0902956239631
6.75269577924973
2.57228319801851
26.8217233399819
-26.6991507695447
-24.5115049485516
30.7991341380076
-27.4447112199061
-58.0318877985728
-52.8263205679899
16.0948136114677
-56.9149588728155
74.367991525608
139.297439163099
90.7352685427821
-9.41636576080685
11.7295883455391
29.2289944395122
-40.7845254462723
-34.6416450161329
52.1857082965871
12.1817242738699
18.7380368553876
33.8199935112174
-124.60135921779
48.2733270419013
-59.3636512367528
5.04219797171069
53.3389058367968
-32.3104000616767
-16.5573526414775
-18.5261670323965
-75.6799219220249
47.3856924117648
-52.1803877066246
43.4884448963889
-39.5909647568222
-67.2994203798861
3.72307056692604
58.8421323621941
