-0.235780228738359
0.406601548736455
-9.63637506092917E-02
-0.334454675479084
0.52710870121435
-0.390218131450187
-0.735640687229938
0.286303049742906
0.985156680181363
-0.882130701695659
0.828116000678693
0.151712659630579
-0.915969202291777
0.572019882270449
0.490478181752413
-0.805864796913074
0.247407779637851
-0.682298062406741
-0.958387979029339
0.185811520682028
0.518647928783088
-0.159459169274216
0.567455259515153
0.751173707632511
-0.754644432510691
0.995309748683769
-0.414660129349005
0.676605321597051
-0.534176906522541
0.75395785102676
0.413877483106222
-0.470325081198322
-0.958879632097473
9.89573376951149E-02
0.81793953022504
-0.593492961343704
0.273857502283322
-9.88580927150572E-02
-0.676919349084191
0.745095955616683
0.264414412339378
-0.8534005012796
-0.240230990159821
-0.42599191719459
0.577696430739926
-0.28492701424642
-0.423697143454516
0.310059306766563
0.928240312310809
6.27131514495423E-02
0.250308374195009
-0.724805721766453
-0.46123871497358
-0.375081384917467
0.732229588793032
0.471935630925041
0.586996999048229
-0.469611704152219
0.270236402101095
0.838411057058313
0.727969883682271
-0.694597357983675
-0.805507191712939
-0.801892704849851
6.35552552931631E-02
-0.35225994818575
-0.720257195958413
-0.573859241463134
0.12850787228053
6.25263323224703E-02
-0.841313133626311
-2.70252183112699E-02
0.471865549276615
-0.822295384570325
0.924638298947565
0.818154224593599
0.234913640261316
0.894704734729926
-0.459536788289061
-0.829230859684472
-0.238339472942988
-0.819718643820088
0.961824795533577
0.78999931931381
-0.27496099144991
0.268380325510756
-1.37330784634928E-02
0.668232355759693
-0.488185178865876
-0.683715956773435
0.755688776625344
-0.999111100530073
0.681448720269751
-0.852823046558771
-0.431722736165163
-0.138771572631189
-0.801075505745093
-0.388337163484448
-0.803020292861986
0.805050707267486
-0.161179451314291
-0.686343845070486
0.265114917587246
-0.250652351038522
-0.332331275825392
0.97146063429186
0.395736556687351
0.900601630421046
0.833909181352845
-0.477261446427607
-0.170121905416062
0.252566550742389
2.95163239605687E-02
0.23246516694222
0.999824443756761
-0.769991117296368
0.934635895769185
0.525852779006593
-0.85292935553295
0.424025983780383
0.716339308721278
4.36203765798728E-02
-0.509355649158498
4.62006320362633E-02
0.224866805525586
0.504874522459615
-0.320016261716917
-0.277010138922509
-8.45036060792269E-02
0.363258688359984
0.307578059054022
-0.441611467596371
-0.278558002269937
0.954917947798826
-0.889905288597259
-0.987952912116517
-0.887051535202425
0.862217347861446
0.15273090143448
7.16646792118723E-02
-0.599981711457999
-0.444957633943669
-0.229955391067534
0.442619143129894
-2.90309116872323E-02
0.021900855206701
0.327534967738126
-0.965564577977196
-0.393712209064998
-0.934063764233791
0.971757440781006
-0.107164177713715
-0.732988079118093
-0.783647665020784
-0.547224826320916
-9.22453637630937E-02
-0.170864971025807
-0.206358669963615
0.831263605926693
0.121841685469118
-0.879701879431745
0.567396088677067
-0.57639947807158
0.270618939813499
-0.687704886898286
-0.341620517130973
-0.308210080645923
-0.695404435356212
0.232685833058876
-0.138086062205734
-4.89165925697169E-02
-0.924712759466403
0.481075271131951
0.407544181957033
-0.253321410553113
0.111225874915879
0.370384390714511
0.320318043852548
-0.458110817424718
-0.533312698940497
0.660702301604302
-0.988080095241775
-3.63020109121224E-02
0.995003971993482
0.813075897511782
-0.494717804922938
-0.732381500481213
7.99716253402853E-02
6.28587731862655E-02
-0.215808616881565
-8.76926180119595E-02
-0.147001781139757
-2.99370472372673E-03
0.159794670721778
0.175385189075682
0.230285286561954
0.516969918376445
-0.741194582426378
0.595438380440505
0.723471264511311
7.86089193011676E-02
0.26359468018862
-0.308808201401514
0.908808216258323
-0.07719588774452
0.37224780658181
0.887355348175665
0.684082862515721
0.645222586595914
9.70553165828096E-02
0.867665645127929
-8.65671087784903E-04
-9.90505864742663E-02
0.982797736143505
0.679157561765765
0.614961022830026
0.299466949188123
0.601575103804794
0.827717573278111
0.628050143224018
0.61772835078258
0.268822142907314
0.333485336804907
-9.29634673663926E-03
-0.656162345087933
-0.174459154146747
-0.744313763107566
6.47752520255216E-02
-0.738886009948337
-0.955327179097478
0.549992924862128
0.365373536172818
-0.707916302070298
0.744924446035434
0.287529952371413
-0.917272779940344
-0.855790794235337
0.533248405015743
-0.756849709424057
0.71454875953641
-0.566070580538812
0.247575801262259
-0.348370707114171
0.197873418066235
0.912852079449218
0.634283889594685
0.533936641943261
0.298491559741211
-0.8202961386542
-0.429725404413326
-0.588237819196311
-0.30226770956204
-0.166090197209036
-0.772569685514957
-0.543011886256301
-0.789502386722434
-0.58856035766244
0.977603403636464
-0.836185464214241
0.875086438226908
-0.359176668659497
0.549186882002804
0.484761873655149
-0.72551134727943
0.567004454637247
-2.82955561877194E-02
-0.962211339438783
0.380470230832595
-8.70341564739054E-02
-0.817251929907272
0.470279416080113
0.455910570849578
-0.316173267833051
0.821982831486355
0.356672116364391
0.107494261096627
0.465376930869913
0.699828474561887
-0.889988455793359
0.449999910638696
-0.871220912722321
-0.296181573796517
0.303729262593551
-0.474930709920222
0.725435372903003
0.493527431548963
0.52846732103563
-0.388519147185062
0.24078108974799
0.235349145471502
-0.550221690469738
-0.129408026105213
0.573032787755207
0.84129650329546
8.60496761628671E-02
-0.110244617349832
-0.387315529325958
0.70138778698877
-0.507983799758692
0.118155145530588
-0.379189084942341
0.737071617609231
-0.988259879589094
0.933649187267769
0.239002958408392
0.753535582073174
-0.944046298884895
-0.864155123013987
0.411024769980058
-0.468366929253678
-3.78249311653475E-02
-0.970224280739001
0.256049449168373
-0.124445962147576
-8.79764836564788E-02
0.94618716170393
-0.494405761224215
-7.97445849304484E-02
-0.891323768353669
-0.961419193459388
0.501042741823057
0.403058477244669
0.458423723844631
0.503806211655858
0.945906809142514
0.316709912218604
0.853797625737763
-7.86939071283366E-03
0.616746681040711
0.386595139763024
-0.178241061844607
-9.56425450628385E-02
-0.941066448714047
-0.847317972364542
-0.221048281500298
-0.482294956844726
-7.17961436506559E-02
8.71646188736643E-02
0.427041922472868
-0.561202719623048
8.62212739623525E-02
0.141666460915422
0.924677100153965
0.751259521759268
-0.181873335960642
0.393254147141594
-0.611381832868325
0.407052264845499
0.612323127849638
4.64022399816657E-02
5.11033785912618E-03
-9.51826910490922E-02
0.827508006120771
-5.15588899870079E-02
-0.426424491504196
-0.894849749861755
-0.73076999317192
0.98891030649829
-0.341775629447381
-0.848145001357535
0.208014306604149
0.278630306918803
-0.310798061148194
-0.10012410663948
0.693365637918538
-0.157803812424953
0.333396045635945
-5.2562669392151E-03
0.152723096965983
0.707987675824606
-0.753946460279527
-0.194986875252722
-0.788292356596005
-0.257319811370659
0.917865223521061
0.778308476019971
-0.568231962667849
-0.647367409870499
0.748195353897898
-0.526762960015601
0.233596817681877
-0.737582409300096
0.703648028792898
0.513568123461662
-0.340546516320815
0.981151600501248
-3.78224019704115E-02
0.017717623712973
-0.175202240810332
-0.719828541558866
0.796466606950866
-0.324281433315137
-8.05985994682616E-02
-0.969004083185114
-0.38369028934642
-0.422502056958174
-0.559627354534118
9.04004601361073E-02
-0.431741848251189
-0.859578397726994
-0.025707114081821
-0.430174906999842
0.381794838681881
4.07092450026076E-02
-0.707068834970968
-0.210775835603781
-0.745174594365932
0.9224618860966
0.786767070809806
-0.509140305747294
-0.512713003514113
0.839685529717466
0.3328189976337
-0.523571554146543
-0.69980884756405
0.88083460933229
-0.421960362546145
-0.268694940762942
-0.181566253575749
-0.767960048742754
-4.28319304493391
-4.28742660254196
-3.05078031288475
-3.54567364535298
-4.44919645253755
-2.7970910260107
-2.74603332776826
-2.61823438949033
-3.65815601384858
-3.62973364066431
-2.70993306019048
-3.80834853968914
-3.89702542575504
-3.17628441378576
-4.31009779646503
-3.74557661739193
-4.0795641026347
-3.08133762013912
-4.15197747044173
-3.25979309081938
-3.74115592581629
-4.05992192878874
-3.89658478062438
-2.7595209324314
-4.42578740215942
-3.31974530345143
-2.66769423978091
-4.54249259278369
-3.45579862492636
-4.07200731640267
-1.9920518247283
-1.5791475156651
-2.0777535571318
-1.4009820675996
-1.8626217695382
-1.1906360260537
-1.4680115677072
-2.2371834056973
-2.3488821088752
-1.6112590466599
-1.7593161188136
-2.3410338740786
-2.1996643410527
-1.6811318657738
-1.1149506676101
-2.0535682180704
-3.09301717354
-1.8582202494675
-2.929746788875
-2.1078115530951
-2.584058872808
-1.3697558976151
-2.477463189732
-2.0190818397403
-2.3857668334287
-1.6413981486851
-1.7517892969468
-2.4845751571379
-1.3891374427092
-2.1483680950803
6.3365387396299
7.3777974882951
7.9118661809806
7.1738598081137
6.541287841043
7.9342443713369
6.8786767983637
6.5408633783482
7.4854865467986
6.7919114606853
7.7239096471697
6.1657717596535
7.6562018890432
6.9538883363207
7.677202699314
6.2982940554341
6.4909087087426
8.0689959496074
6.744755286903
6.4702546615228
7.6042925270258
6.7358412447799
7.8897259068415
7.1307531222641
6.364091128958
6.9960139093339
7.2766654327843
7.9357066094452
7.3968469784655
8.0391915450488
14.351677684343
15.850674049611
16.089207484982
15.643309801173
14.871014775507
14.832501382095
15.647675979734
14.885845096043
14.944330408688
15.57446831203
15.38948175097
15.787647655137
14.324830059262
14.231257127029
14.259503437454
14.388653604722
15.157072077749
15.784205014181
14.702945311115
15.905195469561
15.584190134564
16.163942204807
15.370731848721
15.481520556065
14.419822418632
15.816658308851
15.094351500626
16.023518340693
15.906048841069
14.481880256442
-41.060853632511
-40.5094527768231
-41.292846720354
-41.156214164067
-41.770190270708
-41.878356983958
-41.969956743697
-41.275282721715
-41.460880296204
-42.314718770374
-41.484324662822
-41.991299895905
-40.859298132125
-41.632743907875
-41.288150224552
-42.085586910154
-41.251119357742
-41.250869830327
-42.083745849311
-41.018804350481
-40.8965565676641
-41.919901412343
-41.430349389777
-42.211680222491
-42.295591566436
-40.691997278747
-42.217382276358
-41.403105726582
-40.638348178537
-42.289380775402
1.99527298576211
0.785409387878008
0.196515718745107
0.456239779700009
0.197918029904109
1.14407099155111
0.317284552685109
2.29491555311081E-02
0.581563899206109
0.79971368467001
0.98768233680401
1.51889818865901
1.34080952023401
0.162223138989109
1.11730941635901
0.971260268623009
1.01756253262911
0.215038324861108
0.72520275744101
0.98944949930501
0.852606226491008
0.31644519632011
1.26246957526911
1.45856998002701
0.703033191473007
1.03501381351011
1.92720939259711
1.68195620764811
0.787080887955109
1.01167162407611
-196.23529414998
-196.932945332701
-195.76607911654
-196.17745393764
-196.181865598121
-195.56321182326
-195.45553200694
-195.28914940808
-195.72020138647
-196.25106554744
-195.589707449271
-195.33727136406
-196.70982758299
-196.781058611941
-195.308766591551
-196.57888941604
-196.45820790586
-195.63300817583
-196.481674220401
-195.53672036301
-196.63269308797
-195.451978099721
-195.33282686322
-197.0880170173
-196.27423676513
-195.72621355929
-195.26209176841
-196.99343466279
-195.35153764614
-195.701042743501
-0.318596176848492
0.529742531180034
-0.334502069419185
0.418628777281971
0.227409627722327
0.867273333861512
-9.36550579681722E-02
-0.387501968002425
-0.801192992396989
-0.428071306301191
0.152636842952222
0.771375129252994
0.737189268820572
0.609797554205259
0.318534302941319
-4.54281993139737E-02
-0.68150959336658
-0.913890013871964
0.8438535626922
-0.847893761231573
-0.096598651501647
0.979397702117001
0.107388686784988
-0.336447795031874
0.445827960533763
-0.943045845297484
-0.997372569359633
-0.744247590872452
-0.92633936807302
0.501195580640389
-0.934673989768759
-0.975494495923518
0.359641668605265
-0.354333688628408
-0.197826369111397
-0.839272739324654
0.016130913378269
0.401070921938659
-5.79563867511891E-02
0.40947730779643
-0.923912566608903
-0.554142072864625
0.216092979166602
-8.93672078381182E-02
-0.83640106253171
-0.937481042610295
-2.97612471574501E-02
0.322881669642073
-0.189192399290272
-0.380091096899421
0.423303922846
-0.341901674138363
0.944096070421269
0.133532679576994
-0.293607290455999
9.10553878615685E-02
0.640912498573385
-0.920114729463062
0.953819302447079
-0.84018431995111
4.96304435322723E-02
0.697571708569999
0.663180834885949
0.235039621311744
-3.16464350775659E-02
0.377075119643911
0.301930309047982
0.911833020458525
0.994591802994291
0.422680751496707
-0.289928889765988
6.56518250370821E-02
-0.613749222958885
0.464205166747596
0.233360284337971
0.714170278220697
-0.184608144676409
-0.897180007515049
0.718673582457364
0.539910015735613
4.97363839895935E-02
0.994400492582353
0.512950462438562
0.953818042006389
-0.737097694703957
0.50546976867579
0.429403373471523
0.917872126077587
-0.84712196510265
-0.679050101370038
-0.720559185675894
-0.604817046566709
-0.660746602019968
0.939572294068774
1.60196812893738E-02
0.258952942347217
-0.386756732800015
-0.13806044426817
-0.206092196606975
-0.232958136353651
-0.469444741363789
-0.542127295054082
0.32460313433721
-0.703218950902774
0.56566824649878
-6.18288372439479E-03
0.788422056559069
0.935067146823053
-0.412895537909901
-0.892277908223298
-0.736465733150734
0.731658342341718
0.766793012697725
-0.862050819761451
0.141488184096894
-5.10140871944529E-02
0.202638758647121
-0.855595141593878
0.321035380239984
0.479684497724211
-0.488074047265983
0.204234323641916
0.106829327928252
0.753435596566027
-0.555798274945568
0.621053065977536
-0.313161657799376
0.917609052043884
0.165799762007309
-0.944165695972779
0.822078947254551
0.85157806321047
-0.715819263034315
0.269210184348724
-4.54589570950995E-02
-0.337526418565563
-9.12185267373221E-02
0.159085971883608
-0.67605763093198
0.710535324625355
-0.913920139950247
8.41066923860572E-02
0.881214650288316
-7.48937454009977E-02
-0.199900715580815
-0.917343713429638
-0.203609514212613
-0.802291179792091
-0.604409115163809
0.528710225566687
0.180824376335289
0.976531549869308
-0.240351735089912
-0.989996982182165
-0.721551760691023
0.837045037409568
-0.111475398372651
-0.22938751869436
-0.171973723681636
-0.233642548254563
-0.430062201313564
0.929203687813029
-0.441859674126769
-0.825690046475596
-0.17283504802592
-0.134184337605874
-0.151097527451376
-0.767797166272008
-0.500256940483026
-0.335785015224179
0.479156619476516
-0.959565201219268
-0.123391526580118
-0.69651930868231
7.51974512414804E-02
-0.660772947473624
0.651023160669219
0.411625583011671
0.386799770579951
-0.998004459788734
0.632651711263349
-0.174299927301959
0.838617622891271
-0.611175040356112
-0.369331673241282
0.946964458785779
-6.02223656926563E-02
-0.212111376387071
-0.287211142418427
-6.36426092419417E-02
8.17571300349691E-02
0.635549198961159
0.648638677697284
-0.835372623765792
1.44028582240632E-02
0.981265648743176
-0.238117656581581
1.31364606148208E-02
0.862211936336251
0.75132264614133
0.644057248198688
0.115484191450474
0.92776220193257
0.765789164886649
0.224068696534402
0.436742202256545
-0.273555079900105
0.176003387469732
-0.459180636613948
-0.79377093963273
0.706418089939783
1.52723885988824E-02
0.232462308665692
0.651396144249587
0.929964579842467
0.89336465436721
0.234281373939001
0.724536593452585
0.627204858273294
0.5157651425196
0.468219581151158
-0.429331441023857
-1.96205135665969E-02
0.671552431564807
-0.589409255335029
-0.645913994413018
0.75668236766496
-0.390851413905687
0.340525802302355
0.242710233306373
0.479891469412047
0.307082939112129
0.800220507383304
0.843515894359365
0.715809093601596
4.73012531636057E-02
-0.660932528755496
0.188946167078216
0.743789560236051
-8.85571373307166E-02
0.967270064555944
0.493372343348518
-0.6036022837614
0.345898855500104
-8.94474815390667E-02
-0.669706534318861
-0.828492491296659
0.779354450298342
0.236095287498146
0.625112558944641
-0.144084821084819
-0.573089565692264
-0.289159227309429
-0.085033587978906
-0.153192650211529
-0.122231910566116
-0.14316990323132
0.696226714926431
0.117190245717608
-0.161146778094257
-0.415752763830334
-0.638069276607407
0.343651278342029
0.494645294361867
-0.988637792197373
0.225540429414763
-0.900409495522571
0.343868817963782
0.12158098725392
-0.565930118322364
0.214324599466542
-0.913406287942007
-0.238674584349235
-0.807239459032051
-0.591768161799534
-0.839316786126067
0.148481534804705
-0.344874152128797
-0.863627801717911
0.864417590804882
0.539671079536894
-0.923673741737659
-0.792217591828896
-0.347486976243201
0.99561591276214
-0.615523390231212
0.194910902014273
-0.844354434691613
-0.712618871056961
0.193628864213299
-9.25758953275471E-02
0.74898053764389
0.902298287134646
-0.536186776007022
0.2768803196788
8.30985992353153E-02
-0.163114830022508
-0.49233827139465
0.883533501116303
0.891100096894516
0.405095222266703
0.849778734139331
5.37947483621597E-02
0.598560289070197
-0.35625575529637
-0.435836316573327
0.96664511106129
0.788398161520219
6.29785350766268E-02
0.146631559163318
0.529558455701158
0.410612496873232
-0.531836393882366
-0.276681985834361
0.919259498003221
0.777229800442969
0.370588653158103
0.452995681634538
-0.370093005383961
0.845698225264406
0.107897262618719
-0.649930348122031
-0.368941640586839
-0.930646137398562
0.211170830120371
0.436760386442148
0.810036971658649
0.181474679864166
-0.215893591209159
-0.872877113662551
-0.741910425508516
-0.320170507123638
0.700746619970749
-0.947808202378664
0.156986753667018
-0.508481112998932
0.281734637900534
-0.845317524348567
-0.967515610732451
-0.676703577887347
-0.224916745512975
-0.186681043565793
0.963330839561629
-0.459551657469786
0.445962105083882
-0.998999817918594
-0.030730785576858
-0.932298461252921
-0.628976607561359
-0.962343393581498
-0.751250102312997
-0.231480918075387
0.136301439769755
-0.632210323494927
-0.803165127428975
-0.96546574672444
-0.446262316561484
0.974327689307864
0.206039575513483
0.90476390825362
0.239897643367534
-0.465428076783358
-0.862374579810556
0.934633140717154
0.441462697240809
-0.769352573035589
4.81200299487845E-02
-0.752266764734176
0.845594644106571
-0.753986124256963
-0.734390805320595
-0.27137357553714
-0.720713271678287
0.411232090084888
0.232609218018962
-0.847099351108845
0.180330946221301
0.206322781637241
0.667094696033341
0.201068660006413
0.513545929701019
0.383694529986832
-0.459478111282212
0.765796456492891
-0.590573125994112
0.844758621452697
0.131453573602337
0.737336323506259
-0.781606796114835
0.084989164454087
-1.43428108756877E-02
0.539930887600082
0.902325944789878
0.516327255531448
0.998313349802295
-0.907655418280517
0.726102684869108
0.282468888828868
-0.968762690124648
0.578570073890025
6.53527596000241E-02
-0.198283307948775
0.487782516324653
-0.559852178402993
-0.187328155803032
-0.796283642539431
-0.909640565107846
-0.660573103165591
-0.656949883076883
7.05391021182455E-02
-0.259729804892222
0.49348674507206
-0.709715952431795
-0.550787707036987
-0.213176214473563
0.741329540206119
-0.510342388324893
-2.80591164077834E-02
-0.707536933310116
0.982343780316792
0.358193930265402
-0.898097022182301
0.952900135783766
-0.788070037479802
-0.287705567758054
-0.983356548415638
-0.783977921425447
-0.719429677195824
-0.436401887583391
0.447730025359011
0.840595253513324
0.715514970143749
0.787408714554965
0.914477273381809
-0.354438713947585
0.469647266877443
-0.275946057256721
0.221184130193508
0.522983919893544
0.299982262610466
-0.247944035099445
-0.16852865854858
-7.75284607242436E-02
0.628642169800844
0.663008218112069
-0.210053918646211
-3.78342935688436E-02
-0.797955906378302
-0.728430858605037
-0.769438898534696
-0.918848668223293
0.639425067787498
0.109999171038544
0.192677073515172
-0.279589428414943
-0.950279043477386
-0.714817161231271
-0.540023216868081
0.904207293257757
0.296205593074163
-0.382906484001142
-0.555979167834109
0.791055061351792
-0.79881224852914
-0.968826019872913
0.753375024115152
-0.726812903669297
8.45388092524813E-03
0.843121481619033
2.08802958641887E-02
-0.474287727218408
-0.240964911044549
5.30817509034818E-02
0.805776263816501
0.041406924756616
-0.113732196122813
5.72721485891048E-02
0.944031125603858
-0.865642359566752
-0.700992044084727
-0.711430918185025
0.589369940485962
0.15543623561005
0.497248925247956
-0.78638830000321
-0.63086523793012
-0.26514674974866
0.852284704588756
-0.15751190433826
0.573250840154703
-0.748197716704958
8.39497762780854E-02
0.448086926279706
-0.898786900359988
-0.571526879146286
0.180358269969118
-0.454287586624721
1.11482061720201E-02
-0.544523212341178
-0.469045009511038
-0.650423371256316
-5.33520028971082E-02
-0.62200799974945
0.88158264305197
-9.87016607232185E-02
0.461210726871644
-0.393292629406994
0.870658579249818
0.856553435209562
0.316767239463088
0.364900021125339
-0.63155317387535
0.519537738993888
-0.798090416155374
0.642756225324543
-0.383199857090467
0.130918306657559
-2.91962803066148E-03
0.802306023469449
-0.745361231707151
0.643465084482685
0.708122223858444
-0.638891439170175
-0.285177765570611
-0.739429356687621
0.496226087791634
0.680091626930277
-0.809038112526486
-0.133619064289194
0.851459372175673
0.290713099309712
0.398111722027005
-0.857724036435661
0.888694195602618
0.418878988324528
0.689166669598996
0.642954683625767
0.988897436221814
-0.102182480663842
0.739187121898415
0.396394161027231
-0.434615533112853
0.109374438435344
0.972759750095771
-0.304531243090826
-0.396220623850833
-0.147039018952821
0.184895067903468
-0.334969560211929
0.806064934750069
-0.886349476237131
0.39385299073444
-8.32328754084858E-02
-0.336753860907722
0.585686469538632
-0.135322207576005
0.145171761786096
-0.412207944195235
0.504929176338214
0.455115247486954
0.87147011076366
0.356161115263648
0.853535249291762
-3.90254307869394E-02
-0.291628981865135
0.543355329264267
-0.677571708598762
0.975889051915167
0.49701864403243
0.375590480095047
-0.448113901270258
0.930819372424369
0.458541616763803
-0.516191297138895
0.117834205084112
-0.558465210032076
-0.893890198505846
0.409901560198153
0.491201938117137
0.867697307759361
7.94248844575505E-02
0.399151680092646
-0.230037208514656
0.075065159504343
-0.707913312082808
-0.993458054211181
-0.631754158107307
-0.207277609703961
-0.176707136089244
-0.64877802586963
4.41714701105482E-02
0.670131812417665
-0.161155199520003
0.47256162890973
0.657829577640576
0.164199128079519
0.492448926228412
-0.827137131241018
0.873084597195474
-0.275572657343069
0.236817465270269
-0.024059013046707
0.651656714944557
-0.605369789633152
0.265088801841105
-0.612572637348196
-0.16480499872583
0.912564712285396
0.906603039784152
-0.488213235840342
-0.629176963451682
0.664233303498482
0.717084278901944
0.262681743258302
-0.192096094460217
0.437496613771238
0.731795983343299
0.897458937646934
0.578536630342502
0.820028798803543
-0.10874746278702
0.413171061490945
-0.728438159101314
-0.700462506051155
2.58472063675042E-03
0.460690404581663
-0.380379761860501
0.649561627269959
-0.234326938725935
-0.134890958271445
-5.15892703637121
-6.3779494037148
-6.02832148793585
-4.81523728767726
-6.08664169318819
-6.08168085815121
-5.42738489204744
-4.40214503462144
-6.09837450669857
-5.52713745427603
-5.47587404938651
-5.6252003287107
-4.77374876420142
-6.14009201904181
-5.28036211156633
-5.12396018335383
-5.67488942688104
-6.27953211510413
-5.43741238067526
-5.9907582181869
-6.04876051737697
-5.09194791458036
-5.83557385062282
-5.2135954955757
-6.25620806694858
-6.03591371286639
-4.79037483600571
-5.55943623078862
-4.88004027014733
-5.04052543367495
6.79492367801879
6.09341238189719
6.55778941043286
6.27663472842014
7.62856973985458
5.80929774855872
7.57459587200257
7.15672576743078
7.46632699145877
7.62769873621032
7.3529379856945
5.99967714254271
7.76453178140988
6.0354246784724
6.22588722697938
6.68002037603932
7.44650208505343
7.52141970076768
6.30558573807271
7.72941429606706
7.20711513611926
7.1511963348171
6.22385639529004
6.93714541187462
7.72138635859101
7.30456304644222
7.0508923566169
7.53277595291873
6.27639756326161
6.63945056050098
-3.8321804484074
-4.1594975827016
-4.0880615463935
-2.82371662868451
-3.60880847062071
-4.6673216442416
-3.6662595177884
-4.658517940478
-2.81775889247441
-3.4396543439785
-2.94580151440441
-4.73467571320611
-4.27902099742651
-3.0984910029192
-3.18100970816381
-4.0014685011132
-3.6150040151221
-3.1567207512223
-4.2059789307941
-3.0064100218444
-4.6549107026916
-3.7980984045347
-4.1843662049359
-4.2090448506914
-3.8253986141172
-4.1149245073034
-3.15195623827341
-4.04307144888801
-3.8333767741394
-3.88613648932151
-0.6545298528062
-1.3608622238483
-0.8370191845902
0.14687713638251
-0.8175467739023
-1.6628099285712
-0.178810857061898
0.187318311890119
-1.6056379815435
-1.1697888469093
-1.96770652590006E-02
-1.0961543288292
-1.2388881047784
0.25962122490172
-0.265980052760001
-0.540874319450599
-1.1293716776563
-0.265359246510198
-1.4214025421851
-0.284681313760299
0.11460744624912
-1.0903404133099
-1.023471372798
-0.226358377045799
-0.502358971149101
-0.823256940975299
0.26029100489951
-1.3944615848947
-0.418212453752999
-1.1768102523226
39.4988648505201
39.7458810175961
40.3421884961066
38.7231961225098
38.7589249681153
38.8440139027775
40.1753425429989
39.8643237876725
39.6150348772549
39.8063452860504
39.3801681301081
38.8536057126942
39.3979182367159
38.9145798524303
38.7229984654882
40.1047687529035
40.1171476909864
40.2665775477698
38.8011704111537
40.2771896854397
39.65435715692
38.5622138283528
40.235882896056
39.1188435754641
40.0953493074487
39.0445078612872
38.6535171488463
39.5596429611984
40.3542350750149
39.7066750006951
-25.644373869063
-26.891792258014
-27.559991658621
-27.411348916451
-26.568683705169
-26.775754298951
-27.274275766593
-26.987973347331
-27.268239652372
-26.729635411218
-26.59728517174
-26.0597804897
-26.394904145232
-27.108722827032
-27.062957564608
-26.69889508699
-27.419021079875
-26.774998700234
-26.207344774765
-26.927786626869
-26.70242052543
-26.780202330374
-27.054523206165
-25.79600367076
-27.120181287769
-27.487771478353
-26.215074374878
-26.955448845046
-26.293833988566
-27.184138710233
171.684127225408
171.629586722186
172.842327720951
172.376781724857
172.617346264266
172.81430250893
173.173675806273
171.57122162407
171.51293243025
172.54924372124
171.234280520194
172.952247068245
171.3523392166
172.440086286517
171.708925960613
172.796593388538
172.160540072478
172.88169587527
172.375504092856
172.25937418658
172.180432302502
171.719695945569
173.058697356903
171.813531934543
172.883584847637
172.768170150103
173.181876523865
171.932538353407
172.241951305978
171.800015179429
-0.267344416228018
0.968993715824261
-0.130064346669377
-0.173148912539022
-0.10143902910186
0.888414505361607
0.243463178578963
-0.401714014204062
0.282788661619733
0.936639634131883
-0.987524562645241
7.57235331087038E-02
0.276037556712464
-0.749074143836063
-0.754467087809398
-2.62083189702996E-02
-0.361076247569112
-0.331055753066638
7.99755430821869E-02
0.112861695037993
0.840495651953139
0.746529221307786
0.898356051283579
0.489017711975714
0.401885518238229
-0.535826861127464
-0.988372685695912
0.843227042915785
-0.389851098190477
0.483899848728445
-2.6981699293381
-1.50064768351799
-2.10414147181783
-2.48770923760982
-1.23820645332279
-1.25896255544676
-1.69096437815616
-1.26792172865703
-1.23337359696166
-1.58961037606946
-0.918483703355385
-1.41613831750714
-1.57845805549893
-2.06322985251554
-2.57013280796286
-1.38885868635278
-1.34717387360314
-2.15810186643563
-1.26852049113928
-2.17399267008393
-2.35647643515657
-2.28213906564986
-1.20251340991376
-1.09053973255041
-1.43731845003629
-2.46248357566919
-2.0303343485896
-2.6705190034981
-0.903241778521976
-2.26783772375535
19.3844998941637
20.3416083465754
20.2640663287651
18.9592389669651
19.1760929541701
19.0309234229063
20.5778898530039
20.0832224774453
19.8306431420433
19.2609800705432
19.221176502056
20.0057546445435
19.7587007642689
19.0143616603025
18.9054739989739
20.0064489113538
18.8174470564282
20.54118511173
19.9090450781464
20.5937000848212
20.593749221377
19.5760134444363
19.0238599637178
20.1152173783211
19.3497619414278
20.2402789952563
20.3884324938555
19.1408906415505
20.2363602431115
18.7164599052616
-2.9567697040232
-1.4940097991013
-1.7042942258893
-2.0381067319356
-2.8823443022202
-1.5094085366274
-2.4972370940451
-1.7757512165436
-2.5576400669345
-1.4884941305021
-2.3634027031095
-2.0726724810294
-1.9220820453634
-3.0841090117115
-1.8741947620793
-3.3850090751073
-2.239342325069
-3.0088978836071
-1.821562828075
-1.9273341114839
-1.4112974703481
-1.8567604369281
-2.5147047822096
-2.5099876489779
-1.5939477749316
-1.6527644634769
-2.4235006167345
-2.4150196017575
-2.7102081042314
-2.5657844520164
49.5147333026294
47.9786246091935
49.3052855754182
49.557259938504
48.0245956126602
48.7916838499767
49.2664757493035
48.2645814943896
49.385999107042
49.428075633811
48.6231760392626
49.0095259855083
48.4605748269018
48.8170944086847
48.7945098717096
47.6396928972039
49.0735546527317
48.0052439490077
48.2774136570907
49.4328645403959
47.6396207653718
47.9202748355434
47.6813884599712
49.5853218787908
48.3997267298699
48.3741383021814
48.4754500931851
48.7085164312153
47.9269098562441
48.9282084773408
-12.5195074779177
-13.3470415819943
-13.5373690994012
-12.0867342397647
-12.199953961526
-13.3464290901061
-12.0388081150798
-13.5216252968156
-12.2453234645497
-12.8213481241096
-11.7517005000946
-13.1630698283954
-12.7299619488649
-12.2350245915177
-11.7591439897845
-13.3152136508909
-13.1341435659354
-11.6655453506093
-12.4714236346401
-12.1154759964399
-12.8971121420538
-11.7868207840541
-12.015955257558
-11.8584485780162
-12.73283928751
-13.4884688260007
-13.3536594310019
-13.2581242217562
-13.5944237509647
-13.1255268044174
-63.8856218116677
-64.3219781755275
-64.2257922949285
-62.9260056474399
-62.7103781991156
-64.1412844120614
-64.4795957313497
-64.3089114539614
-63.2761489199059
-64.2204085059911
-64.0079286872989
-63.7774679574582
-62.9438301211982
-62.9736785281808
-64.5477359195312
-62.6518833410546
-63.9355346370726
-62.7117936475352
-62.825502278558
-63.1931139857064
-64.2899592569682
-62.8205913048988
-64.0960578718874
-62.6436871101126
-62.7798395961945
-63.9033511456511
-63.5080644730798
-63.3737538756529
-64.2682382987568
-63.4136750412931
-0.253983127469379
-0.070153413706644
0.910603692712387
0.850659269447854
0.784941860936362
0.856621810806468
0.863638170695122
-0.308386456889959
4.79139876836741E-02
-0.651940131412045
-0.821595580488792
0.972956435591617
0.179527045963627
0.54425373684577
0.65176460081638
-0.82499271218124
0.896681109931242
-0.409702320440094
-0.188687790959784
-0.57677951746681
-0.958999797378213
0.20412806933496
8.63018606179657E-02
0.890915670929765
0.730044791585716
0.532871754743614
0.850963971306915
0.108099882645765
-0.757121701457953
-0.93734448919082
0.941583960267388
0.852467480430102
0.410312342629293
0.497220738200255
-0.960259111395011
0.355305530592423
-0.772578824531069
0.983578294508116
-8.23838992916777E-02
-7.58281889331578E-02
-0.83431919872188
-0.161670851352322
0.957298354864761
-0.234145874284714
-0.765644875027907
-0.983833283191274
-0.415472937785431
0.787259558085933
-0.774484453975192
-3.75323636073182E-02
-0.701668656453292
0.458523462441748
0.774347393151327
0.204768632844221
-0.168461977379809
-0.558231850889024
0.876161318835401
-0.936682965150855
-0.356862673515087
0.620582267533078
-0.676205941952034
-0.801226130387524
0.42201057024533
0.409432035640571
0.163847836855731
0.365538684348483
-0.427460027501421
-0.221143205407743
-0.282515825764005
-0.297944068165131
-0.243863707167747
-0.698558888259733
-2.87473047519726E-02
-0.835146520128128
0.478735338396593
0.705196971118536
0.215701965204381
-0.699045830686665
-0.557169508555695
0.915130050794328
-0.305716060321593
-0.546307589016662
0.923623594928729
-0.629595654221512
-0.27766952790598
-0.290141896956179
0.782392452796379
-0.476339354063024
-0.754355070880301
-0.578519349287623
0.896188574003167
0.860684489619999
-0.869481746863712
0.973457056482177
-0.238505178481003
0.522759899159149
-0.388256080355689
-0.381381956378387
0.820487606029248
-0.329313655231866
0.272472356092071
0.664717184101436
-0.337935352614358
-0.901423854123873
0.689510773804751
0.073218474491223
-0.334185716117596
-0.712809041737509
0.449939612523682
-0.382351440651198
0.885618447839767
8.07160568096008E-02
-0.37031645334853
-0.850329710147174
-0.989403429803872
0.477512102025555
-0.978061022990351
0.233924853725517
0.094613913005178
-0.355475426998467
-0.586872758773053
-0.561919232105379
0.411592683312241
0.196671387985009
-0.973692764193748
-9.75820214746798E-02
-0.727619279823912
2.66706977697946E-02
-0.113252820888143
0.463666682310588
-7.00525755365126E-02
-0.472589777122649
-0.688379080175494
0.570710362515677
-0.196807086392807
0.918101357885096
-1.44402219488379E-02
0.505153814054524
0.165671344266814
-0.432898855299488
-0.843943573948493
7.64715514111103E-03
-0.825954512036599
-0.301574107299243
0.367482981070269
0.311247553429258
0.652105135429869
0.675621250421296
-0.150248691055303
0.795991050884569
0.399697295973467
-0.824206236505557
0.18740882363531
4.23749862590217E-03
-3.80679106666525E-02
0.998249757716433
0.217228947093654
-0.405757848973996
0.772543537045329
-3.67204020297229E-03
0.237120867555425
0.959798245297526
-0.623699272279771
0.677652835036159
-0.443550803499331
-0.29331467253388
-0.961120656109615
-0.612823491296805
-0.822381168281111
0.952048923104832
0.468620395000471
0.66901743729531
-2.89523991468351E-02
0.500727601712009
0.603117776068562
0.397244675697639
9.04128130848667E-02
-0.647065886597518
-0.545407891333284
-0.427602547155814
0.57232547956657
-0.289411854746343
0.861524326097282
0.299670255540914
-0.925650057887324
-0.325011497162037
-0.339962688231446
0.396333951178261
0.527553531025944
-0.833596682429505
-0.732969475670123
-0.679895286887873
0.114535605280029
-0.753452189825899
-4.19129440911163E-02
-0.333187453533666
0.431151443168303
0.987809072325494
-0.773310767465729
-0.64513773272127
0.949911967113432
0.308468572075114
-0.472706195775493
-0.204379923861872
-2.46941119363671E-02
-0.218936382627439
-0.56666624210792
0.842999789449317
-0.833943740341677
-0.67858084619605
-0.217771073293116
0.122163214730169
0.396589638505696
0.878772606980667
0.733004055351778
0.456389811045346
0.239761087524402
-0.227195436879776
0.8281276824444
0.542811527704753
0.675144026808418
-0.838720911201211
-0.870298527946751
0.771849161370423
-0.238040180069244
0.272387559986378
0.291144828197319
0.141827369374
0.96298740186259
-0.501218644316969
0.029035577428854
-0.410614119709665
0.565558818697336
0.225668543513815
0.875782953360551
-0.262054654289366
-0.78198780047057
0.353240679040841
-0.67767522143252
-0.939373333567844
-1.52602997327366E-02
-0.125913224188131
-0.498943788661148
-0.239336559296324
-0.479767231664318
0.579141425613186
-0.587286368852622
-0.708512427629148
0.972293641476823
-8.89467268618971E-03
-0.633048176938929
-0.629691137683157
-0.953153158781715
-3.78334151185383E-02
0.784869357637511
-0.416849695630763
-0.698449482624285
-0.976757644603193
0.802752030108605
-0.764059464655541
-0.817327063155686
0.534850411807862
0.219819805070402
0.975406785985643
-0.420534858415272
-3.48888320747198E-02
-0.751221104463529
0.885151155661647
0.742526201274614
0.208271457965169
-0.743504414945797
0.256434290961111
-0.702576595056013
-0.242468487828794
-0.776875601105883
3.98311131432298E-02
-0.217904750831683
0.758847882029192
-0.998461185408524
0.103063663139421
0.646330486081393
0.497774786609968
-0.375071664716893
-0.148043152429194
0.973882537648404
0.709298051919484
-0.111059030595576
0.515603532328786
0.322543862599184
0.251005414879639
0.225766725729125
0.453466145968109
2.47706308598252E-02
0.142828411517967
-0.50892776891885
-0.788717738452414
5.12135870808768E-02
-0.248018942949449
-0.299287012064902
-0.265717285283874
-0.888223074406766
0.98961160189935
-1.73348547835082E-02
-0.859629159963237
-0.946407897868902
-0.213925886440132
5.06343735272292E-02
0.762552840361878
-0.187440483619173
0.824617040970968
-0.640685303809476
-0.210951102934497
0.18487663234528
0.538677025594673
0.767286449851936
-0.238843594582888
0.507236360655416
0.715856452267011
-0.98794248109927
-0.566923701595808
-3.08541611741529E-02
0.70205384963002
0.59276778225822
-0.945445232412983
-0.271919570170217
0.162107224797635
0.759592777774033
6.33296987785226E-03
-0.742045801175017
0.628700632257204
-0.775102531736413
-9.99619258010025E-02
-0.566346508824801
0.659175357090425
0.939707142802037
0.748289417324611
-0.260854345430447
0.320277025755799
-0.179921865976553
0.61743455752454
0.683940751870749
-6.62385887829207E-02
-0.338533778437683
-0.705529747903698
2.24498373860929E-02
-0.458828247498892
-0.354793320576319
-6.86558482038042E-02
0.693048883442452
-0.616008837112414
-0.180264683446629
-0.626026339187682
-0.471577193937798
-0.154235589185373
0.730195449271526
-6.00409106285815E-02
0.736030306164349
-0.234326021476036
0.973591635838065
0.778108688919559
0.90729513617568
0.808445835468407
0.872666169058516
-0.375466131000635
0.886395633242345
0.663351089683586
-0.309809389743651
-0.235786477361246
0.214289604801547
-0.754539891052056
-0.153620684679935
0.31356714188367
6.08773108151834E-02
-0.214803330915707
0.455648854984012
0.558716676102909
0.567971284976542
0.717630012001369
0.164961296318332
-0.984241905238179
0.348006659067132
0.620833498621701
-0.245493683060462
-0.876495977601
-0.48180783232862
-0.896971042574461
0.252491971511912
3.57995702203535E-02
-0.902933193405621
-0.498873322476712
0.419329736033908
0.849653865891296
0.850193192705567
0.528661694805661
0.372515086704674
-0.212929176158564
0.743984326816756
-0.400982965630196
-0.147979419836408
0.342602778470605
5.14258585091421E-02
0.450216256464368
0.16703396707278
0.215291987036727
0.850721599190186
-8.95428676649614E-02
0.218389291368929
-3.71954613311447E-02
-0.832343894098382
-0.831050277090472
-0.842944873081408
0.747203097911174
-0.665267214032112
-0.245487567105259
-0.782441183206363
0.285944635512985
-0.725086989129066
-0.425229744315061
5.62422650103627E-02
-0.821670029821703
1.36504576764068
0.83168994856219
1.52775958224261
1.14677324975225
0.29384455683961
0.404577953561467
0.24924299888262
1.41389944209467
1.90153250312134
0.37955677853783
0.530078770215023
1.43061855593476
1.37304331197354
1.80492695762103
0.28625100812179
1.47696668521707
1.35393052288176
0.46471147622874
1.41172594845122
1.27664335482486
0.567904095756151
1.48807136862159
1.74536609647427
0.69781672006926
1.33717762622719
1.95017020294094
0.25037803753025
1.85690734902374
0.04157664664779
1.27045748415189
-8.285685507376
-8.1012969207078
-7.6003771738077
-7.4227695397617
-7.4188342693882
-7.2047024279039
-8.0854247069032
-7.3172752822015
-7.1569079142585
-7.9120143463943
-6.6993244091082
-7.6991249518252
-7.3521359218124
-7.0096104551645
-8.4103915614438
-7.9597220462972
-7.1809070321947
-7.9222694058992
-7.6855438359604
-8.0822216063062
-8.5601503733914
-8.4936985470958
-7.7218096827416
-7.7365063981262
-8.3837141925657
-8.0611653436327
-8.4639906512539
-8.4740221855555
-7.8836132438042
-8.304395879354
-5.4444025932818
-5.163378108434
-5.0299993268982
-6.6922636988179
-5.7333558426724
-5.5447273106772
-5.4801945785615
-5.1816509172413
-6.9292679345245
-6.4055519072274
-5.5711113855981
-6.5412236380524
-6.5450378789816
-5.7925868005315
-5.6208666958345
-6.6787225980354
-6.7625440465892
-5.2742250576267
-5.7643834180135
-6.0437294436492
-6.9298635835475
-6.1548579344902
-5.294255767985
-6.1587285326905
-6.9660443086124
-6.3172111467739
-5.6121396996821
-6.1996435636341
-6.6159954344488
-5.6308490924663
-3.21741407475531
-4.10288728819659
-3.06329694321699
-2.41462757138596
-3.46884258691526
-3.71932274476162
-3.56146294805252
-4.07798545818259
-2.95145071071618
-2.86639274693643
-3.68442728444709
-2.99057425142385
-3.36481650692663
-3.94803485559441
-2.72475553097637
-3.04183507724777
-4.1204582427229
-2.31785762667863
-2.88332056278222
-2.45174095260859
-3.09498659229265
-2.55441358573102
-2.99691439025185
-2.98103203795965
-4.03217276470229
-4.09826394147785
-3.44050236304916
-3.56388101202517
-3.72106944990958
-4.06888891879939
-1.91856099837106
-0.9480348354351
-1.69880464435541
-1.93535771809039
-1.52517441396334
-2.57708863147921
-1.23565359558725
-1.45803057275231
-1.10529948696416
-2.08665705206685
-2.35647810200216
-1.54942566621874
-1.18984306628375
-1.01081736148313
-1.2366070518933
-1.0207421933229
-2.2049306222521
-1.20730818393713
-1.08171617854549
-2.1863910501384
-1.67097809596183
-1.50957742482501
-1.96024952863025
-1.39224332281325
-2.10991489248433
-1.60088163443034
-1.40340952335374
-1.11416646747108
-1.76913927122464
-2.48024912261715
28.878273159979
28.4582226452427
29.7514780790784
29.6477720047529
29.8912942248941
30.2817990459789
29.1179917321814
28.478049931365
29.088975103971
28.4500177790406
29.9218959599525
29.2858494309931
29.2587424284824
28.8678410509245
28.4362368149103
29.0406065126071
28.8069391004633
30.3481381052093
28.5960685731669
29.3971390518328
29.2097336888306
30.1603314673659
29.0157665070046
28.7093245962763
29.3397108312349
29.2687041925795
28.952973953857
28.8241680304742
29.5312406468214
29.4169234341716
12.0387272851215
12.3395721077464
13.013740954706
13.2469759253988
12.715567549693
12.6470142378239
13.1204618420846
12.1848518614567
13.06021368898
12.8307239419232
13.0714373874588
12.4819544214692
12.6146377129348
13.9578458588739
12.7327652658706
13.1703522009605
12.6091475671217
12.0694636284928
13.1703906204154
12.3716332944482
12.9333495180453
12.6702509877015
13.4450858882453
12.793259724935
13.7956270987252
12.1149065305826
13.33633429266
13.7529617016979
12.6090395236635
13.4024198024166
-0.46366004929698
-1.30914784087715
-0.74869198157528
0.51460652927401
0.321403592348569
-1.13941798977785
0.46882413126706
-0.42675833821091
-1.2135818664341
-0.26500212162031
0.42937966852276
0.34050935712792
-0.98074589742373
0.218404171901019
-1.1244161908506
-0.44962003924608
-1.30467936486494
-0.37332778005414
0.59069804477472
-0.16608563820076
-0.111396643829931
-0.02192026258203
0.36088584149006
-1.01061321894731
-0.176004018610191
-0.16809539278939
-1.29736111518046
0.44850782564833
-0.7632420368532
-0.88156246696569
4.7214080872111
4.4029201965612
4.3584467894646
4.5232186589949
3.9772326450599
4.5805299129985
3.7146882842316
4.4199439817618
4.555426117826
5.4991267091464
4.8986644154588
5.0906281336568
3.6751445268238
5.1751380058682
5.2752137749471
4.028250234647
4.115926464842
4.7282510264011
4.1739552255205
5.4862509203001
4.502061464666
5.0980287754999
4.5458609811184
4.1208885945307
4.0569081596589
4.176536007277
5.2862210987636
4.5666037401234
4.8240490513785
5.0613815791494
6.79569005232299E-02
-1.3088188792985
0.14943549768982
-0.55352485657208
0.18275634216511
-0.303360043542539
-0.97155951607035
-1.00681444818977
0.15352028012769
-0.236577498073
-0.65599596171557
-0.53751996279638
-0.63987614303112
-0.8204067764187
-1.34317957705465
-0.960986846299389
-1.78848680144192
-0.54660026389631
-1.34421723527049
-0.75897456962858
-9.93271365950097E-02
-0.82331099221346
-0.96333403828771
-1.51469767288054
-1.10498447439816
-0.21168858818599
-1.15070547233458
-0.83566568843808
-0.556739326928349
-0.719212939040319
7.4382074110496
8.1932101352588
7.7208847499485
7.5001487947564
7.19909774834814
8.59666547025
7.9897411659666
7.20801687269834
8.6830711481846
8.0320999397214
7.11346358069923
7.30660143237945
7.9030312443247
7.9822661817308
7.7487822454487
7.37146887575966
8.8312674371442
7.5017251308908
7.3238980150223
8.6935495020387
8.2245853104141
7.06405242815437
8.7185750249736
7.6010037661319
8.2730852527309
8.432171460454
8.5766281210194
7.11320575756701
8.3409612528373
8.7620790495059
9.8099969826315
10.3732425262634
9.6524569485399
10.7506207443535
9.4946143697424
9.211969217622
9.5733816674732
10.9508626393772
10.4117918596826
10.0157995946956
10.3483551065589
10.6039983505468
11.1548615940619
10.0020534283487
9.9762144870988
10.6746191696351
11.1993285316676
9.2498216588768
9.5407841629401
10.4265669790812
10.4258034008759
10.1909515554799
10.561472827819
9.6394795537117
10.0885015612337
9.5348947155681
10.5879292294405
9.2415291414113
10.9381095390444
10.5828008478405
-3.2647467055331
-2.8782551430479
-3.4636641971855
-3.0196183106466
-2.4589754662429
-2.4142988927637
-3.8595215837629
-3.4342908628412
-3.1773244872118
-2.268755718212
-2.510142313652
-2.312746709081
-3.2764956472607
-2.4536795349858
-3.0080223827412
-2.2008943446183
-3.5421152788267
-3.6311418348374
-3.2152045168842
-3.1155255273313
-3.1990015927813
-3.1009499579205
-2.6575053010045
-3.2848212475597
-3.4843192812551
-2.3827315322234
-2.9043287073546
-2.4759909037141
-3.9312654001102
-2.3637593342026
14.352860853775
13.7484631607415
14.561335129224
13.1039992682512
14.0388470612118
14.4985052666649
14.1829115045652
13.6745151317
13.8062100217601
13.7076390093513
14.6951595695747
13.2758098982397
12.9300871697116
13.5457237605589
14.4626030039529
13.4307360015996
13.062135634385
14.6036053161034
14.368387494967
13.7235030453204
14.3982003112299
13.6037722949402
14.5887576854428
14.6554196348784
14.1052079494327
13.9478904809728
13.6469318247683
13.0962104224482
13.9563226521802
14.281207668538
0.62685556341451
1.26591430030771E-02
0.239414062907604
0.635462069363663
9.95811285542447E-02
-0.655781572344562
0.332405377316259
-0.193931158073986
-0.60021570203072
-4.38154560211523E-03
0.080083372035225
0.625998520410785
0.587196812125711
-0.87060355506554
-0.539531216138695
0.917903101381929
-6.25020967189068E-02
-0.533339648912084
0.1948608353144
0.337685359515115
0.929473777047724
0.94229006842987
0.734185272543317
-0.133152231604662
-0.769980011189965
0.611170626993071
0.245290662392681
0.167598244740216
0.925826941544616
0.964941967929093
0.624354227797171
0.183830203543468
1.03543254066127E-02
-0.405858867573148
-1.94272873653836E-02
5.27354486414069E-02
-0.293033583358636
0.218502655427636
0.261830814546514
0.385948514455608
0.593865085025016
0.508574085648772
-0.26494562328459
-0.714237663877981
0.693723554021831
-0.165306017484348
-0.112528562041914
-0.918904767700448
0.700689359808698
0.104770214858542
-1.89797277368423E-02
0.699530015205998
-0.660309541671337
-0.809812483395955
0.970658303362459
0.835886791193095
-0.512255668381718
-0.91043691087078
-0.211657673283323
-0.365568779490069
-0.865764499249687
-5.70394413186937E-02
-0.902034482739571
0.470961231436387
0.516891839326178
0.284562343228486
0.542552511366882
0.602655360434603
-0.157542655336419
-0.490307952523118
-0.766470602423001
-0.052293553121915
0.885822379671779
0.43246807286884
-0.227098745765866
-0.936594338800704
0.45863996802308
2.32612393821374E-02
-0.547314677676558
0.510481568674441
0.248221579574264
0.94051920219344
0.441963490275712
0.223140510102306
-0.150229022800806
-0.690588732556309
-0.249566312028134
-0.751605814266098
-5.02186082362855E-02
-0.649862041522652
-0.451644958700287
-0.725097986912757
0.56568610673785
0.921640148405209
-0.973702566637373
-0.259304460379062
-0.993381656177578
-0.17816681120434
0.394121947181185
-9.20642157402563E-03
-0.207597822608058
0.773382168126892
-0.152866247396929
0.949856505970366
0.152661651290635
-0.575574921678598
-0.631634805112336
-0.918330152928421
-7.47991518958169E-02
0.406541357541959
-0.910537718585376
-0.973613268846094
-0.31742651232429
-0.482346553788886
0.598663086930296
0.238100654832278
-0.261973932409434
-0.564559585837526
-0.937127388645333
-0.810540673531709
-0.683235874838621
1.72325289182813E-02
0.321854180035443
0.26667217555639
-0.374242654862621
0.205246907953679
0.216073021489475
-0.652596131433719
0.815064037690421
0.831414449244304
-0.674257016501085
0.235687310458864
0.895921649403413
0.203939597597949
-0.972856218866441
-0.377870048062282
0.56561598569125
-0.741875979803184
0.313290953136936
-0.95567192210133
-0.413593907906806
0.266877344168065
-0.820443317736337
0.44154401981021
-0.124450773724229
0.631727238427249
-0.45914453051511
-0.670657566183944
-0.214265802157688
-0.886967036056833
0.625523834847818
0.364021711826023
-0.810001616108716
8.4962429773241E-03
0.58203907538764
0.123317912060497
-6.75317922466827E-02
-0.748045321249563
-0.361761968101795
-0.701001492981175
0.966029654244994
-0.820167121960473
0.568711564774908
-0.821395254213654
7.02997336355171E-02
-0.199482352873087
-0.54543272209603
-0.712259032497921
0.428036705120583
-0.197686282582364
-0.239232526562992
0.370950941103399
0.535391486058628
0.248527869606027
-0.390234175294342
-0.491638854674102
-6.88311946556591E-02
-6.63813031570664E-02
-0.203818637571278
9.69116735867341E-02
-0.947467599275811
-0.287758594091311
0.565764286115653
0.66913664417868
-0.840646417226778
-0.236593795618396
0.472923482169529
-0.920904394507084
-0.283331180790523
0.71486080246274
0.734601540424753
0.454198980346711
-0.115522826469665
0.828196827243002
-0.585701635669831
0.49331075505725
-0.163625899258113
-0.966928115902572
-0.501439492188479
0.185652354628446
0.513284006898031
-0.500671476732099
-0.530731450405865
-0.168327908963941
-0.884180820502511
-0.351317184212689
0.32857069805905
-0.633814229810686
0.148558786928417
3.30453632523655E-02
-0.800673532229345
0.415733655232057
0.151806719753206
-0.655571657576914
0.602439742255672
-0.733759160978273
0.391153310062239
0.971782873156652
0.303476343071631
0.973707572431282
-0.277568936988646
0.983001596771485
-0.775523397281442
-0.780202406402023
-0.390579640559005
-0.814288108613204
0.332889282590133
0.195832489719336
0.843926835492843
-0.991624145389488
-0.351931153819907
-0.207158869331567
0.902617471665413
0.343603843538422
-0.453206571756515
-0.318046143240509
7.22684175683379E-02
0.208478843269001
0.402776592519586
-0.511428737768331
-0.515157175864266
-0.897920240427638
-0.738837900749447
-0.80462123963627
-0.973917072543151
0.278282124117803
-0.272494617480818
0.153418008079551
-0.283934073031773
0.802305615436653
-0.458237650701357
0.637067553575946
-0.392560848270934
-0.77763194161597
-0.588679147401996
0.747925097493308
0.506815434678605
0.963196510369015
0.593126202367965
-0.345775089358032
0.897075052593137
-0.863963354132336
-0.556532517644873
-0.353435841968573
0.323086858484305
-0.639808073381742
0.695007386249828
0.297352808855973
0.200626083334547
0.404015140812739
-0.425846315522754
0.13054219856966
-0.481967647144706
-2.13348732889022E-02
0.037885835177095
0.639828061207373
-0.77758287184769
0.855832473742077
0.387666449065356
0.237664595147401
0.216995170900817
0.631028406011604
0.309082594338576
-0.225933553667712
0.843380335016023
0.916921405859526
0.989377193538123
0.633316298539423
0.482451684928089
0.526597561173571
0.381047524355731
-0.901663426216198
0.479661531126141
0.294510511883912
0.90820185880291
0.666623792482214
-1.45773496610673E-02
0.583277403991746
0.953382475746278
-0.691714446523174
0.498477392744465
0.237368970072712
0.316077685163103
-0.72413996281385
0.909917153092736
-0.229869026552964
-0.49983792931725
-0.992761055779911
0.667786394253323
-9.15338713602074E-02
-0.833981088559428
-9.28447674634518E-02
0.31697091145116
-0.730104614411851
-0.62588485794979
-0.650662182399099
0.11633546234129
-0.090391195026519
0.350314315069647
-0.8894242675276
0.694842081660322
0.75050614703034
-0.580771174449856
-0.370424833733962
0.780645278217529
0.497118502926147
0.480428575871138
0.977633460658072
-7.80733668333365E-02
-0.465307165539181
0.943338004677437
-0.765205872214059
0.815496489028731
0.527611243811242
0.390170448317994
8.42887177303304E-02
0.36895604814145
-4.32912666587217E-02
-0.597737292185508
-0.130289232764354
0.944479376499967
-0.327057617356508
-3.63099993273955E-02
0.103508558872618
-0.632960432627695
0.695256540984991
0.647055777289782
0.472023703415122
-0.772830405849293
0.943378948795991
0.389867376816135
-0.248556822486479
-0.231886061537595
0.371672928364609
8.59234916012808E-02
-0.269326864422079
0.219492230534692
-0.941937826817452
-0.555344310672824
0.231283315816971
-0.175637372374585
0.202434520313516
-0.387618710711279
-0.378688168737709
-0.996162959177103
0.701822331357085
-9.70593886112012E-02
0.838860370351307
0.113167488269687
0.995047410474044
-0.348792254958316
-0.126949509467376
-0.934513052283909
-0.792591159690067
-0.318521103898291
-0.105947331909831
-0.26584508528495
0.276383299646634
0.173758492042058
-0.219459975126334
-0.508077293839716
0.702197656396436
0.814478651552895
0.662059454472469
0.504899466785102
-0.157475916679415
-0.965796736520374
0.275453307606373
-0.528434129895518
-0.741560961162433
0.863383652371524
0.428605852607577
0.381846986167764
0.51917792488643
0.478248186823561
-0.32857128199899
0.568522933422292
-0.913892534542329
0.862424225548855
-0.606859180359281
-0.166979832064711
-0.578270875401687
-0.824094084807277
0.996538237122052
-0.250107209312628
0.307416936462362
0.401497341431196
0.544090860175797
-0.610931339729494
-0.49601582741411
-0.37012384590937
-0.672657619672417
0.642200188758613
-0.64793643531958
0.947938142188878
0.180231843145618
-0.900773485770507
-0.315323338937411
-0.688900973713021
3.85945381932395E-02
0.993517754449275
-0.487741632302252
-0.99125430486754
-0.757758444633133
-0.881260652839905
0.34079348128264
0.37304378095751
-0.617342713545135
0.817838844552891
-0.303387489515497
-0.765174610556345
0.118495256213414
-0.845676338373141
-0.543215190969636
-0.703704672883011
-0.687307009129226
0.198264079171642
-7.80623617279933E-02
6.88102943056146E-02
8.91671870202653E-02
0.994220959133308
-0.781279658552962
0.315001194314666
0.963691573071598
0.225563663058966
0.582023645138081
-0.961975857130778
-0.927300125031344
0.849409068140356
-0.657545643965953
18.1767412739671
16.9053973386155
16.2486782590646
16.2324567043219
16.494148580415
17.0387044756372
17.9325331692096
17.1248620918905
17.8873829517484
16.3811980536917
16.7137208536698
16.7305395406488
16.701156812156
16.5513539567169
17.8011190634302
16.3072098228587
16.7924840514674
17.447038194042
16.5680420434252
16.2693769871521
16.8730764604049
17.6073321510075
16.6916312191122
16.5397213238001
16.8468061486993
16.42441926197
16.7059213834442
17.3451889478351
17.263143982617
16.4324009058771
21.3709379566399
21.5364030922267
21.2235008161603
21.3815494749885
21.2324471746103
20.996913518086
21.7059132141635
20.2006479326182
20.9317463735248
21.9091907806396
20.1145310685207
21.0567052376855
21.0221471145857
21.3571624368433
20.7138805140071
20.3404777095429
20.0585695856168
21.7704795370756
21.2738907400108
21.3378673336599
20.7489326288614
21.2535917784876
21.9301890547815
21.791408213614
21.1907886108425
20.093100612358
21.1551843232808
21.7126936307092
20.8639190461681
21.8997501852162
-8.5610254806194
-7.7242643220092
-8.2906285509212
-9.48319335902269
-7.6048706453274
-7.9971084286058
-8.102315736876
-8.3855331301257
-7.8650848297573
-7.6508699614708
-7.8261879801967
-8.8096716361175
-8.70545547743646
-8.4029476311737
-7.6364715575825
-9.59115742338301
-9.54645160302802
-7.9057763385034
-8.86414879433968
-8.261934971257
-9.55161464702888
-9.10399037899324
-8.96170290117006
-9.22009476981092
-8.1360837162001
-8.5787443942437
-9.24345732896855
-8.85952877148792
-7.623609596788
-8.61521507333546
-1.30266974104414
-0.650006739970595
-0.17489713867637
-0.760165965964467
-0.446774139787934
-1.58279775751006
-1.89409983202117
-1.15481713425303
-0.319900018128249
-0.709071036713564
-0.19177448303282
-0.334120593487504
-0.497031133363576
-1.09791899420661
-0.441588527831656
-0.876902124645748
-0.636900976532166
-0.827955546631453
-1.1145570619698
-1.67218921923879
-0.370956727723763
-0.201051340327036
-0.508570333418528
-1.23540436985868
-1.08345725457068
-0.828877494039632
-0.512457900976228
-6.39622604671901E-02
-1.70300597136299
-1.1925386011975
-0.152818874842129
-6.51688325939515E-02
-0.178552672746614
0.687315080097446
-0.568333042270107
-0.220179498620456
-5.31337375907932E-02
-0.892103739114511
0.859748680241139
0.533866641558308
0.523646032110885
-0.704898151417962
0.220751230123418
-0.284439256949426
-0.111847974955193
-0.105972073497082
-0.82780764702484
0.323450747023345
0.301306845709378
-0.321648805042613
0.316217707427362
-8.94144528951223E-02
-0.51598082521
0.343139673735994
-8.47820964302279E-02
0.578822850736165
-0.677486619472426
-0.916453638499423
-1.44932835916883E-02
-0.493513003780155
29.9513849708604
30.8122302202121
29.5989558342075
30.6796037317194
29.3694717312783
29.3312390042856
29.8259962234358
30.8660799244983
30.5033969631701
30.5494797684709
30.1694131532625
30.5538359763518
29.2059060158859
30.9247929664369
30.5668759375432
29.5680404739127
30.0608835859382
30.7100369500459
30.0811605857581
29.3892361279858
30.0642045800297
30.2954803542608
29.2505380992784
29.8132875564064
29.2593368672198
30.9651898723995
29.7378174418761
30.5257213638492
30.228880024223
30.7229928540362
-0.204952652164862
-0.19282975022803
0.37799004266534
-1.10601681982537
-1.4481028809838
0.34327296925373
-0.40709512498328
-0.629569394880671
-1.36074783301185
0.38152308626413
-0.482447715609922
4.63442231407898E-02
-0.424424766846378
-0.340800610504884
-0.23651394815386
-0.427169155563219
7.21005183900698E-02
2.06523738256099E-02
-0.746836763601397
-1.53321980985541
-0.446056875976084
4.88610028079999E-02
-0.806159981833603
-0.581700654171418
-0.652278112917843
-1.04468481148963
-0.510870395299581
-1.03229075071136
-0.247690607015363
-0.996080553085106
-0.68246844767286
-1.83919309343299
-1.81216131694767
-2.51124544203955
-1.25799329037208
-1.05851214087834
-2.59088847482014
-1.65782614140179
-1.83806136967091
-1.49628681819314
-0.62693097747279
-2.18114765213843
-1.82141290796975
-2.39980296970543
-2.23399939496638
-1.61695364035333
-1.98259456050764
-1.10691933681427
-1.57531627892713
-2.07953684483303
-1.96464109050856
-2.16775039439303
-2.07333880094952
-2.29722026279946
-0.96135329191757
-0.74015871140591
-1.52162009782936
-1.84800882550003
-1.8540034504777
-2.03511844603388
3.09592921378336
3.58340925696626
3.95496531776999
2.9498779205403
3.15163365846192
3.95027276783005
3.00344600960993
3.42158954734831
2.85077004881615
3.36957159457792
4.16584594438613
2.68108344090071
3.30619432579038
3.07782723282405
2.8831674189202
3.3635772127876
3.79467965145556
3.64721303964294
4.1984872079392
3.06645996025028
4.30728278488396
4.58653819449364
3.25409733349361
4.10427266375828
4.44707077062785
3.65825975658366
3.00383472717758
3.74232044997953
3.88105662647647
4.16182825710157
-1.1961066936103
-0.8140200213528
-1.68079266295
-2.5346876612314
-2.3323222838732
-1.7593446226502
-2.2280959789836
-2.3886108751189
-1.2949768961501
-1.6922731492973
-1.7717511277097
-1.5195727611202
-1.7866284299608
-1.1552728640197
-2.4988704018507
-2.6374699256
-2.3517388640106
-0.8066289898986
-1.5990319599482
-2.5279521589996
-2.3272512123877
-0.833045826084
-1.9714059048345
-1.6677929607215
-0.9298452214379
-1.6109719775009
-2.7812966608479
-2.5358528014241
-2.0982188835018
-1.5118520976574
-12.0811292407766
-11.6662051898885
-12.1989773299794
-12.2211172556688
-10.5448902092375
-11.0583546547052
-10.3824451259214
-12.10283542233
-11.3865190743572
-11.815335084221
-12.2399520639129
-11.991552685098
-10.7417301347528
-10.8238366553983
-10.4668774236015
-11.3299653485443
-12.1892289954299
-10.9213683035531
-10.4759714174795
-10.7956724591559
-11.6712726552933
-11.3138229331537
-11.3332073292304
-11.4723677348245
-10.8450062323051
-12.0126709028138
-11.0036524312907
-12.2204389478241
-11.8549935812819
-11.7543675351002
-7.6975793535021
-8.1890527274447
-8.1638440040419
-6.7454195533534
-7.5972748619466
-7.8864112497364
-6.9118211043602
-8.1449143721853
-7.9227367329069
-6.3869778688039
-8.2978043891021
-7.4521759597161
-7.1596840896873
-8.1040769613273
-6.6829585977066
-6.9105704005725
-7.3260409580491
-8.0933833353981
-6.5149501188121
-6.6693430658626
-6.3932868445757
-8.0774256055302
-7.7545343146437
-7.7637294812273
-6.4068030583628
-8.2933375373497
-8.2578217185004
-7.9794407603328
-6.4645772236825
-6.8657004898114
13.2734842672566
13.4390158515188
12.283636363006
13.1065701972852
12.415101528186
12.2958616609229
11.8643696362949
11.9857331675182
12.3236737577927
12.9587369191179
12.8056403110272
12.9274517034288
12.8065199591396
12.9160187806196
12.0639984232336
13.1344663651219
13.0343987522707
11.9688683980219
12.5053846768964
12.0193197368134
12.077573385817
11.7192503521065
12.35153190224
12.739133211823
12.9614784013146
12.796807211723
12.6759060188872
11.7533277132158
11.8668051451984
11.9616134390799
-0.382051183929638
0.655569189521005
0.139838441583872
0.526473271906144
0.181650285933253
0.244112065123756
-0.36760733405953
0.161567458857711
0.494244068880092
0.820103095909538
-0.443288981580855
7.58948416472212E-02
-0.776915012741089
-0.958700502035991
-0.480792790565011
0.814095202039732
-0.51646646542726
-0.69095454237538
-0.312055081710582
-0.536119492442207
-0.982062595492379
-0.370758046713486
0.152265181987383
-0.061558197589143
0.685566237070603
0.16343546312256
-0.551011435586342
0.179840824384271
-0.624378851479237
-0.72595855072514
0.958133462761168
-0.376465605364281
0.840206072412467
0.26810951139172
0.912108460483411
0.570821775423222
-0.858586067111658
0.756927583625687
-0.384148446514812
0.735144977496607
0.416445991365844
-0.425846820072847
0.141405398608204
-0.840187386927709
-0.513051439050089
-0.466949944568286
0.238932554984139
-5.11409660439759E-02
0.473516655995939
-4.62001354650532E-02
-0.502808891041083
-0.190609337537329
-0.976419979280959
0.854748581329349
0.890006007498007
0.272912090521056
2.06525112307641E-02
0.976837916746949
-0.238712310417131
-0.355234474167302
0.715191153796277
0.398363151141265
0.029664607301263
-0.775042867731065
-0.8979224543651
-0.602410878369222
0.934812411909392
-0.849714796466731
-0.933000989567082
0.433646469283722
1.07769502647481E-03
-0.673174906736082
-0.666226816757548
-0.358478771605119
-0.939989647821663
0.353466666182228
0.5669250050111
7.48416836312082E-02
0.1519336995665
8.13410481522396E-02
0.118591005344763
-0.919443718661796
0.917697466662028
-0.489386777504949
0.85609085744263
0.652487642988944
0.695274351003537
-0.904741429465601
-0.733727352774095
0.386138260756354
0.951876359747437
-0.791918566624183
0.605002980266627
-0.254986042148615
0.910782838988639
0.512374682735874
-0.755060557918367
-0.250878375108375
-0.726912391381741
-0.706740150259423
0.57198806435824
-9.08110673882909E-02
-0.211911337035285
-0.579111936258798
0.79061434337933
0.255543822954515
9.20587073391355E-02
0.549322287404192
0.820441889729138
0.648482293723143
-0.286348463078847
-0.600937127142717
0.10133840732201
0.207344063208102
0.435213590939257
-0.472182180354792
-0.428545729205771
0.658405551009098
0.302786968413224
0.863260818617952
0.342444716851159
0.677090921855163
-0.506395220054146
-0.546839657659116
-0.331627666051334
-0.112107643792751
-2.16041627185172E-02
0.382403629329999
0.689551842586998
-0.914218945632332
-0.543168841881136
0.613080048749112
-0.870134970620985
-0.544218490320009
-0.602039368942762
-0.377070871532616
0.635839655085703
9.27719898793011E-02
-0.816496717723733
0.149099184541622
0.76805079928115
-3.85351621846197E-02
-0.669629210850822
-0.911697472578552
-0.209830125615185
-0.413089109698971
0.559819274214267
-0.338905125349376
0.348251431068642
-0.771237266387952
8.41396712361937E-02
0.317146176066765
-0.107386327972513
6.79224410448875E-02
-0.102186486013226
-0.459988674521954
-0.733065646979691
-0.977910275466813
8.85755051039245E-02
0.704049853037015
0.273949255429156
0.207117643257294
-0.775159329541683
-0.557216215752395
0.224405916662973
0.773972495044673
-0.270530865176109
-0.39287578222766
0.485691429402353
-0.123513228695393
0.815857459758196
0.823537147644714
0.868817990393309
0.862983033396234
-0.959139351158744
0.906360050124938
0.327216131758443
0.435238392072116
0.820065047529593
-6.48785996411948E-02
0.888050848219086
0.481149337511282
0.354447805727602
-0.323144525098738
-3.45811435204835E-03
0.562847255333745
0.333473986412569
0.215046321187649
0.526034178934793
-0.370093970830616
-0.491801551076486
-0.859026031509054
-0.408668663078369
0.42767331683213
0.768954746215704
-0.530121639975433
-0.999930599222382
-0.716352323574585
-0.284270477246482
0.563495456719518
-0.313325232980163
-0.519785080606819
0.875335899578641
-0.227838301294981
-0.204284840967165
0.259946972283701
0.698015275918948
-0.746176825584842
-0.783781660109541
-0.339942194881097
-0.742887180585381
0.483926376681731
0.315799035172386
-0.164499288867766
0.178986944376338
0.339308618178309
-0.616800229344911
0.305583274555261
0.746329196804433
-0.679154214922515
-0.139882409135132
-0.353134594518556
-0.653413373533239
0.47375715108568
0.827953466718511
-0.444502543548511
-0.521806233755685
0.871106000302793
0.412387469966893
0.915045924096887
0.380837739061267
0.145176836686615
-0.22155189528731
-0.468755599489406
2.19950908115467E-02
0.483049655668364
-0.788990146802589
-0.46700122199652
0.65049461112566
-0.253167155043472
-0.589581238974445
-0.910634529162464
0.418876563182327
-6.43433342826171E-02
0.580211115264811
5.51131150756792E-02
0.679833506612207
-0.924329880675913
-0.856343522650626
0.43286755131914
-0.521965696297674
-0.194075654754674
0.998121658773442
0.127731787298725
-0.512851972037714
0.422166639986263
-0.898982658253882
0.370662428883521
-0.817099597982894
-5.27905163985184E-02
-0.121643964550325
-0.600225171290988
-0.603489128247379
-8.43200944272909E-02
-0.54328610039062
-0.485859798850796
-0.441125972999353
-7.4051806176415E-03
-0.95834372313991
-0.547471897020508
0.924364850516179
0.289348990725323
0.900451235790563
-0.800061320469053
-0.145837170862599
0.297342394154767
0.354161433403205
-0.21234060839706
0.842505398139565
0.728614883610841
0.943970475213689
0.427971790774646
0.385297271854851
0.234496371879784
-0.491134674296288
-0.58747544502088
-0.980982728297701
-3.25785912217366E-02
-0.703438321831917
-0.396220776340202
-0.101119691488612
-0.742302219676362
0.426825559344702
6.18263279313298E-02
0.138727778918512
-0.703840702182088
3.61092426817411E-02
0.37425975014722
-0.198865189431502
0.645273574862219
-0.745314170581418
-0.405312087428232
0.904739162090084
0.645416048510062
0.80223194662683
-0.654148943693657
-0.893188530874118
0.339662726834419
-0.564925784345114
0.606204444131285
-0.177397390707233
-0.590406259960829
-0.261919876438079
-2.57818825809842E-02
0.459019508293262
-0.203758345105411
-0.173559946600776
-0.207465857504345
-0.831303811571802
0.174457750435446
-0.592647261738218
-0.585486920745988
0.071542671807181
0.255611604661804
0.348891701221962
0.108592277218009
-0.755630311046585
1.26784320610798E-02
-0.586903479336817
-0.378731282837921
0.94520324604965
0.353410481380726
0.13259770847448
0.257410064223363
-0.482581742861164
0.511428609346483
-5.51500534707103E-02
0.486988367930484
-0.790163799102667
-0.51828860928555
-0.35468579723948
0.550221048280165
-0.247552197784265
0.196099066352582
0.980694409825621
-0.69150536298509
-5.65636021773662E-02
-0.183929048822296
0.775600516352716
0.676337663149528
0.731694528650761
-0.485805044580285
0.370775054735159
-0.629900857211702
-0.679959075676351
0.422289149043017
-0.651714121027596
-0.578119826690236
0.667860938609175
-0.956524921587637
0.528853932680577
0.932656487043572
0.437909541357236
-0.643056059210729
-0.951250394255254
0.876420815826752
-8.94689899783613E-02
8.83970388754816E-02
-4.15421296752228E-02
0.417564065189359
0.679565310302751
0.175762411178154
0.232577212866475
0.166605294113712
-0.952272949221565
-0.671069552420344
0.340183468048534
7.47709724308256E-02
0.955258050854578
-0.236108300521494
-0.402844909036018
0.255814524107286
4.17049488168075E-03
-0.314199095900625
0.406721965053741
0.923858103662514
-0.318586744835445
0.902131658386276
-0.808234002684292
-0.151071282451718
0.23780943165206
6.62270039568595E-02
0.332166234128856
0.25725195085665
0.845628833960914
-0.516808175139277
-0.257251697609651
0.94125665073991
0.636175126370075
-0.845786883672503
0.862162470861685
-0.505365096521045
9.78213370035097E-03
0.792035628549476
-0.229719172808247
-0.949307610263608
0.214130345800061
0.909460248894532
-8.85306902773173E-02
0.677614101230025
0.602809876151318
-0.235626365287871
0.473356542138137
-0.327837895732069
-0.785428558496829
-6.10423073049967E-02
-0.1445136418908
0.393711711699533
-0.645276592688925
0.637368963381821
0.859506986318255
0.993423427619431
0.713647414169503
-0.594682363115289
-0.757684709444203
0.418738987705124
0.223421929406359
-9.33829085435934E-02
9.58402531690463E-02
-0.588720280902519
-0.667942199883126
0.635915692133358
-0.84808466226115
0.866616596923642
0.665865842109862
-0.996537602852292
0.55795497511209
0.887272081183759
0.153992282811447
9.68993412142987E-02
0.928916319931156
0.135703749949924
0.605173142393884
-0.393285683417869
-0.44670728639084
-0.318088683353973
-0.544725525945269
-0.103872737049382
0.515651141491148
0.440698507632075
-6.65479887908797
-8.59717466957991
-7.40450856695665
-7.09348771717592
-8.25772798481647
-7.12089838486279
-8.48802929022208
-7.3808278709054
-6.61582419485854
-8.19140662538394
-7.19369770647727
-6.96830643403069
-6.69686383436629
-6.91804378485003
-7.21159657395536
-8.39820055358248
-7.02106803912879
-7.92954884604297
-8.07836741742602
-6.60839550672898
-6.62706727625956
-6.7944374078969
-6.62077798946407
-7.16465182046305
-8.18867423300697
-7.3455951294553
-7.12172292702288
-7.77705778081642
-7.4857729477548
-6.72518297937103
-7.3180199894926
-6.7525105469933
-6.5916171514797
-5.85931514669
-6.7420997383698
-5.922178641827
-6.8853140898012
-6.0528294973091
-7.1099194626737
-6.7575077580781
-7.5322556584148
-7.6628293173188
-6.6351678135227
-6.0504412410639
-6.596741814272
-7.5655355575748
-6.5150602472659
-6.8831360733124
-6.6600269281576
-7.5743468748682
-7.185759775766
-6.44956441326331
-7.5135027313925
-6.89786541608111
-7.08569246132761
-7.416000278813
-5.9807172639036
-6.94500446121691
-6.3927606501223
-6.7195002664046
10.4065876264924
9.30984550243561
9.08330793780769
10.5969034893073
8.89425241445
10.195257191449
10.5695032978891
10.3264704771085
8.92263789906898
8.75761831585219
9.18476176190254
9.55804209598022
10.4100888930093
9.46684090642879
8.92993926267483
10.2298084448847
8.8168029920218
8.70151406328114
9.89535400732433
10.5053963366868
10.293999340509
10.1587278276108
9.3159886601142
9.76301290223357
9.6267980736732
9.50293523137763
8.66420843758546
9.56377049472491
8.69523688594886
9.84986136901767
-19.7578838221232
-21.2467908108745
-20.4936336622071
-21.2243920874422
-20.5795680501458
-19.4495768395915
-19.8086184562518
-20.8522568223914
-20.0319500729718
-19.7079112512588
-19.6847364230048
-20.2056927679095
-20.5738089817247
-19.9759180350074
-20.9875810931521
-20.5416964157504
-20.1966648613633
-21.0287359553611
-19.5596782196004
-20.7706117175809
-20.5981168634868
-19.5335955611887
-20.7658207892691
-19.8988911722234
-21.2652364452035
-19.4178989452746
-19.5508456396132
-20.128814612059
-20.3500348574254
-20.1150520779065
-11.7073005206382
-12.3160322568712
-13.1467583046126
-11.6809080107611
-11.321934517102
-11.991658128455
-13.0959983909051
-11.8732896569376
-11.8289294262939
-11.3489995109512
-12.5433402299922
-13.0741697123724
-11.7442740652556
-12.4758668166119
-12.9705047508016
-11.4086946643222
-12.9896674532663
-11.6817685524651
-13.0946758294687
-12.5773491976961
-11.7358217964591
-12.0251545634477
-12.0969379780704
-12.7671669279593
-12.9040199265866
-13.0892307345782
-12.2934839486691
-12.5450025001705
-11.8612669378296
-11.6857275738723
49.4965136547749
49.4395103786774
49.8716407710069
49.8156361330219
49.104738224817
49.1015811777293
49.2083202961401
50.7283928857924
50.5924097829835
49.7801217575936
49.0314890051829
49.6643091882484
49.8542131401016
50.3813897584573
49.6778560370984
49.4442914384141
50.3576421922404
50.4063544715309
49.5429574086652
50.6590360293929
50.6501942394924
49.4986135320517
50.1541891844116
50.177384719072
49.0016140722028
49.9000797688034
50.4513087302858
49.5569875155505
49.6956534084741
50.8645480952686
0.817189460027258
-0.118984044339605
0.745576193761604
-0.645357077140629
0.317630740347151
0.726309591997492
-0.120093163768581
0.935537172466109
0.337539481663876
-0.537519866325542
0.52968307399878
0.679224616429179
0.341816206666219
0.888137356766987
0.245741860811519
0.106018058576855
0.842793541115226
0.329542322533286
0.484331168362566
0.715336039932697
0.822090972679191
-0.241366633502908
-0.978392727557883
-0.504267914491168
-0.16673457944434
0.231511625316428
0.392341878361449
0.954510345765154
0.802652219034568
-0.994887131193304
-0.30457038815007
-0.329837333951992
0.149307806974391
5.89333814247877E-02
0.868551794276347
-0.853747209118347
-0.739020350519696
0.43031848826474
0.106617989249529
0.833263234645014
-0.408454116506076
-0.234038027718476
0.483372685521912
-0.414687693842833
0.686381987947316
0.798906837140401
-0.96718019561432
0.531537929733289
0.29562742673314
0.079476747826245
0.556883576199378
-0.632663212310782
0.401341430776931
-0.779790489054473
-0.752010069448304
-0.59146286420533
0.463051996420551
-0.840996211003792
-0.149982216449513
0.401974617552058
-11.5227817005662
-11.4986689929883
-10.4716639664603
-10.9511692478283
-11.4503580736021
-11.1284944156364
-11.1205930933224
-11.5275149406531
-11.4041213654909
-10.6153539813371
-10.4172978213367
-10.5494787304102
-10.4867829151787
-11.1548984031069
-10.9175551853971
-11.8690800608008
-10.2911928075768
-11.9162413195216
-10.6160465361361
-10.8346404413589
-11.7779634626166
-10.0342180892531
-10.4408663715179
-10.2820609287163
-10.1547318986564
-10.9680137008356
-10.1220757879792
-11.3544743178378
-11.3744308366796
-11.5188235650863
-4.38272540941553
-5.70367804971391
-5.07892390778653
-5.7425701599456
-4.45350793440503
-5.16386284853212
-5.21084412626171
-4.62455755781688
-5.15243390947598
-4.21276165875434
-5.10045952054885
-5.70130602057221
-5.19865944601915
-5.44745268164523
-4.60587395918221
-4.82066728092213
-4.04482854921721
-4.90165994177961
-4.84385557276594
-4.92468107438697
-4.31502729233735
-4.31850374421896
-5.19506971175787
-4.12049315550599
-4.92568116113125
-5.46726343033151
-5.60147776527725
-5.37301317348583
-4.1444619563193
-5.25482330752503
-0.29514723450324
-0.50885191127207
0.19249609441185
-1.33208309174708
-0.60670320384131
-1.46443508562674
-1.26796437683472
0.2672775257441
1.86457209908042E-03
-1.44205142269789
0.01080256287133
-0.40631970800512
-1.54865997865519
-1.45595175733931
-0.62354448710752
-0.91993278303431
-0.39381829972515
-1.25647487069021
-1.5329791193811
-0.7018618196483
-1.47698139658884
-0.21353588624839
-1.41057870053363
-0.38841999618715
-0.8189107410024
0.17832812411925
-1.35202920437943
-1.50915008862498
-0.74501244570417
-1.45719882105957
1.19589598063141
-0.308033161183663
0.46859499773048
-0.273893798961737
1.31770776731622
0.652154889393841
0.860094200317455
-6.69748023071219E-02
-0.002486035724522
-8.19258999251351E-02
0.891474362173184
-0.566011085188668
0.388128899306016
1.19776335761946
-0.248045008785729
6.42444898416208E-02
-3.18986121311371E-02
0.715312289187762
-0.566730354131925
0.730250293111439
-4.14515358448242E-02
-0.05233156545558
0.195767569156753
-0.554912999430257
-0.431052458946219
-0.464122856175181
-0.102194269261412
1.03381544125058
0.65080570058608
0.188442201041041
0.9269208608908
-0.8186480104637
0.7603897456906
-0.6676140761007
0.7497850027655
0.5395727453901
6.64673882382996E-02
0.7179777347207
-1.10346212518002E-02
-0.233001370933
-0.4137258592006
-0.2540087533949
-0.9619762801922
-0.7564456962373
0.4926875598905
-0.4382597415611
0.1425064564284
-0.6154662148443
0.3078549725719
-0.4519651506957
-0.9971072767534
-0.6279529000654
8.32870127872996E-02
-0.8504107228441
0.6965827468495
0.1288621230184
-0.4363050513486
0.3743039759008
-0.5304755052114
-0.1213027578548
-0.758385013584432
0.242234743378151
-0.885907299478662
6.86601925453358E-02
-0.467871063518809
0.29095272843443
0.628349442656263
0.173669834907764
0.431755631119488
0.396389356357074
0.642831284684235
-4.06622826497427E-02
-2.71462786203038E-02
0.631151116782553
-0.295476186618403
-0.851072842914909
0.544641657251937
-0.342320225498155
-0.076300420290488
-0.878351787850782
0.724206260606893
-0.758476038060016
0.717811629143835
-0.736312667356223
0.645637692393415
-0.129620997355685
-0.572350211323734
-9.99885556383783E-02
-0.867307201097655
0.177442393215318
0.434483277835287
0.354126309863215
0.830156012006978
0.893022636754236
7.29280060487263E-02
0.614610438362399
-0.608668442570107
0.386230459891538
-0.887206792049876
0.331385432059404
0.413866701674692
-0.491028660497059
-0.125822606873024
-0.578674707592823
-0.736628586235136
0.417349247512912
-0.856400860586877
0.431947139928681
0.184065400571322
-0.67901776327649
0.974964203052914
-6.43353059260965E-03
0.167949009186469
0.698620922487946
-0.812314437181583
-0.8155585612513
-6.12395317459202E-02
0.418851421901246
-8.47108236155696E-02
0.44006997313792
-0.895753172428606
-0.582444509948681
-8.86464566856284E-02
-0.243054500821608
-0.95995741713692
0.109190385402331
0.485646653162115
-0.627283115210264
-0.609285250793553
0.54684248810886
-7.81600035145757E-02
-0.151161206073768
0.208298992790943
0.496398637530901
-0.980805682637768
-0.461560023076068
-0.304082368733151
-0.94692978425601
-0.995871778500977
-0.208723391584876
-0.716165099075011
-0.796104754735163
0.473595435372552
-7.07204257341727E-02
-0.662428618974886
0.827735024383502
0.260712821615587
-0.979655962859407
0.182464777215133
2.46715145076153E-02
0.154096780056252
-0.215348629055065
0.326329812766812
-0.620396766851822
-0.744119061109344
-0.413046748303476
0.771635713592512
0.790227560058261
0.429404154194534
0.399888768500258
-0.869114671827157
-0.172512123988842
0.76607289591425
-0.132453661570345
-0.106354345755157
0.246955121796607
0.291918414300538
-0.84487808473452
-0.35905484764903
-0.767496792631978
0.23788411926255
0.13966649914765
0.262518667427591
0.229029197922571
0.113894303475973
0.678556391433118
-0.695353514348772
0.808859091685104
-0.444728480536706
0.186459622269304
0.461100143971038
-8.31290493958339E-02
0.451084614323422
0.558213668258151
0.916972221491551
5.22580026643058E-02
-0.78247386490522
-0.405830766091452
-0.235065888985939
-0.52975564198456
0.245432236454901
-0.483803975070135
-0.964269536331642
-0.675042892231746
-0.470424895938831
-9.33129476523439E-02
1.94852704532158E-02
0.825049239482406
0.27837246804862
0.45953832724391
0.501659783951109
-6.34422313367291E-02
-9.38248801587455E-02
0.301221715807045
-0.702731699184756
-5.71269542382439E-02
0.226308406764823
-0.678290670748424
-0.96077679243361
-0.740414880311489
-0.108439914423891
0.949148137935081
0.561446860678239
-0.697636145094074
0.169821389690727
-0.891175254443932
0.414652815216478
0.918920315679085
-3.89476444851378E-03
0.726100053474706
-0.937535115496356
-7.85126989845791E-02
-9.18205161100349E-02
-0.935365073203827
-0.87219171548592
0.594147641864917
0.95157048909445
0.435368245783188
0.694272452542132
0.699729645363974
-6.92937271019832E-02
-0.631650785376275
0.114410909300902
0.473879248536523
0.486485373495335
-0.79133310799805
3.67090566435404E-02
-0.630690245549656
0.396572501154791
0.279359920473965
-0.564783438707224
-9.88800807337084E-02
-0.776762039400454
0.248330644212647
-0.689393463816669
-0.155537693778959
0.974573112288482
-0.857071928509554
0.428689274080023
0.248734359704975
-0.201569481241259
0.575004800420062
-2.78258591427092E-02
-0.74214519724673
0.894451982471536
-0.829106288558624
0.303738489242711
0.564079542401836
-0.191935772071623
-5.51088833572435E-02
-0.826771521155306
0.473200807499926
-0.938662794862173
0.411472922340794
0.649082173600679
-0.978135382980095
-0.320884526663372
0.600611964129343
-0.186169423876372
0.363132112045801
0.58484914632549
-0.177795503827509
-0.164201398511162
-0.27569924996856
-0.93093379292731
1.97549135947439E-02
-0.586107231814181
0.641392108915806
0.574443746954889
-0.139891719130935
-0.210371145384563
0.887603678936525
-0.105048920715986
-0.674839363241205
-0.469682357515938
0.538412844416377
0.552553894803206
-0.496881832803093
0.109592974954824
0.953911143924219
0.593483433449692
0.521016408247262
-5.37680906782091E-02
-0.890661353550959
-0.662909022593313
0.116851763051242
-0.990517930898447
-0.332322085036037
0.713823098387532
0.21881780756497
0.358877397166163
-0.536441802219702
0.744869267288654
-0.919220255836212
-0.941211214552698
-0.344389087477187
-0.555451831680387
1.72610606633017E-02
0.792721744620363
-0.295191819325212
0.967515854241365
0.587856786166105
0.199638976697528
0.549206804620031
0.176393398180046
0.200128568657721
0.464351379917291
-0.129089435458427
0.971428172562807
-0.468322702020799
-0.983713455593783
0.1889546305687
-0.29768219962951
-8.37699740353507E-02
-0.674290766489524
0.662206148410447
-0.226657856549707
0.89521770501028
-0.266265401579382
-5.07339945207459E-02
-0.843536294931285
-0.494538138322114
-0.987760366936676
0.247747092989771
0.943072928297891
-0.444771609631515
0.922044786353298
-0.276804596279509
0.293569996955624
-0.864952824514107
0.422502878566628
-6.16895195719542E-02
-0.815008843362638
-8.36625178352295E-02
0.382897829115862
0.606012814642674
-0.789598023269453
0.410018894499551
-0.344177747640752
1.52958674987107E-02
0.349797064053901
-0.711071038191576
-0.805032636499181
-0.183308321459801
0.110760180300595
0.122008657567845
0.534525462592975
-0.495430988108576
0.728154800319312
-0.575142115137617
0.394669867075625
0.896374150289289
0.215631028697002
-0.199596196726209
0.437343580390311
0.184314461657819
-2.22502173418284E-02
-0.874935190609742
0.268853027145712
0.722876486879473
-0.579958559561452
-0.770065054163683
0.670529446884432
-0.384040626240486
0.535331272433241
-0.666847769192198
0.735985127884851
-0.619702969042595
0.798179959020029
0.598756984496996
-0.896741367258203
0.487231110205335
0.865302819197661
0.62898546834901
-0.207592234764413
-0.577210897685946
0.55834722014988
0.44108539731799
-0.706125215204356
5.64112533970116E-02
0.396423175083292
-0.463619592721176
-0.499785260650406
-0.428438395290063
0.549297782423663
-0.961548984852616
0.833542375335623
-1.31517610069785E-02
0.49817982428384
0.558940638820173
-0.506680662686876
0.384169399199103
0.919536242915106
-0.556364716859525
0.133869187870695
-0.639208610529129
0.348398185087539
-0.641893367104672
0.478272535552436
-6.48434282784959E-02
-0.968870197067587
0.791348795811252
-0.614938944278364
0.16160868825852
-0.956351676255769
0.987479165274325
0.706394714643996
4.71144747611336E-02
-0.770399951040652
-0.940284626227046
-8.88288648937632E-02
-0.986549168253928
-0.195987769828973
-0.402520283813172
0.893783423374911
0.111217290859918
0.571456300293336
0.946624430889041
0.649006579250812
-0.532575810378904
0.623773979069134
0.524410397266321
-0.434240446189614
0.03629792910734
0.110933012728583
-0.974986062753631
0.977254962246325
-0.376665154239759
0.219595059046235
0.177975594891761
-0.697685558138077
0.365526100875529
-0.152506134532054
0.841146540407388
-0.377607194907294
0.376066610890827
0.627737647802414
-0.358671837532927
0.861120560586872
9.97516764924278E-02
-6.43351507517756E-02
-0.88005863358001
-0.132061082271913
7.56552761126361E-02
0.301898376744335
0.397702521066974
0.654668134448519
-0.733424555205735
-0.741240890477561
0.74142398108544
-0.206385142667504
-0.10987847089301
0.063214670181678
-0.902302864088942
-0.441909844497187
-0.225789958026194
0.968055676419271
0.652357129820566
0.77097532846143
0.660125390719222
0.754006627153626
0.781268869655652
-0.475761460477147
0.589193298325485
-0.911005008214568
-0.622885702969612
-5.79294652738009E-02
0.534504273366662
-0.053183223091422
0.468501836427575
8.18257362735575
6.97701662774287
7.99595346188866
6.49185942603367
8.10770353854448
6.37575731779255
6.76030999808204
6.73321316073177
7.69842967266544
7.64473113325263
6.65715956610752
6.52609435616984
6.55184454182038
8.02453862370807
7.93359650629056
6.9734580341889
7.86921890133567
7.32459350954811
7.25131414506646
7.45563717656877
8.02876519623162
6.21222175517147
8.01054008842798
7.79299683931342
7.93413644841065
6.83781454246655
6.25747724208018
6.45109370141228
7.63945492303819
7.4105978903772
2.8856141233034
2.30778660662824
3.9739287801992
3.07747288987
2.51978405431036
3.9458845732649
3.7238820754187
3.3077705107942
3.1628681107997
3.391559388062
2.77728813838801
3.3496560274526
2.78855253886236
3.0878904600733
2.8956622585252
2.59930854484099
2.9795669288162
3.0745500587944
3.8504354871301
3.3118915133212
4.0393449992569
2.43877812808288
2.14569645399729
3.5837212261145
2.34606548802185
2.70943604853863
4.0464543434915
2.54793064113556
2.67154639866983
2.58506947629177
-58.6586587731256
-59.5486836943104
-59.5465187504496
-60.0814486122322
-60.1090619011175
-59.5820527741257
-58.7119782671741
-60.0749837076609
-58.7523260924838
-60.0444951587464
-59.1992729851067
-60.2635620799501
-59.9194865571758
-59.7767861174148
-58.8425850518312
-59.704656774771
-59.602585353511
-58.6443852535169
-59.6075332414026
-59.2382044480908
-59.9691979429072
-58.8756816589813
-60.1393479712332
-59.4980786302902
-60.0639313849907
-59.6797245929912
-60.140443496761
-60.2671052286411
-59.0496164582307
-60.1480177317344
-56.1767892847759
-55.9815649305326
-56.2311499522633
-56.3195635670073
-56.5464665978359
-55.9594866413249
-55.9826784748294
-55.6504547161453
-55.2652808264177
-55.5828957480033
-54.9640487112532
-56.37891758492
-56.4332850971946
-56.6075399041246
-56.0651839988548
-54.8138237405462
-56.6425535574367
-55.4044748965235
-54.7572811570482
-54.7992934176134
-56.2705291345071
-54.8562521023391
-56.5574560276295
-56.1201250919936
-56.0747530601176
-56.4363087152498
-54.7287006073657
-56.0123942566263
-55.063769005142
-55.2935211798934
3.76025122706786
2.66932576189366
3.73452140149876
1.95525837008143
2.50031780371113
3.6020590580954
3.15179027248149
3.45350348161871
2.94015745443098
3.27366720968227
1.92875718273262
2.82711392585152
3.6591500441419
2.35345298541485
3.24947447221524
1.92991747910382
3.50473733992093
3.57923813063012
3.67821003434509
2.51131573950461
3.24335321046286
2.36141511013945
2.83272879700503
2.38645708799834
2.94644030020798
3.39236449103587
3.3562898727297
3.68346078727229
2.71781535389095
1.95001926072504
10.5916916515883
9.84885694086252
10.8659109699225
10.5972486129693
10.1142133651149
10.6115472051124
11.5341874286395
9.90412436172871
11.2463164334331
10.3372322190566
9.92527334586403
10.4580232484998
10.6554854838494
9.9493921568689
10.3891601656492
11.576909647728
10.9276035723581
10.6495475232122
11.5930407827875
10.6040334456304
9.81177267930556
10.2386676182184
10.9501479485069
10.6376685562257
9.84850542552923
11.1232353966004
10.657214560151
11.2374082571007
10.521730130947
10.2836170672667
63.6749425320079
63.6489240231153
62.5160666233501
62.1890266447582
62.3831334002086
62.0019851963073
62.7143457931505
62.4625150780104
62.0518990154107
63.3619275652823
63.6363621227657
63.4310550752974
62.0926363662601
62.8526494393519
62.4983631365352
62.9399328447792
62.687216426553
63.719604449233
63.3637957646619
63.3672991216331
62.4411019312228
63.7641508637312
62.5593459048856
62.2438716711266
63.7658756641532
62.6560080232291
62.2463214950214
62.8644230118073
62.3689252653581
62.8184609599296
0.365946810773568
-0.628172839286707
0.112797087410994
0.481344967929047
-0.281849886423698
0.60107970027713
-0.796003176109381
-0.290267688450041
0.286942767259616
8.98467322448628E-02
0.180780358669931
0.741634505760409
-0.908496178625372
9.37382759973784E-02
0.491744067284557
0.805923119826944
0.820599286583503
-0.811357437289856
0.591788969817989
0.742064002026682
0.298981080824089
9.90983254351887E-02
0.429299417268621
0.206149296794585
0.437926501663653
0.760822811949656
0.958142050737318
2.31030815526725E-02
0.7380943055005
-0.692846386328571
7.48035658684727
6.93282650609512
7.24138928485278
6.26330356807623
5.81017589792937
7.17843928246691
6.66954304974536
6.33896779319391
7.04727785839746
5.69766490666938
6.94063391231933
7.42896377818149
5.75693770986912
6.70379740817808
6.92078483536072
7.36322442158006
7.17701488767438
6.78057871754468
5.7467938006557
7.19160613284169
6.10647403426895
5.66570512975767
6.74646650149279
5.74561391571848
5.77740551096686
7.06057354522543
7.28693709935907
6.28828575907448
5.67227649576257
6.47926740956765
-2.72162852557045E-03
0.44512007394399
0.12040894696171
0.53767362915523
-5.97819973157803E-02
0.50306983182122
-0.20755283237161
1.38401229089473
0.6487936831338
0.7712681902386
0.70884204192114
-1.50484630263898E-02
0.29729495939492
0.81629033858593
0.8881462678216
-0.49312965124142
0.44185595631903
0.81639796556781
8.31789124793696E-02
-0.13027684205963
0.94457784507882
1.22335231009349
0.38788450568135
-9.86495564868202E-02
1.08607669199187
0.57702299463537
4.49767166190997E-02
-0.41703003254298
-0.32513323853745
-0.11283954059669
-1.7557772925718
-1.64802557741418
-2.1219940500195
-2.82166006373159
-2.22651027913046
-2.98394852188643
-1.77405500322163
-1.71177367372591
-2.73055891592875
-1.26696710211701
-2.2144618077061
-2.18405071272276
-2.48796553865838
-1.27622976983035
-1.1513114938546
-2.76348134685073
-2.28325913330246
-2.08927505462672
-2.34988391935116
-1.37114896063507
-2.89933161729082
-2.48714826229056
-2.39374551673034
-2.79088063476984
-1.8664594687978
-2.22225594445781
-1.64170545194322
-2.08222328575226
-1.16825565703024
-1.50509796604797
-14.4940883419027
-13.3222521562465
-14.2865706849198
-14.7906271242447
-14.1657722637358
-14.8770787869759
-14.8950962817291
-14.3570947158894
-14.4349254137485
-14.9097843362254
-13.6266595355954
-14.2698507554121
-13.2953586054352
-14.0248636599685
-13.6419295863206
-14.1096761365867
-15.0868955170688
-13.8301252834589
-14.217493362058
-14.3198339929966
-14.5121471078061
-14.7653510470594
-14.248991567777
-13.1881365046619
-13.9695606188077
-13.8028792389015
-14.4302397879981
-13.3299328970113
-14.8415981354951
-14.5686342144081
-11.5219947291707
-12.6750340107628
-11.373384302098
-12.6629845928315
-12.1642594372058
-10.9861974846151
-12.1611465262241
-11.0791720823255
-10.7137560480474
-11.4489080585666
-12.6412561095695
-12.2229114931133
-11.2034286991383
-11.471795586939
-11.9296627771096
-11.7301230398951
-11.323574047936
-11.1241440386831
-12.5079991389344
-12.6606161096144
-10.7144304432906
-12.0115528875785
-11.9866166451073
-11.1139041964546
-11.2377924100739
-12.252922908001
-10.8962986175697
-12.2691893015204
-11.6604498493603
-10.9715465458359
20.1306199480264
20.0050861851836
19.9650124562022
20.9498065474656
20.6325110891334
20.7958628078554
20.2962868576731
20.4753096743893
19.502892597696
20.7496457349506
19.9207822312543
20.2973956518548
20.7743635995037
20.3357690714101
20.0296934739029
19.3067519108672
19.7303694894846
19.7749068829558
20.9752285993407
19.677666274165
20.726644305187
20.0581366083697
19.949287111232
19.4207862820044
20.1701944475726
20.8135002073621
19.2441485390109
19.9932462193345
19.3822031316884
20.8211498146781
0.990496121363936
6.50525463225948E-03
-0.137749721595866
3.48047460398369E-02
0.21536560105216
-0.464867646714556
7.47590386048447E-02
0.336387529452608
-0.177624588724907
-0.694837068936192
0.29459477787609
-6.76524393505982E-02
0.66885969965499
-0.871456442202811
0.277258510476672
-0.70567923277321
-0.700708650126897
0.350571502154189
-0.439867555394772
0.853415426670311
-0.908352083609365
-0.209873684848367
5.47507101468934E-02
0.2765538168558
-0.416861083690618
-0.322118436134286
-0.743916186937357
8.49408113648691E-02
-0.436021388297094
-0.564424661208966
-0.126658297981704
0.618870781527902
0.162653714335058
0.789808670734708
-2.21849606521577E-02
0.909724752424814
0.593401768189189
-0.323268210838677
0.866790350041206
0.88915050231866
-0.50361908542863
0.669368726881501
-0.241409340778671
0.547059194169763
0.873277569799881
0.247221379221623
-0.837691843737768
-0.855788067718985
-0.494135662319841
0.128184610313625
0.306811458263383
0.391811282286999
0.442286103978963
-0.904304860238304
0.36712590553635
-0.370347208251036
0.645617390128104
-0.720573331583856
0.392300217315872
0.466031987716955
0.221500511249592
0.685735305469974
0.817389255573034
-0.91325607797466
-0.223561135635347
-7.55506164783345E-02
0.233197846769473
0.497151657531498
-0.594413970316792
-0.458511556306575
0.69094602616005
0.330441743448325
-0.431363887680568
-0.857813041787318
-0.764967573016
0.536825004970387
0.684687668537981
0.578088949933564
0.585587453395476
-0.737418683036431
0.661717642914197
0.870370096897031
-6.64764731568427E-02
0.534488069427784
-0.226431257561751
0.255934875557692
-0.335693755272037
-1.56873240331137E-02
0.30711825599212
0.767626591748113
-0.507315645015665
0.77968947228968
0.22456285881975
-0.902121078802975
-3.08663813205782E-02
-0.828157139510844
-0.279481348399223
0.145528280123278
0.609784316870444
-0.372741373926024
-0.999097955502293
0.608396836982256
5.11790427980596E-03
-0.620454074392364
0.870322425865956
-0.740353368625257
0.178734435386845
-0.580626546257904
0.786983119794833
0.133795966230691
-0.803992706129872
-0.565496248963896
-7.11472276277507E-02
0.748679776035615
0.563458036767026
1.85899105554079E-02
-0.487864718242196
-0.297473654901154
-0.68680075765301
0.586540110042517
-0.887168698901332
0.510713272548271
0.832809405399246
-0.134104127204084
6.44509229428605E-02
-0.615343359670775
-0.520481064858599
-0.422189912960851
-0.860298296392842
-0.194322925659607
-0.191397287539763
0.977852184913398
-0.328757270744504
0.209578015608007
-0.150610674544245
0.296008024700214
-0.973639360720647
0.873061506505968
-0.721686219632839
0.796882796119108
0.922688941763854
0.180997575363002
-0.433044784794201
0.175255873885087
0.45685822112218
0.853954185905331
0.224017248764246
0.30877709836317
0.915229714212063
-0.571715322315705
-0.896275814334724
8.7348515506529E-03
0.445630915521874
-0.693538836671879
-0.580878363019963
0.341466463771022
-0.508722870843996
-0.96676782502114
-0.422713691632316
0.337122674811665
0.522829018400199
-0.896426024335899
0.24446454829676
0.45913783270571
5.18009029274547E-02
0.571295196038728
0.152675688131989
7.68990006611698E-02
-0.831698589606272
-0.997454359143475
7.53310548601012E-02
-0.634253329093653
0.918352647822916
-9.36300620840729E-02
-0.872063970462929
-0.447418429522128
0.720800073884932
0.67483805099281
-0.909042886309884
0.231991781791109
-0.278908704582213
-0.72182495596912
0.805452749720503
0.596955413161005
0.488966754130965
-0.514297105213045
-0.141918954828984
0.859814687255832
-0.210628218007621
0.221298074160375
0.750614342916514
0.883357807185275
0.290664463385745
0.812459168305479
-0.459894740243349
-0.901514287120686
0.021459786234943
0.354969322356819
0.539365124727951
0.154081347965854
-0.852783961102145
0.190529144421013
-0.916569130611325
0.426339706933206
0.209934925682026
-0.417374116674312
-0.403787647880248
0.508957753770763
0.359112654845537
7.62960014063299E-02
0.232527689739181
-0.887776523046463
0.29934500089564
-0.259671843742361
0.22424967576538
-0.581815295583445
0.689754372431446
0.515844899196589
-0.274697990995536
0.870717806216543
0.552673582078847
0.233091396069547
0.428759868579661
0.623458502446843
-0.116214558066098
-0.491349408026159
0.520324726219243
-0.574803828871262
0.10318378789958
0.698194776722433
-0.364040892555543
0.591474769073182
-0.753413015170287
-0.644726328924611
0.407482480687181
-0.107216747158114
-0.131799769150677
0.234530598922284
0.908445371980993
0.683859912423798
0.511489166288265
-0.221871808396068
0.853613891209273
0.405274820210449
0.301392239676801
-0.762944064491633
-0.241086680668339
-0.292404397268598
0.721265791625757
-0.895616992290933
-0.565306152919092
-0.119917453211263
0.960120385377356
0.375409294680985
0.163698534081253
9.99914846778704E-03
-0.649526436320854
-0.699940467334818
-0.293871948504417
0.355265465645198
-0.635590943800275
-0.244245040548288
0.877713072696174
0.782321777088442
0.395198510005596
-0.855611848142224
0.862720483654569
0.802710827478967
-0.87589258637531
-0.195082811412697
-0.347664671728528
0.736027751647778
0.656772196846605
0.333485878143358
3.98760919792227E-02
-0.166472987960167
-0.189198473068619
-8.41328465028565E-02
-0.542183648968925
0.81581664732318
-5.39798133914806E-02
-0.197581903906857
0.607601541187446
-0.79028925575331
-0.448960302069259
-0.606375270719801
-0.68823459549811
0.113451190117247
-0.565394830465882
5.47061873735981E-02
0.308866049959494
0.576151257555044
-0.182565950846587
-0.259362097377364
0.815277064170544
0.646453287250237
0.880027367878004
-0.211655691542868
-0.406114656879686
0.327033916738973
0.394200349818658
-0.179297690357156
-1.73772653506032E-03
-0.83426914732224
-4.91554535970745E-02
-0.392612864732284
-0.998109252386965
2.07056520654592E-02
0.993699011310525
-5.95169371220106E-02
0.575546326971089
0.656197632562646
-0.621325481917581
0.108171719294887
0.941946255025113
0.257064888389841
0.500539412752406
-0.612298015994125
-0.78470434816497
0.694448716092407
0.16354206904496
0.129235351737279
-0.275624054979797
0.431538388205548
-0.680189727660644
0.465051976813133
-7.86636948938033E-02
0.327554346253163
-0.440866681695122
-0.546007591154209
0.194364108149527
-0.720292494087668
0.805998560295437
0.55890175386107
-0.86907339813554
-0.362965753435137
-0.935480347617928
0.755232365600195
-0.180709008612977
-0.373353779817901
0.249159169926567
0.28185297173517
-0.370453647697063
0.652075160345067
0.148914064091257
7.05017050201029E-02
-0.418633949623373
-0.744966163432665
0.394898312022706
0.228212310326725
-0.115734959347606
0.776054109078758
-6.39779271443143E-02
-0.402568022700658
-0.472878047889043
0.306104436658572
0.974732841629294
-0.618558651755264
-0.102748121395221
0.390429656679525
-0.425450145339603
-0.901923196880114
-0.674669004037107
0.127495705165583
0.223387819340078
0.712646211013001
-0.819010284055589
0.800064066199179
0.521432347595801
0.701320023180311
0.684907278745717
0.982059755121121
0.859595372948032
9.16989630459253E-03
0.9567556441868
-0.815961550493352
0.464343163894541
0.392417825547836
0.98435645798782
0.531698411218549
-0.493043128966146
0.472349647749431
-0.822069254679781
-0.283976359968992
-0.889950366794031
-2.12631333955892E-02
-3.56640451900971E-02
-0.489714689288156
-0.968568935453198
0.123501797279399
-0.520298603233086
0.518269209464467
0.565174830362921
-0.179248477330309
-0.165111990615771
-0.500262591450794
-0.227989188545595
-0.442803276781805
-0.343285363186888
0.613273142453321
-0.464070571902589
-0.882637838588485
-0.351091934714609
0.223298462235578
0.141150571129217
8.08862323216568E-02
-0.229749752506107
-0.462805253365115
-0.926624243048879
-0.965402660841273
-0.706588903122166
0.270096986237764
-0.428492366273567
0.779946139635626
0.486471813312927
0.77907315558624
9.07865328577087E-02
0.46676228261351
0.950158080378128
-0.334959098749825
0.085559189264159
0.347196242618379
1.54731943513487
1.50991397969104
0.179660940116629
1.51909604698804
1.17720555801333
-1.88811777506093E-03
1.66465774717476
0.41596044104296
1.17560661840076
-3.42933065417705E-02
0.150960299267459
0.701000118844549
1.66294036925358
0.727121369714069
-0.105912087440751
0.435729325786269
0.51588359032108
1.14843511313325
2.81260597385495E-02
1.11890077370723
4.16235697925949E-03
1.56799113666876
0.860686113491849
0.629487786854619
1.71262988557182
9.1436350919194E-03
0.718442458537599
1.45780753204194
5.95977736843
6.9866207552231
6.3795868742025
5.6717703288311
6.3273384327965
7.3771214920001
5.689306532704
5.6406307314773
5.9316631129264
6.1064044756276
7.1266570124174
6.2265061747076
7.2960538249773
6.3992678685927
5.475967551119
5.5543201192791
5.7242703377739
6.6454598991129
6.9531813035318
7.1837170772555
7.3289271326377
6.9536999328891
5.5472991270885
6.9318873115878
5.734521936492
5.5976312921247
