-0.783763433936376
0.229637084494856
-0.81567679994545
-0.18063978294604
1.05271911306555E-02
0.6646688329167
0.529413592341563
-0.993067020038647
0.37781516732859
0.64234111112688
0.863416793776451
0.945668165735391
-0.853516070683191
-0.640018448202748
0.583865906498118
0.286686349649547
-0.585966623877036
-0.231094344273655
-0.881680806736396
-0.805578142534094
-0.651009958566892
0.54015729875541
-0.502202280322079
0.432592046636233
0.174009832261257
-9.20099195424584E-02
-0.890385383666661
0.529476020351898
-0.491299210621689
-0.832238076476329
-0.538555463295029
-0.102191905406083
0.760459652440396
0.130305900158165
-4.55032699484536E-02
-0.783768572743639
-0.426118808332319
-0.327269200150892
-0.357828543522861
-0.87660109032114
0.484064905512161
-0.32400418077816
0.741594382698213
-0.667552413094726
0.866409720412018
0.1024942340633
0.268940077261874
-0.357285062291588
-0.964747710753935
0.742271348745907
-0.414529654291494
-0.992795055532974
0.915970708956744
-0.755606905363551
-0.130270320541116
-0.191547064643511
-0.900059285071142
-0.54962819797412
0.572355273678008
0.802078973385114
-0.711002566668185
0.759446762305164
-0.236525357538749
-0.193540497472504
0.145820824418685
0.280907157278939
-5.13203693122518E-02
0.148588692981278
-0.611070973518633
0.866536442861883
0.408081367273962
-0.879659791426595
-0.394270488921505
-0.233352943313351
-0.596034082302485
0.255982060664522
-0.295656968038336
0.61606560691928
0.706086534861452
0.110936852459037
0.184681521360811
-0.268181278788113
0.799643688492775
0.40342081051607
0.481526644317549
0.292160904211433
-0.130480422997631
-0.125264435381277
0.517120798686528
0.866976087533099
-0.804649945987893
-0.969372790562527
0.298048912212544
-1.75247950136107E-02
-0.054468311187939
-0.954732208579505
0.90095405617177
-7.14972546148208E-02
-0.475722053526324
-0.458944853830294
-0.486103726480025
0.854656019194367
-0.39564603086167
0.701567220158251
0.334929113185614
0.351811212618092
0.769134701566603
-0.768351685056872
7.67342870461232E-02
0.178541251500026
0.291147248958982
-0.952255336863669
-0.41407956986136
0.567300880393369
-9.72638989464103E-03
0.263247633394646
-0.342142405183344
-0.366854941464706
0.343305828908249
2.77437277989265E-02
-0.487315616064297
0.80813742659993
-0.9424392484561
8.57106341602223E-02
0.595391091356045
0.937496250708952
-0.825221993564417
0.539339641646058
0.372646711042301
-0.301084186157486
-0.562460410615693
-0.768194694944793
0.621304415847619
-0.655608225978558
0.128965576470997
-0.58855638069571
0.338284787257799
0.41426979674404
0.887456110263221
0.8939408117768
0.848802482833635
3.61275428377457E-02
-0.898234955460584
-0.191224449724157
-5.03329704161352E-02
0.69648997295881
0.407706725980521
-0.802202354903629
0.996654472816806
0.961269628453395
0.536312818154605
-0.772032672320947
-0.27028793307037
-0.478786689911568
0.304271429680897
-0.413080321369989
0.327023782355856
0.151527664624515
0.890997078182235
-0.250840798376932
0.688730166207597
-0.299753526529962
0.712694924641659
-0.76766940280136
-0.72663847362012
0.057793556853341
0.182298797168322
-0.29284806798486
-0.055190655505015
0.210585223926995
0.435178105118719
-0.118762646770602
-0.765074079049278
-5.55925316411594E-02
0.704024196540676
0.446177087190507
0.186608676166271
0.538692903355676
0.442342361834942
0.058882880241673
0.5144901615499
-0.119285852827879
0.524491519461527
0.322347987491738
0.205121456639608
-0.170900072938792
0.891229113914542
3.76109369362969E-02
0.875801385889605
0.368971515132196
-0.13676583463021
0.617853781748565
0.220970411267927
0.126387323067501
-0.988902535469197
-0.512794949839046
-0.302647073457618
0.147674456561925
0.948783174749878
0.53095925264263
0.233797827084234
-0.500383665827983
-0.291418042612294
0.220564735744151
-0.800967281939518
-0.790643862818375
0.459091132517231
0.90587272714945
0.120312684173194
-0.661733048392752
-0.756226676147821
0.948780794107418
0.718210056428932
0.57192921734547
0.146160232688325
0.866544650789138
0.707557746334907
0.608747686651987
0.828784458627861
-0.540327162703636
0.511823433962269
0.842629863852872
-0.253563032393889
1.84594626484991E-02
-0.452041274934122
0.360539173382882
-0.499635538366972
0.133850926296631
6.10317294453737E-02
0.113626499736882
0.778535864013667
-0.617517154381708
-0.37728176934609
0.271033990865757
0.118122797709057
-0.787635636483329
0.3549914989801
0.228356427249792
0.329854945313859
0.724827502898352
-0.299883085015428
-0.481864679671095
0.839926419272675
0.729999809876029
0.130322699492181
0.957652092084614
0.433645081537463
0.447199274444031
-0.424715651507376
0.769676877771935
0.926032253715635
0.528291167884022
0.54282528488633
0.124720295415996
-0.861903862674443
0.701186647549113
-8.19977778794373E-02
0.578726610892486
0.22351749088314
0.262304256964283
-0.751990464204786
0.218036144150968
-0.130997853496148
0.890955736008977
0.955102081441529
-2.61631533464562E-02
0.182570258699179
-0.184742074802086
-0.632997980982153
0.531214636191162
0.187568058476316
-0.771686329699549
0.714020429677922
-0.466697120815201
0.756203189325313
-0.964954996279658
-0.685609642031949
0.368922378902041
-0.455079320103453
0.50420240616692
0.054073563235147
-0.267506712162215
0.034952143546116
0.206714859703335
-3.54312525185768E-02
-0.642108280807392
0.134886051370434
0.740685782286405
0.212014581601055
-0.146686360187876
-3.18768901421408E-02
-0.825019410921202
0.133147014321852
-0.597900060136691
-0.553403871482281
-0.112507621696436
-0.911564953010766
-0.755133214783778
2.31491510728876E-02
-0.469187074689194
-0.150014254668108
-0.678823938604075
-0.381513074810381
0.227176281197027
-0.998425884443701
-0.775628295546442
-0.865379607435479
0.776183763811436
-0.599580229522026
-0.288902446334111
-0.804749212995557
0.652958765748419
-0.864902883617538
0.407403899731057
0.794549215537581
-0.11897856953907
0.611232604691143
6.62397873234459E-02
-0.610694667022021
-0.516687040168425
0.406406526705376
0.756519298031279
0.635433522789502
0.146440496970207
-0.642055454463751
0.701840268553797
-0.55165863166788
0.977354224616838
0.98204761016919
0.137324664795502
0.357680024280288
-0.211691676299698
0.769976516520199
0.515940673227135
0.230512507424201
-0.784901195303334
-0.833228683598467
-0.328943303174909
0.352950775054732
-0.844788681058706
-0.889747386157465
0.129868701796984
-0.411171093261951
-0.49334700606029
0.892816865142526
0.672732383866311
-0.125005333034011
-5.11724001085034E-03
0.805803394244881
0.44632264429789
-0.333682473495743
-5.60454596402582E-03
-0.464023364409687
0.463933291673712
0.109527114194505
0.683155306584081
-0.394067160589238
-0.835879181638122
0.703511462451719
0.612215415827944
0.285005642626156
0.84928597603763
-5.28017972409056E-03
-0.170499716983147
-0.65548880896544
0.288678717450687
0.459831071731735
-0.934131203106707
-0.209061593151887
-0.454298722571518
-0.856136409039612
-0.826783565216466
0.282956301438445
0.177276069476088
0.850418935327828
-1.48487806377418E-03
0.322875373416472
-0.646565152695569
0.721766356288628
-0.815669413727579
-0.489534060274791
0.158176516345426
-0.100008298632458
0.005497480618744
0.156801798398661
0.358031633383356
-0.373550805156502
-0.716727370307863
0.378063586587146
0.262662271066886
-0.384729260109335
-0.337571612962832
0.424001071352299
0.95221633964958
-0.172297483888027
-0.906612378098059
0.443020180110629
-0.890953678609411
0.877554646039552
0.230643514704859
-0.854374540110661
-3.32070614264294E-02
-0.785934724127143
-0.359652945725216
-9.97855425447558E-02
-0.522275292016614
0.956995738292836
-0.795913657390156
-0.320013419763919
0.699615407777268
0.799789477402355
-8.74777414813335E-02
0.97699397476753
-0.38366860604063
-0.249856925381856
-0.638314276538819
-0.69087205376734
0.131692239632026
-0.356647516764236
0.696382095543226
-0.731899961195964
0.814057963191344
-0.657685218634388
0.489289446945675
0.191242459580345
-0.880512798504372
-0.670920334051182
0.100977540119813
0.487218237742982
0.284201148513005
-3.63820690527827E-03
-0.564784511266178
-0.59450308189125
-0.147521082572893
0.363440079159145
-0.314424177487944
0.611717603493564
0.894000121763273
0.16938579070568
0.663484532146635
-0.684173647282757
-0.634958228562427
-0.66242279217521
0.604506285339742
-0.102859184311509
-0.219173475569223
0.658973637233532
-3.12049565596823E-02
-0.019739365158894
0.391710576455899
0.207637859019889
-0.316719137277814
-0.261992317543314
0.39378947632375
-0.519488849169705
0.517304420565199
-0.1676542893887
-0.645108513284263
-0.455538829691964
-0.159948727091312
-0.148505133044718
0.999818026933268
0.577138134313696
0.877278248864539
-0.638777895275921
-0.225918201091607
0.104190610628936
-0.233534176008333
-0.239446151111328
-0.806716169192534
-3.60921490149101E-02
-0.796330060677329
-0.983076793348503
-0.114339081357659
-0.428628758608475
0.281987961162971
-0.946970081369594
0.448226176328556
-0.592287171157775
0.240693967470379
-0.932544323264762
-0.237684765588528
-0.173905088476551
-0.724260716254391
-0.60665517352496
-0.747757798635667
0.244539937020291
0.306454414862295
-0.365775418347628
-0.27884081693658
0.586755780829998
-0.350070399954347
-0.236694838070595
-0.138895463055306
0.435617011467685
-7.63081848326299E-02
-0.367634023224926
0.309615181914855
-0.220021400456814
-0.82106385524048
0.908599346340733
0.213169070873852
0.464013549006813
0.260710774196996
-0.157451118188768
0.658114778560297
-0.510717481606296
-0.301905018533188
-0.532454440359746
-0.957364800911393
0.173258037359046
4.65504792927538E-02
-0.159190267673571
0.488683671169594
0.834042596316117
-0.463733396814785
0.75865320882824
0.730721115112349
-0.850465552265306
0.124461155994223
-0.987018590003564
-0.431527012426454
-0.369688286935204
-0.393761432746901
-0.296439748471495
0.933816691679664
-0.250979892610163
-0.692251524349872
0.380279628716869
0.897299215162465
-0.814934625774072
6.70275276936376E-02
-0.138090906002939
0.527676393122498
0.371927992840962
-0.297951169667788
0.462608935881352
0.418255713789563
-0.924568204471868
0.972143166049942
-0.945276526229515
-9.32853838694262E-02
-0.915184599631115
0.15809753086919
0.906151023998464
0.540457734317365
-0.735530164106595
0.817876465801415
0.552848725963726
0.17746621785197
0.192721758831454
-0.980947133288086
0.101797649211696
-0.737016132451541
-0.59494255819759
-0.594324907878838
-0.692981940530245
0.285274502286694
0.862698070407725
-0.173561715387236
-0.479009021447422
-0.810923699335785
-0.316547341674229
-6.73320280926554E-02
-0.803892497158907
-0.386730747424205
-0.599709546279546
0.148765125641514
-4.4665833779659E-03
-0.780337752880793
5.40902940784775E-02
-0.275598067294115
-0.229858606403014
9.26973409091805E-02
-0.719459717589793
0.196898691610737
-0.332070154711159
0.215259247489966
-0.78282378650732
-0.476147377882728
-0.535388117150442
0.363668332291325
-0.464936569139205
0.390229819662681
-0.161175412129428
0.415326804083336
-0.809357917104344
-0.249227426244552
0.762673859606121
-0.974622378661386
0.596771142501099
-0.462285256458728
-0.561904587012298
0.90412671152692
-0.171977016627515
0.645438380581221
-0.718221076896843
0.514869674809693
-0.796205124079186
-0.202154453038984
-0.653832551650193
-8.78453420943769E-02
0.133820292217115
-0.289139972057314
-0.738690199921401
-0.34659626722192
0.464177934797784
-0.918386183766868
0.292109327115112
-0.757794206057114
-0.272087537981802
0.367514533409616
0.427778589468738
-0.600515391796391
-0.317103919587705
6.25298944182304E-02
0.55507392299226
0.609136315799399
0.310576225843253
0.234666506150061
-0.285849075659608
0.847621019768347
-0.947230193913886
-0.542239573877759
0.195646376705172
0.182384153868666
-0.520319507510926
-4.76618619854572E-02
-0.190141587184878
-0.988126133234415
0.81083065858616
-0.255553561257278
-0.956338043745626
0.120310641778848
-0.248384249165414
-4.20088726825973E-02
-0.9819376208813
0.433257216183642
0.961704174071883
-2.47354028718053E-02
0.169055909703287
0.38542617602388
0.13752122491234
-0.868017049376874
-0.603269277379759
-0.849945790392587
0.169571955187274
0.85729428723956
-0.937691647888244
0.629562135314048
0.126372412470316
-0.274139874911775
0.660091087357538
7.01105036172174E-02
0.920275360019027
-0.241747407918465
-0.748953975029664
0.438051496374321
0.426491479608232
-0.512449175487538
-0.18297768362477
-0.715832183613683
0.555123143257265
-0.19583978962605
-0.42063587378018
0.721980869766044
-0.682956967498685
0.397519454397071
-0.977053175421221
-0.640700036811329
0.27796595986461
-0.26749971562672
0.876430086462427
-0.452423838507709
-0.038922358061801
-7.00543539786823E-02
0.621786706346497
0.15151391626539
0.737099676709229
-0.335066909543291
0.24093225848112
0.191784785128142
0.531685887555043
-0.747009956132946
0.854545533599771
0.176578502729443
-0.716439441070169
0.463628834550589
-0.332064194544576
-0.286883705039922
-0.497174963277773
-0.717790258716619
0.211078817035907
7.81430300879422E-02
0.50737434354348
0.835281036629012
0.244708151493179
0.826804640547234
0.956381355933718
1.18540344494411E-03
0.901615376796407
0.232208460512131
0.153322021195033
0.846863171047445
-0.357923086834048
0.373354069650879
-0.742970091114863
0.963422895243083
0.424592185493138
-0.972986271091808
-0.982215236757847
-0.98280906482156
-0.872117659608598
0.169531276447866
0.946455084959785
-0.610408137054721
0.707365190635545
0.857399505544049
-7.17697288176515E-02
0.648352656652186
0.829087133196275
0.530866470174906
0.208493689956905
0.774163647677876
0.796358671930794
-0.627288068769943
-0.593096544997467
-0.438929557363106
0.469105878770158
-0.745274448662509
0.75676358201114
-0.584488819266807
-0.426784575566861
1.73091547999609E-02
0.12028353119307
-0.101945589901553
-0.693083225822022
-0.64698368350053
-0.503659995087594
0.783533261107736
-0.526489356610623
0.402732552689521
0.715870320346911
-0.840587406976275
-0.49548184518712
-0.676409322378564
-0.188957599390529
0.138865783316265
0.684591570788685
-0.449394204364696
0.147862095856121
0.134179141218491
-0.350708049934938
0.249405913821474
0.827893994667504
0.317742233932008
-0.200894257789192
-0.454676216147933
9.32876220653607E-02
-0.107977107425771
-0.342162720807786
0.514507068186286
-0.489683249801651
9.65663899762457E-02
-0.599219830347647
-0.364405883477655
-0.43984536346293
0.499199432603692
0.787835928887528
-0.574106827769864
0.931624244804119
-0.949740901976703
-0.440985991647472
-0.67610621994167
0.289177615953621
0.622808670985487
0.984512828673367
-0.469670254094257
0.580374700974429
-0.681557761492515
0.708847229562614
-0.517096882527374
5.06469536512761E-02
-0.312579450271426
0.28825345188108
-8.48298410929761E-02
-0.950852835937917
-0.806478089439692
-0.107132309181726
-0.962019990812863
-0.561997559534678
0.748131426787043
-0.470058764006683
-0.717751855294381
-4.16972620973923E-02
-5.52663040047698E-02
0.841619252318892
-0.745263411613016
0.259673199232929
0.744113742285486
4.05771065715137E-02
8.39042840290993E-02
0.46629390945533
-0.207787820670654
0.869073338423621
0.170780907158643
0.130746748566285
-0.703278883695453
0.601743624850194
-0.489791437041721
0.218084014092416
-0.554852484595881
5.97265407142509E-02
0.210686167091862
0.366029711320999
-0.283788015424139
0.36347659572941
-0.383558080790928
-0.91676025374628
0.11809130345083
0.723886579678213
0.523250087046719
0.776062642206643
0.381153377143594
0.956106112354576
-0.620101080970766
0.535258863951392
-0.560525552595784
-0.402290651878319
8.01067013904264E-02
-0.532348696300082
-0.845431584271631
-0.477369820511184
-2.49256185821436E-02
2.36959247868715E-02
-0.833600567326697
-0.235450668985638
7.47531688558254E-02
0.250477244686916
8.88978388588146E-04
0.898182660899096
-0.94370382594564
0.190648105106667
-0.880230561597407
-0.225813822970017
0.661054324910421
0.751349884335107
-0.532223034346084
-0.336841180378875
0.336866766676859
-0.716835843973606
0.253816961301752
-6.35105144839173E-02
-0.429713030807956
0.837662694851187
-0.803124107602588
-0.703439632312361
-0.746223779217964
-0.386861459501119
0.274094288120591
0.266084830026271
0.645786956176116
-0.548384053604255
-0.872444185062015
0.156122780095011
7.04883630797726E-03
-0.583746574823793
-0.282011574207746
-0.945416910400862
0.834261222191625
0.45676868976727
0.557713891334356
0.511787393089811
-0.237213813673843
-3.84688401626517E-02
0.911822878475463
-0.453064166754499
0.672827258157257
0.598482149553814
0.725693085173311
-0.6409193533305
0.30896879765692
0.26305941894241
0.718608917771651
0.698479119400813
-0.189157175743538
-0.820182535864853
-0.922618458218572
0.23896316274223
-0.046920664905463
0.24545180944845
0.490508772600724
0.489228373848034
-0.394411949155568
-0.445550285734267
-0.117444815584041
-0.209289048215293
0.950609316188168
-0.285393604880629
-0.859926920462517
0.771986625911404
-0.669137360150588
-0.961838637114134
0.364525813494889
-0.735608657414457
0.253512400529332
0.985324352869019
-0.25568452542214
-0.869171196320683
-0.962439517675345
0.340477070243044
7.15762150031218E-03
-0.280503766613132
-0.132333816365329
-0.482648334144628
0.595686406366689
-0.273475520184555
0.605284622480285
0.118002790904076
-0.796685928660988
0.136295013142452
-0.391594512779467
-0.588593834277488
0.11400902950441
-0.394538432449357
-0.975935660041007
0.751031273202203
-9.12017480399413E-02
0.166469669248722
-0.456810603666865
-0.883247655579473
-0.466560704782662
-0.551366440419549
0.445237660664447
-0.05502316955318
-0.534151348437256
-0.250405323663889
-8.95355534650297E-02
-0.798113506130812
-0.221486760430072
0.237252638097373
4.05611349615631E-02
-0.741798353998899
-0.739746828377992
0.3220241005207
0.803786800207071
0.539894869567036
-0.556656599760858
-0.188448550151574
-0.791390231125582
-0.842203838819835
0.376143895759395
0.84474843174722
0.410265628903286
-0.239953032974853
-0.711972660322379
-0.200664431026665
0.16752953569683
0.704876113548884
0.912534877893138
0.376783630777457
-0.907609794459932
-0.682813161904802
-0.833669459038112
-0.109150312616974
0.473204794847829
0.470958647912092
0.125665739366907
-0.57934510399549
-0.897696607255519
3.04847074344781E-02
-0.20129384503661
0.936519771500626
0.501903395564347
-0.213020014380081
-0.938786742465589
0.766537703702196
0.217583934286397
0.443111406395503
0.30471423021704
0.844133442813671
-0.56353828969305
-0.073482694550986
-0.159566212346523
-0.938381484868654
8.75998857403015E-02
-0.145601854646772
0.908902807267535
-0.247978322123512
-0.204927736287763
-0.67522286458216
0.264298693116201
0.831237726464001
0.57949601598576
0.37604420881273
0.734213456714045
-0.54519629476816
-0.958263641570072
-0.56508712845607
0.899685707825179
-0.821622618392848
-8.71225960667317E-02
-0.136065047250683
-0.903026185903109
0.558258068230947
-0.682555703376972
0.323233879363473
0.311688010861656
-0.111943917674012
0.872251786413047
7.71326959745235E-02
-0.782460718935109
-0.660117978206405
0.831145620820837
-0.395131213229481
0.606104481147966
0.16319357849539
-0.113706693703392
0.915602877529373
-0.239353084646447
0.791702060724104
0.949571816441005
0.821445222830525
-5.38273038167204E-02
-0.281492251448877
0.262989941117154
8.82381091512627E-02
0.119543582155255
0.821897725273124
-0.475025794855802
-0.137651232412298
-0.79239216291878
0.459006028286369
-0.630262686587273
6.27427108826824E-02
-0.14204893096337
-0.908198436482588
-0.500160759630415
0.53112353888425
0.436009712188873
-0.530365592153016
4.74412152122117E-02
0.648939844778082
-0.776069412838428
0.464837522907433
0.327643911862956
0.858576741626675
-0.729299661190563
0.542645809201966
-0.9523085638706
6.70641253497231E-02
0.149709249216381
-0.456039744325837
0.248713641909052
0.264149955694581
-9.45160799566191E-04
-3.07490137057502E-02
-0.217930526645598
-0.147397753608067
-0.348469179864408
-0.72584208408125
-3.97547018764829E-02
0.167119420871885
0.405387919006349
0.822113946412845
-0.827347696774343
-0.550756353992178
4.35935768941573E-02
-0.913418984967213
0.719557668263157
-0.850811957158206
7.84584533296422E-02
0.45525475931994
0.892775276959575
0.841504203963308
0.880137446804675
0.560859667403695
0.419631984657011
0.270031356273762
0.34165491798557
0.447921849531533
-0.212884000153902
7.85853433697867E-02
3.97430445184721E-02
-0.917828124990632
-0.323994940216248
0.637360176494314
0.469923781362822
0.718996869253225
0.760162129827345
-0.958969132281376
-0.134094768345331
0.469625205208299
0.464077344926453
-0.166937637965494
-0.642496308707025
3.84940164017289E-02
-7.78745311423195E-02
-0.698255893565514
0.777943573386874
5.25145475822653E-02
0.345898629892414
0.296986158775567
0.300527788417581
-0.33728342516124
0.281364888081609
0.432928124653776
-0.733687974661027
0.17101822218139
-0.174506237215677
-0.730072384959283
-0.941443369721369
-0.680366557231881
0.772380408073766
-0.389488943694872
-0.31362917138328
0.577895236787365
0.871790817237789
0.397384635212267
-0.140895607102682
-0.728962385690643
-9.15588832615563E-02
-0.132380542240737
-0.235317433653042
0.717745868687125
-0.851785593513499
-0.404359861129763
0.509220647802336
0.678049477056361
-0.152090478215605
0.848661912488514
0.231895307397116
-0.63960174318598
0.988006534417146
0.281736796174069
0.27819032911857
0.996527434526644
-0.836675538421182
0.415585418924866
-0.503724963484006
-0.435016440271591
0.654337377501518
-0.431094141362285
0.715414345139607
-0.37105191698966
-0.897694493427609
-4.21325449414973E-02
0.771950065600452
-0.548738104091865
-7.57312173512524E-02
-0.470987362023921
6.75334117420283E-02
-0.440681242801531
0.629340952747514
0.757805410050088
-0.42407012880181
-0.245237923693776
0.53563256939126
0.12358104041438
0.458857480108507
-0.802315303548778
3.75223318310491E-02
-0.737333164807672
7.96083688440374E-03
-0.357703093937992
0.53588660771192
0.904959746391311
-0.500836626629405
-0.83920642096938
-0.580712482628034
-0.384737847660035
0.727281308369582
0.764417340994497
7.20107822777014E-02
-0.91080757930417
0.482923056792275
-0.784520405798106
0.78523516516069
0.29450307097809
4.03387603512144E-02
2.13674024240862E-02
0.660505538715866
0.102154595122513
-0.155974881147735
-0.888670118515672
-0.879926948621724
0.217508568114751
1.35311923940242E-02
1.91026218613313E-02
0.476555517578764
-0.799480368962944
-0.969948164307918
-0.47080435148305
0.164762622269118
0.154821331990455
0.025035530499748
0.691934448100129
0.701420636357093
-0.730883737624188
0.460174537848884
-0.127889449049346
-0.786077778132218
-0.189702872712429
0.669785457124892
6.83631721871871E-02
0.46711728164995
0.396240268031999
-0.26927056432673
0.125178742689678
-0.282448174336283
-0.582770575961306
-0.56833888896865
0.656661825156861
0.437451979302083
-0.671517263100459
0.732536853319033
0.510995172443442
0.976141366754825
-0.797728155225481
3.69531169812265E-02
0.426773507145695
-0.435529802833928
-0.593362592528034
0.84402587124288
-0.832839427835416
0.718225549428877
0.568721092485245
-0.096836203557328
-0.134915300366708
5.93825961458208E-02
8.42496719271981E-02
-0.135772620744836
0.57245388469754
0.849447229273177
-0.649277421340053
0.597207520129177
-0.921362898619751
0.117031332025006
-0.369630385163053
0.849697562411374
-5.17760272835209E-02
-0.837807752699141
-1.00384444610536E-02
0.717073075890882
-0.574659586850115
0.432958984507172
-0.88192831611789
-0.480565215467451
-0.638435891214412
0.294858013261088
-1.35980356069455E-02
-0.888989532734246
0.646748559630461
-0.94785758950265
0.30030344466929
-0.60814805620159
-0.243169306260263
-0.270181669259241
0.474635707107171
0.848304621328422
0.97996201951377
-0.411545849794086
0.474626039381583
0.317867019332216
-0.357930393639024
-0.880852935301244
-0.722595201248742
0.85569850310091
0.225218387068335
0.353914018380701
-6.15914743127567E-02
0.57417444201469
-0.343088107680785
-0.272836937915978
-0.712141256662267
0.633528092811311
0.245734216142721
0.436793010059213
0.136039065816685
-0.819240565248689
0.74850202398918
-0.721141096173284
-0.46789004447325
-3.43681202731597E-02
-0.123639886525
-0.732367586082767
-0.900284984428449
-0.393281888107489
0.182020729684643
3.27590630430619E-03
0.763649294806927
3.70972170886041E-02
-0.28238815832877
0.712240433969036
-0.714625213681247
0.528445758702553
0.112365020425002
0.160887913318982
-5.88152639213284E-02
0.873906050313477
0.791640032028336
-0.769271256691057
-0.594666373409224
-0.195744329205299
-5.64520433324336E-02
-0.155943576651917
0.441465086705457
0.518542593958438
-0.463299261426966
0.141651725134821
0.359186218696881
0.329491294803423
0.202380790571225
0.339619391938275
-0.641348173885722
-0.144374522936664
0.116689485646254
0.530310698083419
-0.135461830088723
0.936193953353683
0.152999541937116
0.84267654457779
-0.258198910230654
-0.498373298600576
-0.477698654121494
-0.159714409454538
0.889129241488837
1.38873913587734E-03
-0.121200812715663
0.810633174839031
0.12201864263224
-0.327259881495833
-0.559620559884686
-0.312743154721826
-0.51408941866106
-7.19489078855282E-02
5.83371402267292E-02
0.746565553698495
0.180850139604082
0.444961717875584
-0.631985492103115
0.934179653904683
0.132638721651618
-0.837183496882144
-0.838230655830211
0.700969827968757
-8.85307576085554E-02
0.32044439495373
-5.20422015099014E-02
0.566873384574355
-0.822451578957907
0.914495984497347
0.294380841758266
0.28095740708962
0.124226106358402
-0.485810367176384
1.91007263802079E-03
-0.59091157096659
-0.50733261182064
0.237459520134859
0.413773657805751
0.455959111093928
0.648118709948908
0.875138550200318
-0.761750967919754
0.216113235522289
-6.36651154915062E-02
-0.35604961864367
-0.852725491662663
-5.09994648972338E-02
-0.920250482109862
-0.144275093907205
-0.889242263958725
0.185983776100883
-0.273512958133307
-0.090607516222481
0.936124449770332
-0.497388761558327
-0.568669952381457
-0.55604744903996
0.804916448400111
0.427357998751255
0.326271332186974
-0.765246574229892
0.733013658866938
-0.191569719212178
0.529295733281706
0.472059698689263
-0.171679428404185
-0.576882032655623
-5.64476082098293E-02
0.430025718850848
-2.04769671992128E-02
-0.610429577132853
0.515093634406001
0.21583265077076
-0.818213134886947
2.87619790501918E-02
0.24587233036317
0.28288869421948
9.00357925206705E-02
-0.775196240019478
0.299705540045341
0.69863150346135
-0.412289060121496
4.46491313095336E-02
-0.607572757163711
-0.223386530911676
-0.831318766761239
-0.596369020781887
-0.676531006850728
0.61419016383725
-0.247762153567459
0.901159082432622
-1.53768637858986E-02
0.321273762503047
0.185873157026148
-0.398702849797962
-0.527241623816231
-0.717746667811887
0.137808994076226
-0.504170782827658
-0.963226704953565
-0.337675331373964
-0.658994429072735
-0.337184035455036
-0.494910694550699
-0.448887037082363
0.22264733061673
0.721531953886454
-0.431500231397368
-0.369387740861733
-0.162131851676911
-0.914934360661404
0.834207886533667
-0.938893578181798
-0.276256419673031
0.724754516395655
-0.07959854207881
0.397876264292125
0.799343791085568
0.686018303002129
2.67282497075148E-02
-0.216860634024992
0.759905939129146
-0.566956219508256
-0.605448581257336
0.401808413698435
-0.452048889371901
0.250165788231969
-0.138119896035443
0.246295318298013
0.431435734045337
-0.609321355137285
-0.678614432074697
-0.395270993244888
-2.12060804746428E-02
0.439204313484485
-0.694070606761724
-0.631405312734344
-0.207008367810653
0.441632484234941
-0.84545437458186
0.249944077733857
0.251480663566019
-0.242959730072072
-0.747165871226739
-0.695034267130103
-0.303795339526213
0.298888052542895
-0.304761334344487
-0.220154237314791
-0.472424091736599
-0.141820054527434
-0.617301854093172
-0.773510046324933
0.478606911879256
-0.460832509215871
4.76756708634927E-02
-0.920181684865232
-1.98534212804212E-02
0.988565440068084
-1.04147756824673E-02
0.444984463035284
0.975436087700882
6.21399191286383E-02
-0.592848219482841
-0.287987704225483
0.801965610760383
-0.152080641991873
-0.869743955675262
-0.203016476090865
0.8308785504534
0.5531689475654
-0.717669363110228
0.303049435276111
-0.561064935963681
0.662660971015304
-5.46095295501028E-02
0.701182294604111
0.585313342323849
0.988662800722031
0.253295215458995
0.749720613473682
-0.224708443827505
0.75845592375645
-0.495142253417546
-0.196595141968053
0.51511976189668
0.723089473096737
-0.13307205010688
-0.593260449099421
-0.502843417247342
0.421462406529483
-0.971403062501207
-0.376840912381546
-0.298389232224176
-0.80328056102484
0.771182264710998
0.920614693180483
-0.639006200090536
-0.662663991667324
-0.16532962755948
0.115841100451832
-0.694345026808123
0.803158400326509
0.689808347690351
0.873701638388169
-0.406463755911991
0.397055929188509
-0.133947701159367
0.564651441031121
0.524549626878826
-4.42675595106078E-02
0.339095491185012
-9.75011513493296E-02
-0.8502543373877
0.158634951197462
0.147715419947453
-0.283714142042529
0.207706964328861
0.891788476723673
-0.111806515751521
0.454249033357021
5.53666092467382E-02
-0.246224279465976
-0.974422050881991
0.574462869083983
-0.392283354915354
-0.74602795583737
-0.935424399208837
-0.154091479435769
-0.4393622310451
0.528535777113183
0.538873206330204
0.765350746498773
0.243346608023547
0.987545177581883
0.506205851933238
-0.210452467041094
-0.66827700531562
-0.7929361233109
-0.222495215433768
-0.111043488262207
-0.648955081267833
0.592806833301297
0.461972578393894
-0.951756486401196
-0.593575382762499
-0.132529786522418
0.575949602189231
-0.229460762674051
-9.84949175133149E-02
-0.728321613331673
-0.558048643447301
0.386530008011805
-0.859258645405534
0.518892708084446
-0.604728853740693
2.61102822959303E-02
0.657857344783317
7.51656548261948E-03
-8.09405346127627E-02
-0.520536089021737
-0.127166342579752
0.568822378613321
-0.255194337504818
-0.143916936742897
0.25204853489077
-0.882783369518168
0.68366432912917
-5.56267208995807E-02
0.530958571252627
-0.030250315936503
-4.91638082066237E-03
-0.518865480722688
-0.244027346005969
0.314667738565385
-4.72912732647279E-02
-0.840651728384325
-8.80630553479068E-02
-0.665805119756885
-0.066450732231876
-0.865658732969288
0.723915351997255
-0.175376186033843
-0.165084958545415
3.25378303393329E-02
-0.143284690319828
0.807184657287913
-8.53598567830158E-02
2.36522840994904E-02
0.182873831453391
-0.413948472229266
-0.746369008589093
0.386314460027946
4.95850777223965E-02
-1.47625938931737E-02
0.95578975146535
0.178761496862244
0.54731582187723
0.084018554536017
0.928879717978822
0.120369772202935
-0.332378675131593
-0.329080088164117
0.630915562762832
0.596441820284201
0.934939036249647
0.849184309899821
0.520176233288232
0.817803012164581
-0.39309606347473
0.75203784397343
0.11295464185986
-0.401595996309679
0.859994387891244
-0.836044250662587
0.531673096184992
0.958265448302898
-0.487916651776404
-5.47758340495752E-03
0.217009905462325
-0.184258043503667
-0.219264912681643
1.43706778307899E-02
8.11976383575967E-02
0.402222821083743
0.335853644841977
-0.96192407640273
0.795669092104205
0.714028034638617
0.477554249059105
0.826770994140426
0.134743349187197
0.310398455145198
-0.345104677735464
-0.616361365872708
0.338058995253489
0.073119641303018
0.738373463318565
-0.971671166463628
0.307977837888434
-0.83754044774247
-0.531149757270883
0.66173926885989
-0.875802187784821
0.335740794056853
0.327844746403928
0.970487205663988
-0.16367024946963
3.90091568230697E-02
0.708891363552385
-2.92079883346154E-02
-0.213792473652686
0.2389001684464
0.716928689877159
-0.74562132000295
-0.184782350899117
0.830946334021055
-0.817550281664692
0.574402091065443
-0.372050578977013
0.642208815678697
-0.450589157633586
-2.71617268777147E-03
0.311982552200963
-0.459743163793073
0.180660999367295
0.746742789162837
-0.445355260288176
-3.28402128437234E-02
0.321919315367081
7.91922618325187E-02
0.451087420203746
-0.663702837250403
-0.524905429490276
5.50662328170395E-02
0.964043359645902
-0.838568038036602
0.254005565007313
0.908528744982267
7.41455750373947E-02
0.53163413245396
0.930326998506851
0.868410355365159
0.450702635004617
0.602281032778729
-0.175148562033516
-0.253893244182893
7.63407488307746E-02
-0.85849735721581
-0.541077045643454
-0.618435176755654
0.674939284534039
-0.146920239951482
-0.046835484522204
0.126372294545268
-0.97919876413123
0.190944159718176
0.545385758953378
0.94335806994602
0.24801648698587
-0.312929766171626
-0.703175476771479
-0.585000040874894
0.132490715436337
0.433688292073672
6.56402085696541E-02
0.978328343416764
-1.48710524671849E-02
0.292390409589888
0.648843191266395
4.19042178175226E-02
-0.726821966266391
-0.35315993880826
0.628610095947954
-0.709159262027137
-0.622251864201611
7.24377542577646E-02
-9.37999737481766E-02
-0.551271747045751
0.999048743409154
0.165435346477949
-0.833547034286758
4.07133329101899E-02
-0.363109369978668
-4.43678429850204E-02
-0.411883314361753
0.289872740007108
0.302520606937308
0.820927020829334
-0.999985398165541
0.179414371623511
0.158871537024642
0.62864073997596
-0.619667785045366
0.926127183088392
0.139825795331472
-5.23359149157655E-02
0.106065718788471
-0.36410659774878
-0.234893995534199
0.607127222454212
0.681941815420705
0.749966372133159
-0.654077810415039
0.621426814711938
-0.187116563887356
-0.958891410668926
0.567520891895739
-0.441911861351752
0.631361648938026
-0.618425692777915
3.82961810551574E-02
-0.205920375617821
0.650739911141397
-0.719687113485061
0.811139505344405
-0.212161698298067
-0.412018047193199
-0.725341837253733
0.111219728359877
-0.511595060697065
0.583860731964725
-0.33783851900622
-0.454598619995891
-0.69029150803407
0.546071246882972
-0.228885176862878
0.922023806231344
0.717180129143845
-0.649584457738404
-6.29703128707337E-03
0.475780276498817
0.40551735263443
-0.542505908210013
-0.856387578698251
0.770951279568179
-0.709439959074952
-0.862896641514807
0.35031696160148
0.847262203947218
9.48801502088836E-02
-6.01953927948665E-02
-0.334850551260186
-0.723849056749961
-0.824172209814194
0.314895177712762
0.829660295323238
-0.288753446648654
-0.573582834726122
0.346278678221366
-0.755346094264799
0.245376140934895
-0.426423899056464
-0.53750374531934
0.078684680334064
0.427432355684268
-0.99507621755898
-0.325552993349524
-0.332315036259041
-0.854050467959744
0.374381950615177
-0.595909376034385
-0.117211938389401
0.752252547042935
0.668565171605827
-0.710308280798316
-1.87003245939802E-02
-0.225442676729228
-0.839963182137908
-0.512069672210818
-0.393837701132746
0.365418575614664
-0.269842288670127
-5.95310945316541E-02
6.21472118127855E-02
-0.771565115929196
-0.586604971239901
0.832331932856986
0.772399633792058
0.186137793239115
0.69659994963566
4.17196113923357E-02
-0.093146800373043
0.779506563175501
0.100902849433137
-0.234357285246643
0.574420429458429
0.330566212183377
-0.119484501104397
-0.29696813769553
0.683756540871174
0.753042020519743
-0.708129261404235
-0.813260943949964
-0.397215299402498
6.20591369672505E-02
0.818170146012538
-0.521883825844681
8.50612209686015E-02
0.012391809722107
0.978551221878486
7.26196378152266E-02
-0.418550057760166
-0.41421778539656
0.907726163169032
-0.687843029427427
-0.981534191857007
-0.848635586355507
0.761084942942125
-0.140344170879337
-0.599962187335988
3.92450927147818E-02
0.181895809770232
-0.336397479178506
-0.822667125850103
0.995807386288195
0.561377435211637
0.925061772276564
0.231671902489503
0.530320817489089
-0.370943130703485
-0.723044116640141
-0.471539087234341
0.515955243111309
-0.970031076633575
0.895146680150849
-0.974550414564461
-0.425687323354013
0.976892442658676
0.583129194392436
0.256521500098944
0.751106298542827
0.809960003891338
-0.99308801513646
0.162609847307233
0.781631731135051
0.352617998234101
0.203924180997173
-0.795776270740944
-0.151808810364119
0.322055193450459
-0.750444436359943
-0.434539769708232
-0.852353087897046
0.733857371185447
0.53720085824853
0.34726887951261
0.815795441097665
0.234787514762837
-0.487554222028111
4.81247220706034E-02
0.796270725683269
0.604231002812915
0.899297416569996
0.343157598331997
9.51986988797988E-02
-0.716014181830384
0.466127693429385
-0.801824280620011
-0.471157401391171
0.727718596829374
-0.798736465587276
-0.307088047029833
-0.450007004982771
0.605548179935062
0.40292407471411
-0.42178784370396
2.98727805404098E-02
-0.544141567222429
-0.3645304512024
-0.445224647328511
0.975842723053503
0.245583172328514
0.763693515844925
-0.463553617015727
8.12088435622331E-02
-0.518153614803404
0.349154307413553
-0.251047935146137
0.731948530278328
1.19818920443155E-02
-0.422691513670241
-0.58463755601659
0.636187806496744
-0.544403357112314
-0.418526185565542
-7.55024894506584E-03
0.595778037083233
-0.668516765089239
0.539415332842266
0.447508021388376
-0.894664142566042
0.373827050226681
-0.75938648390082
0.903086664021202
-0.55737453699862
-0.723705270249582
-4.29607219743499E-02
0.127482788859862
-0.29482135002625
-0.840768957478555
-0.602473669233471
-0.188273433345578
0.851562972879806
0.424331501299222
0.285596403788789
0.349185508880587
-0.778275682060262
0.342799417736554
-0.32714054424581
0.921803632592286
0.23934608352045
0.717136084828657
-0.515124421239441
-0.902617701189331
-0.959818121410658
-0.736646344186763
-6.3680858876326E-03
-0.14480006534765
-0.376164316532074
-2.04588666128063E-02
-7.94475262703221E-02
0.982658927153464
0.792477444750129
0.698353826741192
-0.303774357326794
-0.876462077522749
0.618499132940276
0.265138105383735
-0.962201695638998
0.408819185604679
-0.525869136247014
-0.659956612793872
0.452252613517955
-0.436049541642743
0.759552974228916
-0.308386168131774
0.533545884599857
-0.338207838956801
0.38205516633931
-0.96900659221923
0.993860410223326
-0.721609120376584
0.767309756816913
-6.99820903288667E-02
-0.746024615813836
0.709110773411413
0.724841391258702
0.173108672044194
0.115038698874938
0.11554561933447
0.843291500091221
1.20231699342517E-02
-0.456217797673389
-9.75946533815164E-04
-0.742908808913908
-0.775841817853352
0.925489275979637
0.234411905804838
0.604672081831181
-0.380758032971142
-0.726210269073782
0.048305802019738
-0.210640118167667
0.695892638864609
-0.16637796359297
-0.211397143369997
-0.242388470165666
-0.481339648870852
0.273469203360713
0.107821948189411
0.925272259920807
0.567811318904511
0.235239461535619
-0.729557236571899
-0.888955860216602
-0.691746780385713
0.394929409641667
0.694919270627282
0.877373931060448
0.530640805741196
-0.615527932408556
0.553914905305776
3.24833147590615E-02
-0.863157541587071
0.934938526109846
-0.71830216349846
0.713280198916281
0.973588197915186
-0.576472757008738
-0.824475707613673
0.947405503987884
0.562260699076949
-0.358459345755784
0.928229814750006
-0.116314406616036
-0.870568771276907
4.78142946577722E-02
0.892137982882029
-0.01622425865084
0.211883380701105
3.18297414051754E-02
0.149786981124786
0.383796153424691
-0.708492250138086
0.783007632930018
5.48655762143115E-02
-0.636722756813559
0.409591422100389
0.247443038515168
0.807139623702518
0.399746925868747
0.516667184324882
-0.649388764588554
-0.161957928821723
-0.359192322293727
-0.566772978001575
-0.825663061141388
-0.69101093047834
0.791567592356175
-0.27175360634097
-0.901413524159053
0.862375833216267
0.393804453751136
0.566605138507852
5.34073902572232E-02
0.915596712384612
0.264258141930495
0.633132408419956
0.973605854832324
-0.748675909235053
0.46296169338321
-0.389856856695706
0.308517762055535
-0.567328289667924
-0.421462356985056
-0.633025466010832
1.14953220645351E-02
-0.340241481523877
-0.654098741582315
-0.985828805675723
0.81849612820472
-0.915420117349846
-0.347171736744822
0.281608630766781
0.82242754050366
-0.686016724878316
-0.154639631317606
-0.701014393678137
0.359665078847508
-0.14406336198075
0.908037076867855
-0.211244597097872
-0.952571448729069
-0.397831893863057
0.573458383308131
0.925708172896289
-0.554533985758282
9.06459793775534E-02
-0.293301663029742
0.674055934159283
0.262760539915048
0.254259124481947
-0.586394948141542
0.282013264839962
0.28974093656767
0.637448335151769
0.238038551364683
-0.204493493754244
0.308743036043277
-0.349570634315046
-0.458386887922839
-5.32140361070906E-02
0.120233611500582
-0.668960178778575
0.700526927494071
0.580355275099689
-0.480425028601944
-0.702867933976229
0.10757711637905
-0.102226846389423
-0.431126698642258
-0.902174905326446
-0.866526363198699
0.234523548268942
-0.169279572477505
-0.990180994421674
0.180081818347717
0.8262902825387
0.365403023657969
-0.524633410021404
0.74923842695572
7.86137247873659E-02
0.240420177726558
-0.158613738386871
-0.945698274305581
-0.776953585693876
-0.93908496228578
-0.165407380980723
-0.882387856061957
-7.54331283503562E-02
0.601891832145543
0.295410049299124
0.52555506898534
0.399149735936919
7.85620600086534E-03
-0.906173403387908
5.39335657873177E-02
-9.29678750501528E-02
0.22278083216369
-0.136764833403057
-0.770125842330143
0.106356474268799
-0.6769345662724
-0.786299791770713
-0.437495927251796
-0.316489564700303
0.248425035939325
0.423978429738409
-0.346845007262577
-7.93746752760432E-02
6.04059004167241E-02
0.262012774110366
-0.313137332619053
-0.582664655219431
-0.694504791640441
0.546509563974257
0.910448457713004
5.30399772408812E-02
-0.680445526819719
-0.662400634299296
0.618483921526372
-0.542446901021614
0.382574119908079
0.232472330905673
0.896955458129775
-0.247837463482742
0.517510903735078
0.142270397992887
-0.084538807675072
0.129764788806027
-0.575763663193964
0.139407991989175
-8.77111547209183E-02
-3.81200629152135E-02
0.549389221203815
0.489884784321758
0.182737691632688
-0.44800730099747
0.615191831592666
-0.176956103016975
0.35956442732113
-0.601194050799664
6.50538705862913E-02
-0.45838043654669
-0.934552047801
-0.110366225919462
-0.168944704660025
0.03780969180545
-0.37911658073132
-0.286698341614762
-0.411836953798192
-0.94350184742635
-9.30678517111742E-02
0.96356235625954
0.232304139107081
0.634643420482823
-0.289230850982716
-0.101823827318472
0.704181717832681
-0.553759990641719
-7.70142678418991E-02
0.625445009298809
0.477987266994234
9.51502317249016E-02
-0.190879621615105
0.609130954546992
4.39270745414557E-02
-7.65059272052329E-02
-0.756093133583138
-0.185670469386496
0.535747526445712
-0.75882384893021
0.275243572046669
-0.438990535597382
0.289208399604007
0.532518475366406
0.675904419162291
0.708570973038444
0.564719970315689
0.158859368365419
-0.755473087087961
-0.336084941731123
0.927124421906083
0.351368888819368
0.533428517628696
0.887157248009588
0.847868679884064
-0.123778476118071
-0.590681640423029
6.32597429258497E-02
-2.04197458969899E-02
0.654658525112157
-0.606013311993121
0.914496379019085
-0.749675411189841
0.833361599283958
-0.914429671668346
0.747805784809901
0.434586657416326
0.325951551272831
0.127007778345602
-0.737271702511106
-0.819713337669493
0.684314859504313
0.166813451818724
-0.110236769432684
-0.394096129973071
-0.691146978280781
-0.95168386660595
0.985623525590331
-0.470950748331746
0.469639161175378
6.70219595693706E-02
-0.418994582566001
0.147592910301857
0.385857451846016
0.551778762190383
-0.941868622615788
0.566717687387733
0.698791602650968
-0.746066904740488
0.12946534509713
-4.99636391537092E-02
7.40188756636804E-02
6.96878256942512E-02
-0.204360133653247
0.270175028519292
-0.618642578506953
0.474383302177924
-0.420225005341543
0.643991507364983
-7.34955706633719E-02
0.713440894695723
0.267010241228553
5.98622472547863E-02
0.54619410700543
0.273223301175848
-0.37778957089777
0.939238218304333
2.90944747689932E-02
-0.553918389227705
0.115448226553098
-0.578065673545464
0.28755298386619
-9.26251105524777E-02
-0.445994888935281
-0.475616030127277
0.980691387041844
-0.861736702616014
0.701274971658509
-0.607645114957699
-0.122759145538732
-0.743408095213888
0.457093683712481
0.754388678081816
-0.853100449536454
-0.640802330409548
0.980659494016325
-0.620508169119187
-0.018115842863315
-0.167512449634852
0.256349179517518
0.852371690252366
0.475739379941152
-0.745848311330985
3.43760007106493E-02
0.301776350730617
0.524358175817799
-0.512608886714185
0.822375701570833
0.852263515670862
0.66455744304794
0.360054598358841
0.660647762052748
-0.483011957641445
-0.771556144929464
-7.54039292254933E-02
0.782919326155679
-0.991135106290288
-3.28046420660618E-02
-0.289222176068301
0.946140541234817
-0.480271628261214
0.385774480381577
0.611562431006497
0.206959651201611
-9.81246157834916E-02
-0.569519868949569
8.36502252999678E-02
-0.770832008394514
0.883645193357443
-0.115864842287979
-0.802364392086069
-0.174455432022691
-3.95456458434149E-02
-0.15090188935361
0.73877128850477
0.369171392171422
0.424970762432979
-0.963822953372285
-0.962155658322136
-4.65693417084938E-02
-0.365123357828074
-0.772084578826509
0.502684560530372
-0.26346374043253
0.063935671589513
0.247609333214833
0.924340374044492
0.775591727504791
0.941845395061047
-0.959193012497565
-0.452026036058185
-0.163191502327653
0.360621267455069
6.39312025576919E-02
0.627042129394969
0.162658017182637
-0.389975277078643
7.50569768343421E-02
0.720345557062223
0.983372347440829
-0.798186953222722
-0.365233761806155
0.345044939345607
-0.320651369955834
-0.447645504404742
-0.849607016723233
-0.235243033595183
-6.73471795187964E-02
0.615417624781319
-0.865137917981844
0.670360531194439
-5.00404156228494E-02
-0.10829009519025
0.501716537098936
0.302157302945256
0.89590500560879
-0.810994530111139
-0.819182627731048
0.16554795291247
-0.95502999177801
-0.733531684183512
0.114592315789843
-0.091600084390811
-0.158347224557894
6.90423626012522E-02
0.782598904826663
0.156798722050849
5.28289873527301E-02
0.642545682744756
-0.197441159900549
0.146890488086845
-0.497160471858353
-0.982628368895337
-0.131088703771621
0.844038497922138
0.500985718918902
0.358465386750432
0.315322652207042
-9.34670856940759E-02
-0.997246873720593
-0.498490020160591
0.925481639143311
-0.670392151639924
0.790225060093128
-0.36997838528877
-0.733100965131543
-0.103464295456224
0.513787988314072
0.295319269064974
0.785321719285232
0.667084760593313
-0.693628421926287
-0.758899899701626
0.172761544357716
0.649640977530532
-0.136893557494051
-0.433383303415505
0.11003030685861
-0.468188972046755
0.373423930016831
0.647218576143
-0.614937500366621
0.8853390810968
0.499261963470437
-7.17139250636493E-02
0.601197920151186
0.614685407820587
-0.287817343104199
-0.781650635953338
0.214987691472343
-0.415369185238782
0.733847034503447
-0.570547471443222
0.480976671227236
0.340785853894176
0.568433555138169
-0.152413257473119
3.13071038241459E-02
-0.372099710639116
0.672227607677087
-3.67168224387494E-02
-0.719122267104705
-0.985616736298783
0.174749121442231
-0.347778399396488
0.624184501346549
-0.652539684836416
-0.252572685379077
-0.932023800296213
-0.522141447383135
0.991909439313234
0.709970853021912
0.99378572654421
0.623308293773645
0.846333390817727
0.271223362734241
-0.402498916968916
-0.983236939664975
0.984441605329401
-0.579565526001468
0.543628396936963
-0.740593789297684
0.434830415546905
0.916516859962699
0.238652140415669
-0.741823562904072
-0.908734048876491
-0.932998898843626
0.620587592456244
-0.741793735496505
-0.963510197935765
0.545040180887614
0.350978165540203
-0.609242152095712
-0.333917033900662
0.361956352725359
-0.472681442155195
-0.844093517209999
0.914939477691827
-0.705536337224137
-0.893849631427663
0.847112862148047
-0.382583389732402
0.559840152637428
0.111842039928244
-0.174784089500855
-0.426755928819062
0.338964162382249
-0.596668461842505
-0.237731385143979
0.244790364560692
0.866269867219276
0.280874705117533
0.501029519484059
0.177300212302408
0.237318171934256
-0.462891469283922
1.38140058184368E-02
-0.787767804252119
-0.171181136333621
-0.308495669013038
9.47991903958356E-02
0.354841921327972
0.282581689814911
0.094550683495173
-0.117232658366366
-0.239328869810186
0.374013417833593
-0.652227689364409
0.086663680421893
-0.278380932373892
-0.232580328966455
5.79567962536363E-02
-0.125765917210699
0.760788074792038
0.654510202248294
-0.671274375164602
-0.215600116776305
0.986310971350561
0.579147230648429
0.589853166271947
-0.263082906609062
-0.29211693469361
-0.629483038493621
0.37450134966545
-0.761742338660105
-1.42619247088533E-02
-0.961454716329952
-0.523195118018572
-0.77945804121164
-0.739678248296774
0.729518807122779
-0.442994272024588
-0.39925882420379
0.501933813019026
-0.603486661498621
-0.291396715412673
-0.389740134429506
0.423123352917469
0.708372776249687
0.761750358287657
-0.77960102916364
0.212639339625745
-9.73787144716837E-02
0.169391870035586
-0.422909562184079
-2.17471465614754E-02
0.781832974575464
-0.792591524294972
0.258685269128801
0.626783720574806
0.859623501413644
0.917293026607724
-0.616532804567234
0.263179696398783
-0.218431134138967
-0.270347008185576
-0.881044854854478
0.356511835183126
0.577997088355957
2.90984094848883E-02
-1.70520087775027E-02
-0.100734366127953
-0.950260725704127
-0.944160381669444
0.476655905407748
-0.422677223484334
-0.355432811112677
-0.513414674786246
5.31530701494911E-02
0.571544175301125
0.551184624877532
0.79709707674616
-0.80022264925457
2.78808775507224E-02
0.419281635055341
8.10213686217893E-02
0.500993040395683
-0.538545921300909
0.108299622918324
0.384387040730183
0.948623212012431
-0.598937549127033
-0.825802418009263
-0.187579696487255
0.479249466737414
-0.565910488192041
0.422649307665049
-0.324903687270857
0.743966501459529
-0.522200038030217
0.788742421959064
0.760111109314928
-0.546429423010555
-0.418470694492464
-0.952609296512849
-0.543276304751362
-0.707348995848071
-0.14471312014981
0.415311770458686
-9.88165393154061E-02
0.358944307765525
-0.776192214902824
0.974562653441871
0.574224214732413
-0.640298206805594
-0.378894814167779
-0.970733216789314
-0.146628862446067
-0.615288439719913
0.969089683699571
1.3061853316636E-03
0.907572867943327
0.976006687677005
-0.175161640465051
0.277393379536066
0.018936833791654
0.427181929693366
0.934611720266864
-0.46092171436491
-7.38891904660759E-02
0.770631917084007
9.87321283948326E-02
0.538885921538507
-0.893879698450109
0.748914517954187
0.729953264481826
2.99211408538156E-02
-0.95376394614658
-0.783166349691238
-0.721034401423104
0.612917768125867
0.504712353241715
0.883726175599109
0.304198514572189
0.633849550293557
0.519001646931714
8.08286455665399E-02
0.379095269667267
-5.31387094584035E-02
0.492317574644374
0.326489879319718
-0.741447099096478
-0.648580841582515
7.41832699285201E-02
0.862386029525267
0.76723433495073
0.819219716285169
-0.252132198314015
-0.953214312385694
0.725976029610033
0.24553769669987
-0.952620613549585
-0.4836971117484
0.898529866517372
0.391333529653757
-0.851050807940967
-0.634533368841569
0.419393692864174
0.926581905470202
0.216705842869848
-0.756173792716568
-0.545499586338132
-0.958076405381444
-0.670494690703128
-0.766797848426038
-4.99484195806167E-02
-3.51172347401535E-02
7.56478924878705E-02
-0.356916581256813
-0.759203646950872
-0.101466130170967
-2.55215679416062E-02
0.450061646396778
1.75730178611868E-02
0.39464114934791
0.768631843247267
-0.992415452711593
0.694945586165103
0.979935978316043
-0.672047741234325
-0.134799452341809
-0.426716715755417
-2.66631228043325E-02
-0.584121124845233
-0.938142152264459
0.355647213099115
-0.136441878292523
0.891357676447418
9.57113503192613E-02
-0.441636919577889
-0.639306712083184
-0.945896184285127
-7.67181260006092E-02
0.145175442900365
-0.707999033394157
0.788304816087034
0.803702293644536
0.31839367838878
-0.118739992000915
-8.03791541607168E-02
-0.420823673330487
-0.183543578290939
0.632703000392012
-0.227396675901481
7.06659850945131E-02
0.295855928067484
-0.96532354289243
0.300419185304764
0.668214223985281
-0.583619723842275
0.604817708433063
0.35603382635981
-9.17993525283778E-02
0.102146136148818
0.417678341502239
0.683770812179844
-0.144782293721999
-0.883088715788892
-0.812634833184004
3.24327900982455E-02
0.444146345954251
0.570670911452537
-0.778089941120438
-0.574066950773665
-0.411599690785584
0.265558076059511
-0.877279336644435
7.46532906712476E-02
-0.176801236005103
-0.107416433258514
0.971604973598091
0.670508302664058
0.528117978657101
6.76688899264555E-03
-7.04974240804352E-02
-0.119035612274251
-0.638936973721997
-0.563275225047742
-0.334803253131742
-0.257976459564378
-0.563808702602363
0.325800188650761
-0.161077752520315
-0.652548657891994
-8.7898846381792E-03
0.355329674892636
-1.50766544099246E-02
-0.258708033277019
-0.185138408541176
0.866662957873866
-0.431341622496095
0.242979415260203
0.543298164133021
-0.422935853278164
0.738487130485878
-0.430880438190987
-0.91555677024036
-0.624360445858377
0.348318050700355
6.32836240365449E-02
0.892321520875673
0.288952742836233
-0.803167092017929
0.104918653463182
0.588734896597917
0.122003250560239
-0.88945254828015
0.34074691700375
-0.48245036188467
0.508760569793495
0.492106653583054
-0.233208714197894
-0.782748110025897
-0.852538750369778
0.261854409178751
-0.113570623873363
-0.489681355213069
-0.150608072727215
0.739857513897602
-0.820355023512838
-6.66575885243827E-02
-0.304102543885326
-5.27947560853385E-02
-5.90890975468572E-02
-0.430262145947072
-0.923132007746647
-0.950454733930364
-0.822097124298683
0.997250087009674
-0.325024328417877
-0.777541301864044
0.710509803434941
-0.974626075240673
-0.436553980866924
8.74161919509695E-02
0.869371431857381
0.17318525942098
-0.498834391297721
-0.951300825491503
-0.734560013632827
0.42597495120779
0.237442828256994
-0.64419058089192
0.986827748843218
0.709467612657158
-0.820245783494647
0.522531964982995
-0.723530980878746
-0.26670283802142
0.131324673597782
-0.147043530066334
0.253888987247484
0.380802482253786
-2.85950245463473E-02
0.256402705856928
-0.433360334203274
0.660096584438882
-0.870373566578421
-0.722663400053748
0.991726642571918
-0.618246416834752
0.496827377864606
-0.676995925849379
0.954617553346886
0.191348378023033
1.82622221316811E-02
-0.559349892244942
0.693188075225516
-0.639525542440771
-0.368880576102715
0.677831566910626
-0.633772981989375
0.827756066259317
-0.563209819140999
5.34724734448819E-02
0.790887670821198
0.381761246941187
-0.960654643907839
0.47395143067406
-0.309261683403577
-0.409386577216077
-0.164806089929733
-0.452348514493527
0.345830296142918
-0.891510826816993
0.70491133601629
-0.816957156522633
-0.641532113627513
0.327081233866136
-0.963257093117921
9.95103099246815E-02
0.883129377149794
-9.50457032027652E-03
-0.697698676743436
0.936777140971689
-0.883745004928834
0.354941878949887
0.508494701319795
0.517918341174906
-0.898617608954941
-0.25002925945135
-0.23426398322458
2.59631568815966E-03
0.97737654671802
0.985893601558433
-5.89989979447019E-02
-0.838706890884916
0.682265912511888
-4.75776885534572E-02
0.905316962409452
-0.192046366830607
-0.177536935581275
-3.35523718658655E-02
0.238780538412052
-0.452404925926828
0.92691292418755
0.952270526776677
0.422218589667765
0.427078407745955
-0.372021989305067
0.375490104017647
-0.4768790982791
-0.178621825664574
0.445634956160991
-0.997858114106525
-0.825509398014515
0.944327923235113
-0.20117677936687
-0.982428241730666
-0.751227904833245
-0.258041393464069
0.627551295178743
0.814920823649205
-0.954966687774084
-0.391811376702936
-0.418367354309481
-0.149012621704062
3.60940877590679E-02
-0.643235885443159
0.116688029509948
0.367622721625863
-0.736691987689383
-0.810010733846739
-0.964682675017022
0.489708087941684
-0.679778955686688
2.39266176170567E-02
2.11093266175597E-02
-0.763849147745671
0.53234561697141
-0.538611541025297
-0.464576523574658
0.318228457852801
-0.581195390967241
0.948180371202408
8.16433147057609E-02
0.249999405701694
0.812615320326314
-0.795300755706932
-0.71113308487831
-0.741608789193365
-0.880101152477455
0.894128379756371
0.52676537507259
0.755965527993373
-0.885683651188792
0.670112863169889
-0.164394241568897
0.727252035102082
0.391549157770107
-0.759060663259221
0.840200985369805
0.279932393591034
0.14965485464302
-0.106115401555325
0.013814111016532
0.825046844019409
0.314648015694283
-0.957461987848793
-0.832189101652756
-0.124213617546021
-0.803331182720574
0.791544053765171
0.365119322601578
0.292324180710714
0.840619530521031
-0.742649121191221
0.590321027151715
0.950530302848639
-0.973836801783474
-0.559807757270584
-0.543534927841424
0.27530497986923
-0.524504138147406
-0.188329633100354
0.988459546086174
-0.145344590441169
-0.756681969675057
-0.536051880485699
9.51631618254187E-02
-0.561467383493297
0.491947615249079
-0.339300618378325
-0.272936355045528
-0.973165133433393
0.89553179882456
-6.33929182175237E-02
-8.63040162981221E-02
0.463875237120233
0.770830813703865
0.51133927224395
0.884718706667737
-1.79990804313882E-02
-0.301937301759235
-0.284426183528038
-0.699167256011463
0.474943385534179
0.873813061020713
-0.629216717680621
-0.744508003939621
-6.81317290644302E-02
-0.270969780700032
0.621132071414405
0.155621489575467
0.425984955951428
0.448641159197863
-0.415021695722454
-0.150676333155293
0.326966376965246
-5.46604020467841E-02
0.375113954354332
-0.559180343534679
0.994320239630471
-0.431386913600367
0.531017169303815
0.117637554631728
0.109242988673145
0.371091677343194
0.713030977236867
1.23256694257128E-02
-0.984620403088526
0.107816277245843
0.627524154170765
0.630734093560573
0.964301395200975
-0.689959516064544
0.583729529292682
-0.298826172032177
0.999406126127031
-0.246304806044041
0.827096256302926
0.433527980926283
0.362334145572547
-0.566338745106319
0.850633481075369
0.124655462531505
0.768885794065548
-0.241489534645585
0.254862419552019
-0.193806826782432
0.676815357699857
-0.903608595815686
-0.591364089923994
-0.796871754203449
0.755767690095602
3.12520681839423E-02
0.157223567437452
-0.343722571827639
-0.829985572378068
-0.270393439006642
0.130702925741597
-0.140923319746706
0.997536816465144
-0.32843080718819
0.824835842396123
-0.7311507778681
0.134393553352968
0.665894741635386
-0.441748124905201
-0.125013898562379
0.371201860817066
-0.452720873785216
0.653899349002738
0.641239339257579
0.978951416935784
-0.754809248715359
-0.250633547703805
0.386592435652619
-0.895739435399325
1.70178464817683E-02
-0.990184820315703
0.128939701120968
0.549575804155569
0.55433343712402
0.198911120006397
0.988070625276609
0.101705111068841
-0.600405435137623
-0.942726852450163
0.629221844989954
0.472467408652384
-0.348391671173921
0.244607671363042
-0.074275957563789
-0.871869965218335
-0.708386963739709
-0.779167524132152
2.90378055859133E-02
0.809697532832181
-0.372161943006138
-0.12686400974731
0.356737170844826
0.384005232768627
-0.665078163053267
0.440058412704858
0.14376554786455
-0.1840381049381
-0.644416802765615
-0.659678153856751
0.149554554588004
0.515176363203213
0.535456333535363
0.883276848894227
0.87336165344125
8.55934418129098E-02
-0.72198398755103
0.519474056828421
-0.797552026718862
0.594655517215796
0.735034698456138
0.284009557671356
0.802483862698998
-0.121103707718017
8.90293312313335E-02
-0.608066420321671
0.756834715721067
0.11576421873076
0.337670569309538
0.56415281214722
-2.88543090880359E-02
0.916863557691864
-0.343856406248839
-0.406102978790009
-0.318090648958702
-0.464308429101573
0.891964744591643
-9.20385747383231E-02
-0.957534123114994
0.433341378867463
3.77739081333068E-02
-0.566423001088059
-0.792848644597646
0.408529909481583
-0.368861434674504
-4.90989049516356E-02
-0.405925050502575
-0.226298142765486
0.946420305172537
-0.707237938796502
7.92714179100538E-02
0.646850506095659
-0.427728647262495
0.247431405326436
0.759741648299459
0.329087155781495
0.509342997141055
0.82683838339615
0.620158433615957
0.950881778519943
-0.723695560244378
0.681781910165519
-5.22185388018711E-02
9.52874525822378E-02
0.678285776374669
-0.122664136418844
0.662390282964251
0.944352632935238
0.870374308029059
0.985783972614124
-0.1371899771685
0.645315194783375
-0.860190394736014
-0.48893863469793
1.3388703682864
0.556063238843161
-6.59626243031139E-02
-0.472179266116178
1.05740351000809
1.30473810468605
0.577799108653412
0.599881008229965
-0.296847239161294
1.18624583917077
-0.149051223758103
0.536957712116062
0.240229053481984
0.318833512485938
1.13970443005627
0.355214648580826
0.157018159952052
0.19677823159179
0.227557859921611
-7.36833472068993E-02
-0.432792913626455
-0.199373599754312
0.958080872116179
0.231304785769033
-0.338136430056912
1.26431215848977
-1.96172493377786E-02
0.879754943655419
1.1422687155615
0.248873917928475
7.89889540863289E-02
-0.888677864483867
-0.789532275007239
0.635379249044912
-0.806573526159492
-0.134086806164664
0.454270028905699
-7.49416388140569E-02
0.648817344009749
-0.809629156483687
-0.464304914314962
0.822537115948416
-0.652702810994786
-0.75630637465467
-2.33736722311459E-02
-0.121548158884266
-0.28890891769466
-0.530544412671649
0.532700876996014
0.780617810641855
-0.978404860179559
0.123231481750009
-0.343771452126285
0.908314494120985
0.464827606596801
-0.725527062901572
-0.628800552466144
-0.897858544347834
-0.327871509795876
0.646422094709651
3.11820435877516
2.85228885858986
2.93600329996309
3.31428985608293
1.87435878489822
2.37095739948091
1.6845209793191
2.45106623790736
3.21308642105058
3.3900534809722
1.81369273717136
2.59197139120063
2.54088335520088
1.61317534753985
1.70577348243344
2.88269598436468
2.13295068636861
3.15129731253826
2.8024433436205
3.08322051653987
2.18684801965984
3.38444906046071
1.85534243265932
2.11814391272446
3.32308646703111
1.91707827977164
2.84244785762297
2.09609208319238
2.18384527826505
2.03267514032641
2.81729698942138
1.76491779654959
1.8157615848315
2.10362788025406
2.44907727350022
1.12604405440643
1.17000880949479
2.57516929498586
2.51511815453306
1.20044359986451
1.71264464619929
1.81766471760739
2.52333644005256
2.12038779316631
2.21047510159548
1.72938260845031
1.37070178878711
1.21523899494454
1.64244692645946
1.8722793116384
2.0848051781432
2.16620057374016
2.48384625616269
2.73622054280942
2.84912824565085
2.22408024793174
1.92034669248756
2.05245259806274
2.27862720371613
2.51576219606213
1.67121634813193
1.71502668557491
2.09076119337084
0.409224516918888
1.83575805170829
0.619270848834398
0.708109340007913
0.563578896842329
0.324323536297957
0.389294273363951
2.13223797699885
1.85975054964143
2.195007149268
1.74189931569838
0.844493610746831
2.08905625000624
1.78939091196812
0.322167662292137
0.717914069292141
0.271079847770615
1.7454780770003
1.04637709702491
0.765464794957053
0.578884317412186
1.56321806380177
2.10079635130517
1.80332413336339
0.868741143386702
1.20779098073892
0.570295985028336
0.173955625379327
1.14319709262582
0.658086294287126
1.6086040044907
-4.77777167140621E-02
1.32044051539582
0.742574841356044
0.512425353844671
-5.11874535980474E-02
-0.160431238907188
1.65203980118366
1.62453513075336
-0.071236254844975
0.500499536983844
0.778397617245679
1.26634606163792
1.37888416135952
0.118909542194903
0.601105245291499
1.48834154651954
0.286390825185394
0.470724266158685
0.627416037365826
1.7271554942643
1.13209518823561
1.00732339066148
1.29001232334965
0.870971823747353
1.05498532029083
0.34176729911097
-0.18469242390309
0.360306447993
0.511068016373981
0.137990002446752
-2.02204631102421E-03
-0.610874784391121
-0.672149789329149
0.379045482377665
-0.847952750792598
-0.378357685911294
4.68550185106877E-02
-0.752866113167483
-0.543883805747103
0.303033627198722
-0.949917282304131
-0.78272413138287
0.670091546117337
0.41769104668778
-0.617656773556192
0.648142808305497
-0.426963134309736
-0.563466705000732
0.209901663473761
-5.23077338890933E-02
-0.743467839897624
0.995280414026158
-0.703105214576448
9.78980544954409E-02
-0.594805008317324
-0.64151087594158
-0.465508687753356
-0.257995025748627
-0.294218101315676
-0.450463007900931
-0.776215047958289
-3.06207415938659E-02
-0.651446201757266
-0.635365885979888
-0.708075571164922
0.177166092383449
0.219355383696715
-0.860668442727044
0.912000685624673
-5.53939848414265E-02
-0.171876325281821
-0.901113735830247
0.100726786432645
0.725003255029805
0.279306856216142
0.39923315066508
-0.216038111518346
-0.65802101577438
-0.338060362927314
0.553205410986687
0.548645955825603
0.770783696580024
0.121887867211292
0.837034552767621
0.840728128945525
0.492082903641863
0.576039673826553
0.485052887554704
-0.277813518319277
0.824771729441164
-0.462012957559513
5.91132937304284E-03
0.466253163328206
-0.923986083404609
0.847006641887904
-0.2084840855697
-0.751525640067598
9.08417547970122E-02
0.226914694999136
0.340277537454814
-1.77501700423218E-02
-0.159705998036375
-0.451363795583637
0.879159723078439
-4.89869663291578E-02
5.62094801915471E-02
0.43009455600426
-5.56002024251532E-02
-0.694772241921525
0.602434633528457
-0.620706946733276
0.568669671652801
0.720893441582798
0.266343857964659
-0.928774610633083
0.122832963032767
-0.44273352776674
-0.038787548017756
0.546518303035351
0.573345825239051
-0.29497923897022
0.949122023874889
-0.870525440025959
0.941739442505677
-1.79136725432172E-02
0.625719350131395
0.685450306707399
9.05127595269963E-02
0.412920193550685
-0.347709899885486
0.47226674591357
0.610154862501129
-0.9820202111554
0.777249405231816
0.287621310541023
-0.455093364652909
-0.156315632181476
-0.441707969706961
0.874229364875517
0.970262431845781
-0.120834352709957
0.378085334534412
-0.383307183415137
-0.976897421291364
0.234624834498093
-0.359470875670102
0.448858210836648
-0.114261253313478
-0.502871650324317
-0.158753248487247
-0.412308249910016
-0.561955593675463
0.533190235484835
-0.67488724349609
-0.780535017079884
-0.182766758235668
0.173505504699364
0.975262861598169
-0.413689871150775
0.962739485390828
0.19371337610257
0.822172678533466
5.59696884476866E-02
0.374043989184774
-0.203914473445789
0.618032195269357
-0.295169183987129
-0.227818822612261
0.400550192522286
0.790783681507619
-0.29589971992129
-0.868947688784297
0.969478127465398
-0.126168452064806
-0.628758371269501
0.632561140580473
0.319172522604704
-0.498427356141033
-0.866438124245866
-0.500021367335404
-8.79797155952389E-02
0.367537029931641
0.848100391618498
-0.623165649231615
0.47677776928634
0.161068989771147
0.931738465232094
0.94402215112481
0.470479966302934
-0.569880626280324
0.577713706592025
-0.194300862687522
-0.126022672541109
-0.438139382436428
-3.05109578485474E-02
-0.675053182301609
-0.895879760370479
0.62947627494529
-0.149808605238476
5.30546246033408E-02
-7.08730098784598E-02
-0.277381819114813
6.56012516743274E-02
-0.328324009582098
-0.810313789975659
0.560664070910673
0.770939612900584
-4.50016546140034E-02
0.856861107898437
0.682049894018597
-0.123535514806602
0.159458588251028
-0.501122649204975
-0.690408653146907
4.15484605442829E-03
-0.538573576445607
0.582393605942267
-0.889150457039334
-0.262474584702506
0.588668817337769
0.199867638711095
0.504237004548615
-0.731118541579181
0.629298623445409
0.793147997394605
-9.42998656487506E-02
-0.316911806946108
-0.847697695205423
0.234436055360399
-0.632544772825042
6.41952052383759E-02
0.236631043224725
-0.770721061369593
0.42939581176211
-0.628978168585758
-0.218768967889798
0.42226997135557
-0.314570281511554
0.600075097241435
0.556278965461271
-0.185351960847931
-0.438855699945687
-0.861062653020153
0.856279463883341
-0.855996140102325
-0.89415986546291
-0.5894735399993
0.328571964479754
0.729816076479617
0.221112604173709
-8.16028682208529E-02
0.576184599203007
-4.54441504658585E-02
0.67980269108399
0.625517259333847
0.471864357282708
-0.97138544012955
0.53327829014802
0.233719060237906
0.770502125354846
0.97832458496987
-0.938352216993296
0.378290512753601
-0.429937058830652
0.89985865165419
-0.70935091789429
-0.988062249159108
-0.553478412581149
0.437809121835461
0.280596949024057
0.32461520831473
0.676194963281653
-0.824235691940341
-0.113087083184335
-0.569514326069935
0.859252671485315
-0.832786070609315
0.498401921158493
0.750538081440888
-0.528921518728188
0.188632102804957
-0.621418653969973
-0.470843556818336
0.393545343691105
-0.537398131371837
-0.332992153583711
0.245199051072371
0.31615787405691
0.577359947127142
-0.158311475013231
-0.1870872785631
4.74062780792399E-02
0.120157599734995
0.500303621259403
-0.584727669560398
-0.760433211485116
-0.854652435596726
-0.312891747328728
0.572101518012906
0.805574054713526
1.41236828802696E-02
-0.325978461890024
0.617596378881832
-0.605518696560643
-0.628644970103135
-0.901448019803702
0.146639121904117
0.692415687711108
-0.934027912943482
0.667848878987479
0.18655459825718
-0.971174649261771
0.674877928307671
0.257309619600298
-0.139271723362612
-0.206793102430547
-4.36263682866256E-02
0.163813931190989
0.132769515680419
0.505391435963942
-0.962398418780061
-0.482203699608568
-0.145329912939809
3.28586800000636E-02
0.431527636327232
0.415008844059742
0.789673034137428
-0.588561219883311
8.24968300717925E-02
-0.802032892697092
0.540333137165313
1.15265270064491E-03
0.555414593217817
0.498712077395949
0.384515157436624
-0.70316847007228
0.212120042807704
-0.851337388689083
0.906842435891274
-0.38645220066675
-0.240465987904411
-0.132027519396594
1.03735251771246E-02
7.97794342354847E-02
-9.23202968231129E-02
0.765947473249907
-0.596949695076558
-0.103379198432496
-0.958309755799684
0.115718118204318
0.975726663382845
0.659243715618167
-0.20956808443659
0.61050477561428
-0.376647585969078
-0.312797145872118
0.165388590976928
-0.634548275674308
8.15302571196841E-03
0.773070333729652
0.546967743104423
-0.701851571063491
-0.476589316916571
-0.465724883548734
0.211404333785624
0.202595715553206
0.288718678736933
-0.359086712453883
0.319954600223585
-0.174483624614055
-0.60765391508013
-0.407314356260322
0.333087041746428
0.560549158833951
0.793615728556108
-0.568989362741983
-0.334105926556305
-0.004993145978054
0.307963612105227
0.797749854156866
6.69627122587668E-02
-0.524481039275698
0.919614424188688
8.98753491222664E-02
0.681459069608458
0.10302035348806
-0.698427938232147
-0.890202513287646
-0.949803593229933
0.124188203655527
-0.130108719116852
0.573963740866947
-0.600027505985974
-0.444430282253456
-4.10391207979659E-02
-0.882271707153848
0.496477586156663
-0.941716231146486
0.776795361578656
2.23840854487494E-02
-0.940410126707483
0.575320948683581
-0.315903069505235
-0.209361082931178
-0.718109169357241
-0.949894163690891
3.81159760711964E-02
0.909707606863101
0.344748833353299
-0.335872776661453
-0.647896696699433
-0.333416186832863
-7.66547139966967E-03
-0.536918099375657
0.843413392231428
0.717944567368221
-0.797552458249559
-1.48816209849737E-02
-0.421916986526138
-0.732467847858869
0.784049645461022
0.561407662163037
0.366976019991699
-0.833252104110116
-0.665085310494007
0.328408764006553
0.328349828441454
-0.970416334759693
-0.591178209617731
0.672837275868876
0.603965550690532
0.540906870703623
0.970233725254526
0.824485744447684
-0.899371235350342
-0.462494092743949
0.255418043698178
-0.38131433264328
-0.673686405551609
-0.8458066714871
1.24836410671032E-02
0.069341146625169
-0.600210926534337
-0.647345062785746
-0.241177752914847
0.325105003759484
0.134931305613629
0.488622905569387
0.172958687544
0.825408707570816
-0.264328449838653
0.223342788244302
0.028830167318723
-0.970301620886356
-0.915204677114421
-0.951806194694369
-0.815969929957025
-3.76306263134619E-02
-0.130426520451976
-0.033286790321633
-0.950432204032694
0.997532704908129
-0.140527897250437
0.466165620477977
0.697211280926093
0.801887468069123
-0.464046999263715
-0.188810849985292
0.301494844099877
-0.839386439894118
-0.028356869084821
-9.50592584570485E-02
-0.033009545031971
0.530339961165993
-0.634084130686703
-0.51144632013425
-0.842543789934455
-0.405115479745945
0.966193723691972
-0.712389247394914
-7.80085152347535E-02
-0.156398633759417
0.239046868798273
-0.135272541553801
-9.56563343134976E-02
0.248813325111358
0.102427807136325
0.400230234900674
0.725027067222137
0.487946814653577
-0.209851530311118
-0.601695222001896
-0.258069453627051
-0.162372498733937
-0.508029038779439
-0.596118987545185
0.423605485008731
0.861135869691528
-0.702550721468036
-0.784088866754097
0.61044165324855
0.317261881129578
-0.831075130633245
0.795588403059445
0.792454316417828
0.337739388079954
0.678844569857497
9.34442832231612E-02
0.198421085739792
0.852080552822714
-0.931165247208937
-0.642847066107189
0.969623063780657
-0.517227855625388
-0.177268325622813
-0.867738090973769
-1.75396159188326E-02
-0.309564325111043
-0.606966853932073
-0.86904059469694
-1.22725308141771E-02
-0.182306405576721
0.98000255353953
0.419377886990589
0.650349633134308
0.862125787209437
-0.665078056462753
0.961825994666593
-0.198102201766704
-0.697160782579739
-0.556243926927594
0.460729781656194
-0.240786309093825
-0.888183970297848
0.644755558873797
0.643955991649004
0.915993927623428
0.200345103318587
0.243292521671874
-0.323419624770258
0.980196528440554
0.982482609607503
-0.99051250747954
0.212054446997337
-0.791350609347132
0.481628292177355
-0.921047119982344
-0.251884765586867
0.781255717808073
0.462944428131587
0.724242784226084
-0.584327532247499
-0.939292969847128
0.443485062822597
0.224365334119917
-0.895700786737592
0.899629928209141
0.113543946479
0.63197917438076
0.915841493164648
0.385608807822626
0.696870057378738
0.622661337012157
-0.661945801579715
-0.544458346820458
-0.915959909712125
-0.19210097329376
-0.756939857360689
-0.33569775187027
0.192418476301933
-9.67757880162984E-02
-0.159179339889579
5.86977979450625E-02
-6.22246455447115E-02
-3.48252161597751E-02
5.56960668546638E-02
-0.413774180138683
-0.553225970693336
0.545532176683537
0.444565426995224
0.759150789499161
0.696180138333786
5.85505373634587E-02
0.737865341223644
0.397936068774062
0.63378495877328
0.916658833443033
0.360298360044081
-0.805917750145812
-0.982323727878549
-0.937618149490981
-0.12414801069653
0.560938886382947
0.70463075397263
0.408993131809157
0.202160246656254
0.782072275019771
-7.49575857510049E-02
-0.600323309225788
-0.347870100345173
0.820287154642344
0.200942073861151
0.40474187098748
0.386144493327765
-0.683583572785904
0.995304092699586
-1.30015835752972E-03
-0.30395014958687
0.285507799759779
0.924976265814563
-0.706223363572132
-0.307484920332438
-0.190946867315582
-0.57378954833331
0.453703211051391
-0.569745863957883
-0.374579810577871
0.130911109812233
0.271388156295764
0.280983359502861
-0.063336072081342
-0.106639486261453
0.266344800695104
0.451881115651423
0.978408705508967
-0.598680832010198
-0.857489752266563
-5.22938504727798E-02
0.94050901565642
0.612041309587213
-0.355641626182517
0.987622378514067
0.679712059872128
0.872885376522691
-0.141023847610403
0.913167534769044
-0.668439270056524
-0.482159515814903
0.834036756947745
0.961694913220709
-0.592708492746609
-2.45698072971324E-02
1.63694087700077E-02
0.930006987796264
-0.74750271031834
0.980095709175187
-0.536908762081942
0.715790894150247
0.847840753887348
0.348301031029036
-0.962967901859608
0.999856387397086
-0.151880493026534
-3.77563778233865E-02
-0.129550846300935
0.920067315231402
0.484499991532831
-0.90180575098143
0.26579281269994
0.488248183475277
0.495752688152234
-0.956869340095366
0.899552748791174
-0.285761565147848
0.607836505302692
-0.937529650493871
0.704976653765507
0.92665734605393
-0.752803434839416
0.213348155709403
-0.868278714051222
-0.382167013779814
0.151654337189352
-0.757975079092423
0.615260271786461
0.290739769809271
0.333785457915087
-0.139345342991517
-0.963860800597369
-0.751320830814698
0.455195639920448
-0.932222427567762
-0.291066183653973
4.38293324442063E-02
-0.91387872564818
-0.141452680872602
2.01303286095341
1.38867948958562
2.55329609128328
2.66484163159126
1.16213293462895
1.73475618146562
1.12004200327621
2.17204544278188
2.80659810090114
1.4359382460617
2.09605684709017
1.77843710685427
1.17260267906077
2.43904902136982
1.14038788202876
2.89474830228879
2.26424134475628
2.78230400607194
2.49959570839731
2.52560907930507
2.28955630613628
2.83258347661125
1.21412805055216
2.13123004116667
1.91869667906028
2.15538969968998
1.42943983958807
1.63681446573281
1.24219135613373
2.18673939921643
0.864409985630195
0.638833700256545
0.369581476293595
0.464132590961027
0.218122571372398
0.351439354262335
0.49342533263068
-0.925870676921982
-0.162905718985239
0.64292750520126
-5.90471450539082E-02
-0.813043013634047
0.318546796676657
0.631309474980408
-0.754586308106972
-0.926039133264077
0.891337372685121
0.73968533685287
0.591427701585143
0.841601843312486
-0.605322469271703
0.856256446245906
0.123412498305955
-0.733904735671562
0.465784454580869
-0.699545868533217
0.553428672557618
0.575675951937756
0.15112600174883
0.665802083469162
0.264548329258502
-0.19713516602908
-0.428064570078172
-0.708229157942644
-0.321881328807024
0.417003218220059
-0.496812119187654
-0.88897662620444
0.038057942112758
-0.652288369699634
-0.233753938500036
-7.49089106245709E-02
-3.74137446034558E-02
0.222820356605617
0.188898158844043
0.780660679150174
-0.876439839990604
-0.330290080920126
-0.447472945702155
-0.949707545742538
0.235844583258948
-0.133110233982642
-0.575335041058919
-0.93446838538373
0.173922392283065
-0.816965078232874
-0.9337965203121
0.707014562158517
0.480206299416681
-0.296410169603742
-0.29395485783249
0.225312918735344
0.78928456661431
-0.279559539509743
-0.608002971302181
0.747898531639132
-0.235403127067758
0.848045320784747
-0.644775997543838
0.421753261890399
-0.971197476386905
-0.67019235413855
-0.633406354842611
-5.22115035881389E-02
0.266368975693349
-0.68863964383047
0.916761335074552
0.382378974084016
0.18667392663207
0.382827662754727
-0.782141040843095
0.51295739273794
0.3581803152421
0.530016279718379
3.16689699399531E-03
0.858755556316535
-0.940991299748244
0.784880640016071
0.892164138687644
0.404419729230421
0.236497429077203
-0.671502742194471
-0.308132717151342
0.543367351756657
0.428106714959677
0.575173294153902
-0.578615427556024
0.389393776723384
6.82879213953784E-02
0.854205787096877
7.51270038557639E-02
0.60917784602904
0.990705364764942
0.706198025882039
0.181133860096569
-0.765024305902081
-0.867536268728554
0.523730730825103
-0.93551394584601
0.535933203779174
0.456759077267477
-0.708424354526891
-0.608204275818064
0.958087871262272
0.932637905792599
-0.480469475988665
-0.948723255519314
0.387271294773272
4.53138574088476E-02
-0.888655512249072
-0.286083821643247
0.545764563970394
-0.242242704216957
0.876093788783863
0.524781975886244
-0.797300862931546
-0.895961117927898
0.663758278944315
-0.710481307177946
-0.9401634720184
0.667173655085079
-0.305360007900069
0.249597696153363
-0.331499235358235
-0.921022192826672
-0.447344774341762
-0.919095449895281
-0.459922056687608
-0.62328408878991
-0.474577247900412
0.10376191278519
-0.26836153063493
0.561082363205918
-0.50053894673681
-0.141498815844592
-0.380122611762773
-0.977674276752928
-0.543301894977366
-0.820787061825124
0.320709506670743
-0.363909195977343
0.768888188287216
0.689320733203273
-0.731503928167098
-0.722180882806107
0.949420286763592
0.246139024753681
0.838021103036493
0.264313196220781
0.297393774858589
-0.722408378321662
0.573975196482035
-0.196663365026097
-4.32724280362544E-02
0.182782266895837
0.586846115404558
-8.31130888727595E-02
0.313459040158512
-0.990874680314513
0.980755457964644
0.501044243410692
0.367280776869218
0.472259068938356
0.797921770881666
0.19506401617667
0.738752348754574
5.09810878903747E-02
-0.103929244281015
-0.445351957079355
-0.688483455828942
0.367959601608549
0.419254142308835
0.659093428490401
-0.840761442368136
0.357990968059916
-0.920820961055746
0.729284761425762
-0.630121529458283
-0.170910909890158
-0.666709174699727
0.593260533277401
0.65529728746396
0.937707730260105
-0.272507631423108
-0.091649425942493
-0.777912065686447
-0.172087038722112
-0.834475877836825
-6.63538163582655E-02
0.279912341961104
0.225338029503253
-0.326331035649075
-0.656168670610506
0.776517825574801
0.130268789915091
0.348587578277309
-0.91483183560296
-0.526005057008184
0.920223624408419
0.60772972675599
0.596695821249517
-0.681268971321963
-0.849092846328057
0.605908094389774
-0.14553262825124
0.207903318789072
-0.864567320300874
-0.261738391777283
-0.356084746096027
-0.281753386432573
0.9852242546269
0.518976110226544
0.225201053837121
-0.86177896273416
0.212024206267824
0.806770375503183
0.128671187865672
0.232595906294771
-0.781051426604617
0.342296701274377
0.202305967498627
0.568856554695837
4.95475786747797E-02
-0.130754616554741
-0.769685623489366
-5.22686868257869E-02
-0.38265581704836
0.730083525341148
0.451793654678056
-0.494473233334908
-0.695659883244344
-0.241001358641741
-0.869362883969029
0.393849986989267
0.295492950741152
0.538758736419675
-0.037359522218139
0.592686621768251
0.307184946876931
-0.355159125874913
-0.44697841403532
0.375695157547957
0.471218725653892
-0.630679219888652
-0.54266515162703
-0.778032437396547
-0.948108354774321
0.598656985918165
-0.648973323830405
-0.443602583834604
-0.597784805456263
-0.986356864019427
-0.22235571895268
-0.398812571765571
-0.893637666841714
0.586443442409823
-0.377024259770596
0.833918590105089
-0.391059293969984
0.468765988151563
0.972164535528742
-0.927006050625707
0.797705600334743
0.796870031488504
-0.670892117082317
4.91606977239536E-02
0.984841962333344
-0.316756356350675
0.312213545877778
0.472204656724201
-0.477039320206057
-0.278571444375648
0.887855184454964
6.48022999774018E-02
0.895469422396296
-0.300389821014718
-3.73673691809666E-02
0.810905430578895
-0.463005309719132
-9.97690617527049E-02
-0.272191642573918
0.753925014700925
-0.131953258275839
-0.642974290193719
-0.465942591588832
-0.919629435713638
6.91349751003241E-02
0.747519289830607
0.271933604171249
0.937492621083251
0.973056891030667
-0.781834317848964
-0.7567792324969
0.458866383409116
-0.879900520532013
-0.629049695715662
-0.669397447880074
0.80974494705282
-0.500592713425503
-0.115583846172528
-9.21490922036139E-02
0.714401360229567
0.790787381897923
-0.201283371790836
0.379998593674481
-0.109430384806853
2.47366264255358E-02
0.363436875859143
0.502726271966138
-0.908515197300126
0.494492675728192
-0.471432359329745
0.702461381452837
4.39136238419728E-02
0.482425683590298
0.653155224470578
0.503450374209852
0.470957079830489
0.904102923774272
0.812792084876051
-0.134667470174396
-0.398702466484018
-0.6731251082035
-0.793746602943231
0.744508803161932
9.19533806614155E-02
-1.41538719189133E-02
0.593225265093013
0.514864564129562
-0.870505369803233
0.398610833305191
0.439211050888702
-0.981828916831688
0.625063946458638
0.971147632289555
-0.499657085094884
0.961756101437746
-0.118562246336601
0.59078451670449
-5.00338369213909E-02
-0.859200544207871
-0.114246936147619
0.618160184852963
0.830504755622964
-0.465124762787216
0.469416065549773
-8.13764384961074E-02
-0.391743240056571
0.713127764733748
-2.29007704315495E-02
0.614529132773148
0.915409739192575
-0.82026581122104
-0.200375666446641
9.34011402303212E-02
-0.817294517823153
-0.69892773983308
-0.849080741242964
-0.527044446283175
0.797825837946526
-0.721722837510923
0.807127386453136
0.202483996010542
-0.331289926447334
-0.736362680590114
0.176338620910371
0.771119810272103
-0.372343259374045
0.166544383762878
0.030301981087226
0.597021946756868
-1.87980690667535E-02
-4.55216753837256E-02
-0.495129559902506
8.75277605108207E-02
0.692407847629538
0.326774472939938
0.563818683793929
0.588841693129686
-0.823664740586632
0.5236842399192
2.10660470045398E-02
-0.515157481601318
-0.503885635497813
0.730507904958121
0.429226491754422
5.81070061175746E-02
0.866169573870275
-0.953657565812774
0.667799109726875
0.892263990768232
-0.199206359249578
-0.690746152440807
0.9022022677496
-0.426691836437361
0.990407710770667
0.204448343979641
0.735246119042779
0.238518659713578
4.44845008431209E-02
-0.970716936121337
-0.164472159570815
0.125142957340981
0.60925196484551
0.24872209817663
-0.897374364905373
0.687022485322384
-0.950063994942787
-0.452890743922205
-0.483142925426414
7.58517903486307E-02
-0.118558941624178
0.466895183159538
-0.778241085254947
-0.175221161189485
0.438008096454398
0.922221290005718
-0.899664437719036
-0.574430643633768
-0.108469807378146
0.885029098653437
-0.868485800125804
0.15657449743705
-0.34015337619748
0.363629117133838
0.15113527681288
-2.74452589313645E-03
-0.509523326928016
0.42842886704036
0.292197397644217
0.756035961442329
6.18953829921804E-02
-0.513214546229156
0.341966802778074
0.641767426959244
0.813593857232651
0.268713666630384
-0.471048514848759
0.425108595395518
0.897807450695394
5.74460561522911E-02
0.840631596146478
-0.935363478708243
-0.360064314332367
-0.416392660059779
0.87322725773222
-0.786478959541112
0.701318534773248
0.699030927084502
-0.572323209084555
0.376111252082433
-0.742825685959979
-0.543989034489898
0.591387775698597
-0.350202354175554
-6.58553177653928E-02
-0.45995096803354
-0.116784986629115
0.966029319353746
0.996033606054072
-0.86107973333965
-0.810490744575856
-0.46461886513789
-0.677033102110536
0.278149016331638
0.68197183252401
0.805081651587171
-0.901659523940926
-0.587249768017036
0.68344054349203
0.653428142476371
0.799565170961161
-0.362641802740384
0.535623031994872
-0.225969789790225
8.27572956978342E-02
0.261629400594626
-7.68158939070236E-02
0.243840114882098
0.458164529856321
0.695072894494147
0.821484771507679
0.122442455656313
-0.727742892507245
0.595226388112129
-0.739339394675643
0.596092126340051
-0.555944668215924
-0.944638080867899
-0.563381616315209
-0.341494908985295
-0.35259535631473
0.242671277740007
0.349919897724548
0.611421828391286
-0.812449451015563
-0.654853870742234
-0.883586969233404
0.771479151645072
0.689505630829085
0.94513401284709
-0.631139287043119
-0.314058414680099
-0.102657451169939
9.81659309324212E-03
-0.243291727582031
0.888359406957516
-0.622313523067249
-0.426377323807902
0.45152179582347
0.766235631403699
-0.272678324924167
0.884853516530766
0.778519091245654
0.466300239596349
3.96744005019656E-03
-0.70143600665932
0.620006642863371
-7.09946739660268E-02
0.530919209476909
0.520008840696163
7.44261200913088E-02
-0.877629322356677
-2.96088111497721E-02
0.937728446245089
5.10460926477263E-03
0.336324617935451
0.617037460633884
0.732614673859839
0.5756933569542
-0.99779897924095
-0.767730302398559
-0.790937330194958
-0.355329147378186
0.918068429489171
-0.578370999507806
0.366580232376503
-0.020824178964347
0.989083534709475
-0.448388248817995
-0.885008266552197
-0.351172505615066
0.63307630335732
-0.491012003479899
0.733639879653138
-0.326920124656488
-0.144910173440034
0.224793592768811
0.184753302543178
-0.978951422705925
-0.339385970136619
-0.183184094138494
-0.286585576263652
-0.59936151691582
0.955767203620506
-0.551464704710735
0.801326929891988
0.924191400809323
-0.626304395222789
0.559124010101376
-1.11514022052855E-02
0.700764100928764
-0.430023215113238
0.988245232828034
-0.660479803567768
-0.31946352244784
-0.554172129120059
0.701035571030104
-0.606413093560953
0.664741573238445
0.486435556301803
0.312795180917936
-0.658225085851416
0.294898923739933
0.942740692147214
-0.580450398243179
-0.152149528416486
4.80235142687526E-02
-6.14748837685049E-02
0.859788831689228
0.458255296593974
-0.210126376515746
0.750664991573931
-0.535670660968201
-0.140622708241475
0.276190788307028
0.488929578149822
-0.404614484800983
-0.622219010366089
0.14227661485747
-0.807279027512229
0.832577403677392
6.59886454359135E-02
0.384140567312178
-3.43350924593956E-02
-0.467257409082142
-0.523832707494597
-0.890154731434049
-0.815020661337587
-0.327939436375721
-0.203656163789551
-0.572435729462814
5.10624803868116E-02
-0.626861825964589
0.408535111623844
-0.26274009170002
-0.216242174372855
-0.173653757085333
-0.874554101360483
0.405778186078469
0.625269311617294
0.933837027262865
-0.627846866308094
-0.169451100293387
-0.52428446189119
0.936313579410501
-0.598539172336558
0.2349692054924
0.465827152286276
-0.473237607069496
0.266374753093247
-0.811059539447649
-0.937692288523412
-0.487998668969473
-0.279587101745766
0.810917778519091
-0.595106567153356
0.952035649834402
-0.523767826930183
0.883222824141173
0.490163280366854
-0.111144827516051
-0.674681786467855
0.700261241760085
-0.454333830664004
-0.72955315469791
-0.493749717279177
-0.630323969093445
0.478947805303387
0.482436957995993
0.406319383273917
-0.5006403940017
-0.360424510538488
1.89183520096323E-02
0.191042706970384
0.728637315519133
0.298274267150029
-0.744341589963266
0.278383761624786
-0.600173841205252
-0.774195665013128
3.30241561275877E-02
-0.290747286501677
0.816762805635082
-0.454775801745299
0.812601638185161
0.413127423231784
0.999785943076445
-0.365299352770008
-0.459372757604894
0.127401098109648
-0.377951807469113
0.27404162286896
3.29891493054901E-02
0.301327880305108
0.899924043666921
-0.543356266364162
0.690697903074615
0.700204097615613
0.610670322339754
0.329562432164189
-0.338634224480542
0.622687503758278
-0.876613533197727
0.577927263794116
-0.818625137308349
0.653923295239725
0.354712971632384
-0.764058355923113
-0.234945079618722
0.69941073289022
0.898596133180053
-0.614778772212357
0.151332276480262
-0.32068963354409
0.229838703903282
0.492240793324516
-0.525048144787203
-0.289843074998702
-0.155953744506163
0.240175655418506
-1.48502127370254E-03
0.860709010251811
0.471969497010613
0.626438430815601
-7.67836457531678E-02
-0.359068018439505
9.41339860792487E-02
0.825728406846051
0.290304077804109
-0.732123391749376
-0.617961268965207
-0.140574163765476
-0.208072815530625
0.449480743876793
-0.594903714750692
-0.534320591499283
0.429176026607612
-6.29118272487016E-02
0.967876965833489
-0.269449412251445
-0.613238866310572
0.419742989418153
-0.219888783680165
-0.980905766596357
0.237917213017176
-0.531915075045187
0.81229400090067
-0.463729452897001
-0.350241078636205
-0.817064672795048
0.652626401835952
0.451099079381074
0.128456714815553
-3.65698387060918E-02
0.456419639356811
-6.65193269160068E-02
-0.974759585064715
-0.618178452250226
0.166977794846348
-0.318370052554041
-0.981620177512155
0.536834816189214
-0.912634090551797
0.559075080053802
-0.407068094006433
-0.545265864247619
0.595360835012481
-0.186301516382306
0.659184519833323
0.117015267390445
-0.180727095387847
-0.982692880383397
0.382367727456109
0.515909016734
0.430216733617425
-0.657263302143453
-0.459656138899784
-0.226354110916852
0.356800988035457
-0.913490239441435
0.282628735110454
0.808696417183095
0.191096203130735
-0.551416462526234
3.32363228125692E-02
-0.70803119793788
0.330131858039038
0.496738650239449
-0.538519625700506
-0.291789859635212
-0.514936661858895
-0.02832456816364
0.939006987043903
-0.777376681298586
9.05407508295646E-02
-0.87009917451647
0.707972460210256
-0.250022108503086
-0.640298073939707
0.175003450451441
0.104421775867814
0.133257718286558
0.255602522820113
0.993931046365135
0.612563489405386
-0.338844903994081
0.487786916761847
0.893399526525225
0.269777318068769
-0.711514365627935
-0.206905954477149
-0.177421450426761
0.998831797322351
-0.129135520512871
0.222683277404017
-0.828285529962017
-0.187070847869056
-0.515250302819558
0.932655349742035
0.652366723741638
-0.479163732379123
0.476224411876143
6.35350733591191E-02
0.993449767944616
0.553500347399492
-0.733345011622736
-0.305727995775657
0.228287929734439
0.840188766542569
0.140628038586731
-0.430693125161149
0.201406260620586
-0.718666447094111
0.251334630863548
-0.677358588636004
-0.410203532537722
0.296901105020794
0.900835985055139
-0.739259573004623
0.211911833723929
0.173248503597657
-0.212589891827105
0.416485274151701
0.68866166634986
0.488068873068142
0.35944493311766
-0.450711369066378
-0.375809403805124
-0.237832192800372
-0.324891177620843
4.18709393166004E-02
-0.609756055431978
-0.331545192381515
-0.760705136888021
-0.76791018933251
-0.673563623532198
0.622673287316182
0.174101492552672
0.618603982608979
-0.290243925078757
-0.612966192617026
0.7763769993588
-0.407955708896293
-0.799847387263728
0.437055653847575
-0.974378477308783
-0.131245459992773
0.63507250995439
-0.726437304518757
0.927805483882277
0.642056105623812
-0.975678508302362
-0.394080305626593
-0.28457063415319
-0.38361994372938
-0.612351062885621
-0.610763417363166
0.871414942685637
0.552502327734571
0.68096462768478
-0.932592324380068
-0.295816008977219
-0.272493306148903
-0.52688535914092
-0.944505090653623
-0.226453634056544
-0.19900768363388
-0.736342213565817
0.489103409434614
-0.148216019626673
-2.05679040626618E-02
0.373100371540352
-0.424960749220471
0.301584293441456
8.34795406514606E-02
-0.809437615017819
-0.503320513879898
0.762241100887462
-0.851588067091175
0.229863873270447
0.759125448729154
-0.142192787464787
0.525788489833453
-7.64641378433732E-02
-0.896649773591432
0.275648363999515
-0.895207260291309
-0.624724102741457
-0.324806973913323
-0.988886041207045
0.234619013757969
0.394883852321502
-0.995807390940569
0.833805439659826
0.204653480863612
-0.944270916205358
0.528893472136024
-0.896811220897506
0.7270908454685
-0.256683691004213
0.899398164945669
-5.39362711195701E-02
0.767018522022897
0.204532069981005
-0.905418982757228
-0.494332920002336
0.277890539602182
0.460670414146557
0.510517744434449
-0.5180461951728
-7.42957117171467E-02
-0.386648488137817
-0.391672686131446
-0.495135009629108
0.723083525948467
0.550962322920076
-0.546237933029118
1.71573402087164E-02
-0.355137763985505
-0.645735405879354
0.537523381717023
0.290634530359268
-0.240346301865086
-0.196669234124625
0.634420518464193
0.959386447100164
0.187280694132173
-0.196015917310296
0.141130837438459
-0.974092342868226
0.279832886624042
-0.219565389361864
-0.673539498111921
-0.31926726678294
-0.175492178458419
-0.878180947755716
-0.765355000710489
-0.526509132393662
0.779283254383913
-0.376132930236739
0.601369918453251
-0.616951513312974
7.78585570796699E-02
0.532933276866035
-0.926167524228979
0.156673680978422
-0.621805817894583
0.27814899200006
0.270305479644705
-7.70773564882825E-02
0.279367696926234
-0.731536008839787
0.771305642375926
-0.469787222052631
0.494357210320158
0.234863767286249
-0.996391027003698
0.322814061525825
-0.258248165761346
-0.485936416184469
-0.840003466486217
0.13825479914725
-0.29271925314707
0.398496349719919
-0.20824560203795
0.194904300559837
0.326442586562206
0.218426580707152
0.517592650601461
0.235760049055016
0.852407309750577
0.175538846879283
-0.588211882891614
-0.195767068197611
0.698753659502925
-0.886635587521239
6.59971761336475E-02
-0.150010286998088
-0.115504084358532
-0.611574768106591
-0.936675336684604
0.99767727059508
5.92440157532117E-02
0.796990733485845
-0.340123897826709
0.758619034726648
0.549231973885438
-0.884142365915648
-0.161839092995206
-0.274660436893833
-0.359659922063204
-0.768420607844657
0.578354830130858
0.361038905634091
-0.59787288979606
-0.938913183262053
-0.812429364513258
-0.619096233014836
0.757279033197578
-0.492342187806801
0.833926534205683
-8.05914111305538E-02
0.213771764437964
-0.45029096294666
-0.948657535489828
0.687524650970963
0.702436026437912
0.225898339180413
0.912635150832088
0.146021723897892
0.300502591242718
0.758542396017444
0.812623320373195
0.355811510017705
0.272097630505828
0.348369723393263
0.359595070436731
-0.386451479035849
-0.180452499083958
0.277144314460834
0.742630151907952
-0.759530741836105
-0.785255969940534
0.870711658466708
0.123910401300425
-3.52837908344268E-02
-0.432289235949679
0.603533533613919
9.92922820598272E-02
-0.777840945852018
0.38990259798087
0.166794539286105
7.70560829965654E-02
0.39799061026032
-0.67733940747823
0.675678358376293
0.543886916814365
0.541141348655762
-7.33647510866635E-02
0.357427187362868
-0.381216586274388
0.405821177615698
-0.734118163426304
0.040314385155904
3.97303180493522E-02
-0.190736439643124
-0.829278041778166
0.554674759233276
-0.215387559618894
0.242011977537453
-0.473643856547608
0.760653439941529
0.896987120812503
-0.573145050759184
0.709603196029134
-0.666650361709869
-0.231026052969971
-0.9052189358562
-0.61596784970297
0.664546916311126
0.127660398459749
-0.368908740511857
-0.735856327922254
-0.71876225834671
-0.721936889336631
-0.55792892479772
0.172148347314868
3.46655147110364E-02
0.774824784791234
0.902391633332119
0.736279731288374
0.979622453892923
0.626467746164221
0.565673015805471
0.417470818864665
0.342258267234807
-0.619834691225931
0.955410152079606
-0.798386839156577
0.26566911840041
0.991633365811475
0.700726198864689
0.257508580436031
0.126052960995303
-0.746115577647702
-0.958815322890206
0.136013756116868
-0.871767753933325
-0.259772210998094
-0.202843355426176
0.673769039522556
-0.382139118428206
-0.288960354034855
0.787005399173684
0.665293100805201
-0.911351814201654
0.240467475354658
-0.630383636069926
-0.419884185911295
0.216447892768138
-6.16256355719536E-02
-0.699434387649327
0.127012288560378
0.418075632598375
7.44684137384719E-02
0.412486238245643
-0.694708213194369
-0.588765069374075
0.655704369160887
0.764957173139257
0.733485765807998
-0.957053721842735
6.46838670455336E-02
0.856504793077294
0.508669606404115
0.257389845972334
-0.764077521747715
-0.748926712301946
0.625044090106877
-0.509911342315645
-0.971508455518026
0.543585451847971
6.82921194390536E-02
-0.996126557521436
0.4476838824984
-2.60190538468721E-02
0.102617910393099
0.723087147748036
-0.325007238030804
0.196384887962334
0.980265606915352
0.976002143697474
-0.515165428743157
0.719825520327962
0.328705762299036
0.221438759072413
-0.44191420265237
-0.640815423597324
0.80856779497958
-0.685910273725611
0.446645568210565
-0.330169686801375
0.285788156253788
0.154070401765588
-0.500123589240972
0.786648647894812
-0.275666418817509
-0.330269395046248
-6.70848553822313E-02
0.347953077241582
0.281250409994479
-1.22097894204787E-03
0.398487729448301
-0.742979905523645
-0.326319338416414
0.461287397148218
-0.081998148098549
0.918762416636572
0.787876829854751
0.459156930848343
-0.165668210641813
-0.713682263347041
0.713137813938313
0.790144842910964
0.567850638012154
-0.437903633836525
-0.0910213149907
3.05651827207174E-02
0.388905908783815
0.720097066407964
-0.94826177659525
0.619292994342297
0.164074703153015
0.151065666874825
-0.7427816519272
6.67171263658617E-02
9.01756574692163E-02
-0.320663257048302
-0.161159818672714
0.315802011041657
-0.200844663051035
0.959964396461338
0.536192441112832
0.698434991620183
-0.101392694159777
0.837013743717137
0.2367380576242
-0.841249098058581
-0.993177272074717
-0.371349845982854
-0.386163959899798
0.456141566099728
-0.352087670130927
-0.498070657631047
0.817125601665157
0.914173094025947
0.991679607397743
0.109956509276181
-0.623289156088521
0.947650074312961
0.35456614846002
0.486348759870483
-0.179525565087357
-0.921419137201497
0.62213075589247
-0.173299614587045
-0.845760452828339
0.442814056558958
-0.689836115081909
-0.76598339177845
-0.682609993719818
0.892631646560504
0.850680673782003
-0.235153681930599
-0.998051012224324
0.716600375846287
0.870675470951332
-0.814889109044703
0.811007582908708
-0.273501906898784
-0.274338189043686
0.729390743988747
-0.367215326544936
2.14739700840028E-03
0.356662728306489
-0.145301969815732
0.31949083788659
-6.14948932684697E-02
0.65845602229374
-0.51047164122436
-0.714441002541766
-0.594628943531127
0.978520858247166
0.601251229798461
-0.522304563748677
0.808595692105843
-0.889728289194193
-0.960336757321927
-0.680404244838774
0.632681440527014
0.200806832413392
-0.438205005217127
-0.302939886256837
0.648188572193058
-0.637460905747106
-0.29717279630773
0.82463362185465
-0.616628146990287
0.459717122722205
-0.269762070007236
0.922787895517865
0.687989756820326
-0.465013890741214
0.303067850621562
-0.964949444676779
-0.741756272232481
-0.352222534986142
0.655456690508219
-0.972620222074533
0.845320957194159
-0.484542380310934
-0.866631072653204
0.837472386960607
-0.463971042921104
-0.720193032556591
0.73569331866493
0.379583498210529
-2.74731932442958E-02
0.965540048440619
0.945665338982929
-0.839172502019237
0.669172775373799
0.754219206168211
-0.414171420887526
0.627819797197144
-0.311976074664161
-0.933945565316687
0.689515363926434
0.537910196267962
-0.149460552656651
0.623722611880486
0.454093728162673
-0.762851282142233
-0.608446086373263
0.166479998448252
-0.774007346168458
0.627515696255083
-0.497396539737482
0.289482826988419
-0.835216619066616
-0.181161409301676
0.565203069066415
2.37080482172436E-03
0.743360493168186
0.986208460555595
0.040688223723417
3.28095828640984E-02
0.563531651779982
0.791599719867425
0.961751096417433
-0.355171593148658
0.101090659629363
0.878787245323049
0.761815460893844
-0.20156969242483
-5.82855077098013E-02
-0.586453945778502
-0.218088388413179
0.846092172804439
0.828789677415739
0.41650863041526
-0.789272712951884
-0.356586755513477
-0.583459620017152
0.723946492175214
-0.55797353390075
0.945310765481068
-0.993405411401619
